#include "cnn_model.h"
#include <string.h>
#include <stdio.h>

void cnn_action_detection(
		FUNCTION_SELECT_BIT_WIDTH function_select,
		int user_number,
		float data[INPUT_DEPTH],
		float raw_output[DENSE_OUTPUT_NODES],
		float weights_and_bias[CNN_KERNEL_COUNT * CNN_KERNEL_LENGTH * CNN_KERNEL_DEPTH]) {
#pragma HLS INTERFACE mode=s_axilite port=function_select
#pragma HLS INTERFACE mode=s_axilite port=user_number
#pragma HLS INTERFACE mode=m_axi depth=6 port=data offset=slave
#pragma HLS INTERFACE mode=m_axi port=raw_output depth=5 offset=slave
#pragma HLS INTERFACE mode=m_axi port=weights_and_bias depth=576 offset=slave
#pragma HLS interface s_axilite port=return

static CNN_DTYPE CNN_weights[CNN_KERNEL_COUNT][CNN_KERNEL_LENGTH][CNN_KERNEL_DEPTH] = {0.062291857, -0.06029319, 0.027021054, 0.101597756, -0.21505289, -0.045569185, 0.09236561, -0.09975507, 0.11239573, 0.0696069, -0.24588706, -0.02491221, 0.109835885, -0.12486895, 0.052784335, 0.059498657, -0.3078584, -0.04390586, 0.024157565, -0.05722572, 0.029370796, -0.029248271, -0.1833859, -0.053790737, 0.016453592, -0.018375978, 0.02112739, -0.073804624, -0.2863406, -0.0055622556, 0.038549833, -0.06765926, -0.05329106, 0.026722359, -0.24760689, -0.057987195, 0.03574409, -0.12890567, -0.009013845, -0.020700928, -0.18441983, -0.008782036, 0.11252919, -0.016180525, -0.0028007217, -0.13922854, -0.14325571, -0.08869551, 0.0537559, -0.09077725, -0.040924564, -0.17240255, -0.09049781, 0.031636592, 0.049973115, -0.0870611, 0.0050499337, -0.17371497, -0.028933978, -0.020780232, -0.035039533, -0.069695346, 0.11108438, -0.1823731, 0.12213153, 0.036672857, 0.035375122, -0.09169927, -0.018860156, -0.2742657, 0.14686552, -0.014098398, 0.012036377, -0.015770916, 0.07513417, -0.26141432, 0.2871132, 0.06262386, 0.053787697, -0.110622615, 0.11487655, -0.29804024, 0.32016072, 0.004705082, 0.087242976, -0.13285442, 0.023300834, -0.30032942, 0.44529688, 0.0536721, -0.056557525, 0.10055416, -0.09255697, 0.20985518, 0.039096784, -0.18693918, 0.05408219, 0.044096433, -0.078202486, 0.032675885, -0.05935573, -0.14502345, 0.04379221, -0.04022141, -0.07544069, 0.07836827, 0.029279284, -0.002226672, -0.0430993, -0.033451464, -0.037034847, 0.016242454, 0.0020060425, 0.0044082156, 0.07279829, -0.08617053, 0.020853924, 0.047360763, 0.033892196, 0.03652364, 0.0013387705, -0.07276635, 0.124576926, 0.027196452, 0.0059470916, 0.093016945, 0.105941676, -0.14336117, 0.14097138, 0.047344703, 0.028149446, 0.13003618, 0.06072728, -0.07620953, 0.13994451, 0.08636342, 0.044342794, 0.16491239, 0.060553636, -0.07568701, 0.14486323, -0.037941817, 0.05521972, 0.24424794, -0.0014630329, -0.174956, 0.18133657, -0.0148875015, 0.091809, 0.15257666, 0.099747695, -0.09384321, 0.14829111, -0.015543339, 0.13996969, 0.23561434, 0.02776379, -0.08866001, 0.14816017, 0.037746444, 0.12928128, 0.33530548, -0.024344876, -0.08838525, 0.15508543, -0.03385852, 0.117907576, 0.36048305, -0.03971893, -0.2236438, 0.08072957, -0.056398917, 0.120768465, 0.3956081, -0.08739473, -0.16638121, 0.024168907, -0.05476367, 0.19478068, 0.46250027, -0.05093354, -0.4258497, 0.067937486, -0.15628134, -0.23173527, -0.20380163, 0.023814723, -0.43325526, -0.0021340293, -0.08042686, -0.19172274, -0.18821248, 0.13437228, -0.26192254, 0.055407736, -0.13378854, -0.20531535, -0.14061208, 0.02263852, -0.20098959, -0.10802227, -0.10482266, -0.08301231, -0.18998198, 0.10424111, -0.08505241, -0.10185964, 0.0040150066, 0.101021886, -0.22103523, 0.18412821, -0.011766927, -0.16569425, -0.02691612, 0.11200335, -0.067886844, 0.13071047, 0.09661492, -0.08136907, 0.018538712, 0.18717533, -0.034730412, 0.20618373, 0.11159928, -0.13901134, 0.13294517, 0.22478218, -0.019930426, 0.10881373, 0.20417434, -0.08222018, 0.09027073, 0.15488616, 0.10406031, 0.1732708, 0.23567629, -0.030769244, 0.11590255, 0.11324982, 0.09506822, 0.17577982, 0.25417748, 0.007537817, -0.049641754, 0.20158619, 0.18724497, 0.026054997, 0.17700343, 0.07693252, -0.030151213, 0.23699158, 0.17908233, 0.12291086, 0.18016139, 0.08252135, -0.11845424, 0.11112476, 0.2734192, 0.087386586, 0.0066776243, 0.024411686, -0.13841353, 0.22263482, 0.31725812, 0.02687975, 0.029758783, 0.16035259, -0.12102417, 0.2433258, 0.29435065, 0.1720952, 0.7879186, -0.6705295, -0.26138446, -0.22237231, 0.3182846, 0.11181261, 0.6576655, -0.6150124, -0.105340086, -0.39391804, 0.28169128, 0.0044064717, 0.70504624, -0.53588057, -0.09810174, -0.23806714, 0.24365973, 0.07896359, 0.6642037, -0.47469932, -0.063883476, -0.2053809, 0.16587503, 0.01047114, 0.57760656, -0.33633566, -0.17611516, -0.10408207, 0.13235678, -0.016982893, 0.5858138, -0.40939397, -0.00615154, 0.0011492104, 0.17864096, -0.049209286, 0.45253474, -0.2819482, -0.10103145, 0.019385515, 0.15566087, -0.1020206, 0.44987005, -0.2454218, 0.035954416, 0.076960854, 0.15153372, -0.09052265, 0.42564616, -0.13860324, 0.025239976, 0.13583066, 0.15106769, -0.03168853, 0.3719121, -0.12901704, 0.174206, 0.11330545, 0.0037376683, 0.044469245, 0.44277537, -0.044411328, 0.16912927, 0.052290082, -0.13294934, 0.05015702, 0.4393656, -0.087376826, 0.1489278, -0.042089902, -0.16248351, 0.017498173, 0.44182697, 0.016155453, 0.13132831, -0.06300482, -0.05491957, 0.034020633, 0.43313468, 0.103320435, 0.2311953, -0.07131648, -0.085154496, 0.15388718, 0.5581134, 0.046803333, 0.29127032, 0.0056649246, -0.12437315, 1.1291407, 0.6894214, 0.5514616, -0.014254727, 0.005123524, 0.047047284, 1.103623, 0.4811168, 0.35526672, -0.08286733, -0.0036913208, 0.024911126, 1.0219427, 0.31526974, 0.30252934, -0.110226005, 0.023221677, -0.034687776, 0.7689985, 0.18955725, 0.30923146, -0.122148044, 0.1105105, -0.053979535, 0.70990247, 0.03364326, 0.15805887, -0.07581478, 0.07488361, -0.12144004, 0.5703857, -0.14089218, 0.19271994, -0.056566697, 0.03926329, -0.09617215, 0.274128, -0.2815909, 0.03460316, -0.091717444, 0.08577032, 0.08392758, 0.2034476, -0.3173982, -0.037750535, -0.08892588, -0.008905157, 0.11694442, 0.04656463, -0.3910217, -0.007080548, -0.068418294, -0.06309061, 0.18966727, 0.08161318, -0.37746528, -0.1011334, -0.1527574, 0.027889919, 0.2005545, -0.013552695, -0.26669663, -0.17090836, -0.07904459, 0.026290469, 0.2133424, -0.09644582, -0.2988955, -0.090326875, -0.08346021, -0.03412788, 0.15723662, -0.053228036, -0.13272731, -0.16556731, 0.029176097, 0.021763356, 0.10414991, -0.08649261, -0.11331258, -0.23716079, -0.049921624, 0.015127062, 0.1254617, -0.23619258, -0.052133784, -0.23902048, 0.054457735, -0.10019248, 0.0038450018, 0.008891604, 0.15836222, -0.08717323, 0.2479383, -0.13363479, -0.3719056, 0.04659706, 0.04554483, -0.053463243, 0.08651719, -0.09652861, -0.3019051, 0.012445945, 0.033580832, 0.014987419, 0.0356465, -0.07328756, -0.17027128, -0.06868601, -0.040923867, 0.0008540129, -0.034072436, -0.14790668, -0.17380984, 0.042433005, -0.06160296, -0.010192195, -0.008342578, -0.18134339, -0.13998234, -0.0046503404, -0.07630636, 0.07454004, -0.026373973, -0.18369411, -0.08070711, 0.03848547, -0.021077443, 0.045121983, -0.11575303, -0.14454195, -0.012539503, 0.0685975, -0.09398246, 0.16326335, -0.09875268, -0.15792763, 0.053979497, 0.021371257, -0.10259378, 0.11946907, -0.1493081, -0.10309336, 0.0070257448, 0.012845817, -0.062951155, 0.1814995, -0.20652631, -0.11108697, 0.15722683, -0.018156504, -0.20059574, 0.08994364, -0.124752745, -0.011319018, 0.09942031, 0.022701956, -0.10483798, 0.20218901, -0.23213693, 0.075797185, 0.17579028, 0.081345856, -0.09574092, 0.16631049, -0.318288, 0.09185685, 0.252209, 0.0151323695, -0.23721701, 0.11495026, -0.26976758, 0.27321053, 0.22750685, -0.001649576, -0.27482125, 0.12766294, -0.3516473, 0.31763345, 0.31975976, 0.04925501, 0.013357234, 0.81757843, -0.0979595, -0.2506183, 0.37483564, 0.021178333, -0.19496994, 0.80749065, -0.021206366, -0.34262347, 0.3494726, 0.101793066, -0.18415324, 0.59347266, 0.0985726, -0.37957457, 0.16688596, 0.14879586, -0.2820234, 0.55217177, 0.08906814, -0.3417826, 0.12187217, 0.058298264, -0.2133694, 0.35431606, 0.062237654, -0.19620442, -0.081354246, 0.09041403, -0.28166038, 0.3700608, -0.034045473, -0.26189965, -0.139357, 0.2574401, -0.2800942, 0.22631708, -0.043608055, -0.24426651, -0.26002407, 0.18904343, -0.18166143, 0.21171887, -0.09060603, -0.16473107, -0.26763657, 0.18161345, -0.256758, 0.022682957, 0.017557736, -0.0024665329, -0.13075432, 0.28452206, -0.11364751, 0.02316796, -0.016988745, 0.07370601, -0.107261576, 0.27852538, -0.13427693, -0.15041386, -0.029349139, 0.1345484, -0.104092404, 0.21133564, -0.060508493, -0.15307729, -0.06916239, 0.15037139, -0.10996632, 0.27825293, -0.08468926, -0.20776397, -0.22466138, 0.28643164, -0.0768755, 0.18037021, 0.065964945, -0.26784563, -0.16855133, 0.31717175, -0.058518015, 0.24522829, 0.09692806, -0.30933705, -0.2176381, 0.315942, -0.032607585, -0.13052171, -0.10247015, 0.44296172, -0.1504761, 0.28023803, 0.0023598864, -0.05183533, -0.0766507, 0.5053842, -0.16595155, 0.18144774, -0.13775735, -0.010659661, -0.19722912, 0.38115585, -0.14581299, 0.234404, 0.0011392926, -0.1183281, -0.13559213, 0.49515995, -0.13095334, 0.15022156, -0.11561675, -0.044571318, -0.1542207, 0.49640217, -0.057288844, 0.060133014, -0.031182172, -0.014168858, -0.21790095, 0.38920313, -0.0395792, -0.0023768086, 0.03019289, 0.041054536, -0.082203954, 0.459877, -0.030546915, 0.032019217, 0.010677477, -0.024142826, -0.1190246, 0.4171818, -0.04161735, -0.047826774, 0.04331838, 0.016041512, -0.063228026, 0.40451747, -0.008045589, 0.06523247, -0.0123661375, 0.068253785, -0.07217523, 0.35671437, 0.019097568, 0.037630353, -0.018359903, 0.02675603, -0.056110747, 0.3600664, 0.030591395, 0.030362844, 0.044843514, 0.061292674, -0.14909846, 0.38408133, 0.031287868, -0.047366254, -0.009901875, 0.0010684804, -0.024273967, 0.34267572, -0.10412104, -0.0053595677, -0.0035451837, -0.01563769, -0.0556052, 0.3668689, -0.0015432066, -0.03719893, 0.10980259, 0.035604354, 0.011609561, 0.39871544, -0.066314355, 0.069602124, 0.107201785, -0.055274703, 0.04303478, 0.029473636, 0.027475748, 0.08065487, 0.14465427, 0.075895645, 0.1315639, 0.084984034, 0.026704706, 0.08426513, 0.10750924, 0.078323126, 0.09073885, 0.087442115, 0.025791867, 0.13890122, 0.08159969, 0.09646685, 0.07695656, -0.00061334664, -0.006777861, 0.13911745, 0.09513514, 0.025217075, -0.03306872, 0.11667815, 0.06949625, 0.12998436, 0.12574428, -0.018200174, -0.03072549, 0.08360627, 0.11293977, 0.2210899, 0.13646127, 0.011266951, 0.083229035, 0.055766787, 0.10222636, 0.17893846, 0.06723919, -0.015324638, 0.034452856, -0.005793927, 0.12828554, 0.19354604, 0.13674167, 0.060608074, 0.05397863, 0.03136144, 0.11348118, 0.24199413, 0.0851414, 0.07992743, -0.024623197, 0.09599649, 0.14678235, 0.18077764, 0.109710194, 0.057136472, -0.02168417, 0.053622115, 0.22371106, 0.19047283, 0.12122106, -0.06462319, -0.009954401, 0.06421902, 0.23039338, 0.124968655, 0.12818277, 0.020633148, -0.13113864, 0.04438395, 0.19959755, 0.10145818, 0.1535183, 0.0015077498, -0.04265176, 0.034415074, 0.1897947, 0.08725065, 0.120661505, -0.10427829, -0.15079485, -0.11706782, 0.1754757, -0.058237854, 0.18279473, 0.028799377, 0.11162684, -0.061301026, 0.1795246, 0.1587172, -0.09879812, -0.008818543, 0.18541312, -0.015375009, 0.16130722, 0.14587207, -0.027766839, -0.03216559, 0.19339207, -0.06597782, 0.1993233, 0.116497666, 0.049937125, -0.011912796, 0.06301303, -0.03515558, 0.11540598, 0.19064151, 0.03563977, 0.07122599, 0.15894029, 0.013395823, 0.14471826, 0.073703185, 0.147151, -0.034030776, 0.17666604, 0.0111695, 0.18892021, 0.18375696, 0.12355342, 0.049558673, 0.1248655, 0.024330903, 0.20251983, 0.16980115, 0.117883824, 0.06855658, 0.037951622, 0.047018725, 0.13052024, 0.12283093, 0.16717115, -0.020713763, 0.08961617, 0.08000396, 0.23840714, 0.11137928, 0.14359091, -0.05547089, 0.07622289, 0.0809748, 0.25651827, 0.085406594, 0.22450273, -0.015035719, -0.08230149, -0.04976245, 0.18567267, 0.033162236, 0.23341654, -0.0626342, -0.09682589, -0.01231656, 0.15692188, 0.058807567, 0.25476742, -0.015529518, -0.0047673294, -0.014548992, 0.09308418, -0.049866155, 0.16148137, -0.070090085, -0.13591567, -0.073752336, 0.09621052, -0.083865866, 0.32757974, -0.11407266, -0.06387018, -0.025944611, 0.07427349, -0.069783255, 0.25603536, -0.0101994, 0.12798324, 0.31664023, -0.16865687, 0.03760241, 0.12054785, 0.004852467, 0.021203607, 0.31300673, -0.06543644, 0.024412375, 0.13472249, -0.0027066637, 0.1042734, 0.36411658, -0.15885124, -0.050990436, 0.13532193, -0.06818987, 0.11097102, 0.32142696, -0.07943511, -0.07199234, 0.19432886, -0.05743779, 0.1404161, 0.25611046, -0.03691281, 0.018918661, 0.12090515, -0.08745288, 0.017599612, 0.21569467, -0.07165596, -0.028082728, 0.1276339, -0.026854968, 0.047604144, 0.22670063, -0.16677876, -0.069123864, 0.14901686, -0.030657964, -0.027894828, 0.14768754, -0.14068122, -0.04395912, 0.1220939, -0.16273297, 0.058761112, 0.14209738, -0.16029845, 0.013926436, 0.1166158, -0.060173016, -0.0025717586, 0.0067869066, -0.17229097, -0.09797715, 0.12916155, -0.16372992, -0.101896316, 0.03049934, -0.081079155, 0.028244726, 0.107557885, -0.12054604, -0.056109194, 0.056525383, -0.112852305, -0.044419006, 0.17674991, -0.08798993, -0.054525644, -0.005593578, -0.15678029, -0.05981711, 0.18065532, -0.076881334, -0.013626653, -0.046510603, -0.24089816, 0.011984503, 0.18339567, -0.08878109, -0.04842717, -0.03784385, -0.22082707, -0.016930277, 0.0485073, 0.26008758, 0.18061987, 0.3252037, 0.12262775, 0.12005768, -0.10158991, 0.3212289, 0.16173813, 0.29322317, 0.0896717, 0.26819283, -0.12915061, 0.34578755, -0.0020217202, 0.20442563, 0.016157644, 0.26946017, -0.056436036, 0.30762246, -0.05066604, 0.20137763, -0.11195195, 0.14006147, -0.09030366, 0.2442975, -0.089683674, 0.078174554, -0.13280071, 0.07398855, -0.030302707, 0.23172115, -0.13479717, 0.025423711, -0.0943038, 0.012734932, -0.13645628, 0.25223672, -0.023480462, -0.049965393, -0.055226274, -0.07783939, -0.020116245, 0.31966302, -0.16607404, -0.0612127, -0.17014872, 0.04156691, -0.04370442, 0.24163306, -0.09569176, -0.19652137, -0.12525183, -0.04173506, -0.067725785, 0.24041194, -0.10842813, -0.10859871, -0.13157773, -0.08212987, 0.00917518, 0.2594297, -0.19669196, -0.17679326, -0.10069503, -0.07269065, 0.018212307, 0.21673077, -0.08934881, -0.25021723, -0.19890948, 0.051121157, -0.12456481, 0.16798581, -0.085612684, -0.24913266, -0.11021764, 0.076007, -0.049713105, 0.053749345, -0.1840748, -0.2134551, -0.17649157, 0.013887432, -0.06882552, 0.054972425, -0.11449808, -0.21956697, -0.09076139, 0.060434543, -0.060517404, 0.2585644, 0.3135319, 0.40661883, -0.02301308, 0.20490038, -0.11785566, 0.3305372, 0.09770377, 0.2626524, 0.04576468, 0.21959826, -0.21880957, 0.25822237, 0.0104583865, 0.20495243, -0.06735451, 0.23735657, -0.10989239, 0.34866107, -0.056559045, 0.12975898, -0.024111262, 0.24114977, -0.065072775, 0.22660609, -0.05883353, 0.1380231, -0.038146645, 0.11870245, -0.07310159, 0.25313798, -0.14012179, 0.02216327, -0.082582064, 0.08012822, -0.034131482, 0.2297642, -0.13874987, 0.07256619, 0.01920823, -0.07996258, -0.10372798, 0.2795574, -0.14104696, 0.052922327, -0.002202788, -0.020353893, 0.039308988, 0.15662758, -0.092048675, -0.050632752, -0.0102716535, -0.027852219, 0.020497888, 0.1344268, -0.031377506, -0.11792328, -0.14965284, -0.14247695, 0.064913586, 0.13957499, -0.16339831, -0.15893795, -0.103278734, -0.082901776, 0.010911736, 0.085906155, -0.13369846, -0.052225575, -0.06658725, -0.060179647, 0.063711755, 0.10066231, -0.04666975, -0.07699167, -0.07290015, -0.0144979805, 0.0007041806, 0.09911434, -0.082931094, -0.099504195, -0.20982426, 0.024482967, 0.06763071, 0.0067846305, -0.13342229, -0.11593501, -0.22452922, 0.0473534, -0.031966563, 0.07495475, -0.28333816, -0.1725618, -0.1801392, 0.11049113, -0.052953478, -0.017382817, -0.3662599, -0.23116386, -0.04623921, 0.09515161, -0.18384774, 0.06963118, -0.31949103, -0.29708347, -0.009308858, 0.120769575, -0.18388768, 0.0215251, -0.21679021, -0.3588679, -0.013294641, 0.109978326, -0.19733307, 0.02154144, -0.16767147, -0.3903825, 0.07558834, 0.17429353, -0.21630204, 0.02618508, -0.08341149, -0.24494255, 0.039421923, 0.19209243, -0.3144922, -0.048351914, 0.00017725736, -0.2740194, 0.06807801, 0.1422603, -0.314476, -0.0048366757, 0.17119326, -0.26055604, 0.12431733, 0.16715372, -0.1904287, 0.06562205, 0.09850055, -0.25473124, 0.082606874, 0.16985784, -0.2520162, 0.071920164, 0.285952, -0.22159931, 0.14538413, 0.026276099, -0.14699411, 0.074336864, 0.2672987, -0.12065148, 0.032278206, 0.112984635, -0.1453159, 0.060103215, 0.31766814, -0.11354309, 0.08109836, 0.08481329, -0.21364027, 0.08104394, 0.31423116, -0.091116, 0.094092496, 0.031468865, -0.27518708, 0.062674545, 0.4329047, -0.03283681, 0.1194211, 0.017489582, -0.27832505, -0.033308104, 0.32870954, 0.079482906, 0.17995487, 0.014989947, -0.1761618, -0.054550778, 0.07232152, 0.012958473, 0.112148724, -0.18687434, -0.25489846, -0.00037967568, 0.15625161, 0.08764381, -0.018029796, -0.13194904, -0.12841775, -0.03294803, 0.014278891, 0.10757739, -0.021524185, -0.19590911, -0.0905373, 0.015374756, -0.024440877, -0.017396394, -0.10054328, -0.13005081, -0.06845051, 0.028373973, 0.021166066, 0.021682635, -0.10463815, -0.18928176, 0.012577392, -0.02945636, -0.05436171, 0.084682554, -0.009316191, -0.27777442, -0.035803072, -0.038689688, -0.02709259, 0.05087918, -0.105714545, -0.2536879, 0.06598428, 0.02043748, -0.039197084, 0.0953951, -0.11993108, -0.2897406, 0.012508394, 0.040452663, -0.15263614, 0.09385759, -0.108730145, -0.36263838, 0.011469959, -0.032392677, -0.07396993, 0.055384308, -0.015160059, -0.37908867, 0.002417319, -0.0512365, -0.10884773, 0.08289679, -0.14262164, -0.41836873, 0.050516672, -0.013608516, -0.15728238, 0.10081336, -0.030989124, -0.38415217, 0.08571362, -0.0008468937, -0.12894386, 0.052022118, -0.08243834, -0.39811474, 0.017686995, -0.0115865115, -0.2004277, -0.010727196, -0.16323775, -0.38624045, 0.09440802, 0.056021474, -0.2271332, -0.022836326, -0.19453907, -0.2889248, 0.116555855, 0.19183376, 0.1410131, -0.19329813, 0.39068797, 0.010598949, -0.08894516, 0.28513974, 0.28025812, -0.109917946, 0.3330495, 0.050801024, -0.07735384, 0.19158642, 0.4005394, -0.09035216, 0.32190982, -0.026815502, -0.016891567, 0.13404672, 0.34179774, -0.008357602, 0.28845918, 0.009527182, 0.07841063, 0.15370339, 0.2978626, 0.116382435, 0.19584554, -0.11190681, 0.192399, 0.04221794, 0.26276797, 0.07674671, 0.13174774, -0.15935245, 0.21819827, 0.064344354, 0.17386797, 0.113613985, 0.057623997, -0.093857534, 0.29778108, 0.09018205, 0.23751543, 0.1894745, 0.08606631, -0.112398095, 0.19022547, 0.011381193, 0.11037258, 0.16074029, 0.034085408, -0.18186922, 0.2786645, 0.0062473337, 0.04011635, 0.1413716, -0.11705294, -0.1549047, 0.25245583, 0.025718076, -0.09464966, 0.038521342, -0.15448184, -0.13194722, 0.1297504, 0.022112831, -0.19945604, 0.12091105, -0.15432286, -0.06453446, 0.16267571, -0.102066055, -0.21361709, 0.0878727, -0.22558334, 0.048219852, 0.0068742773, -0.12445915, -0.30657417, 0.03400437, -0.25991824, 0.055372283, -0.06032587, -0.076421306, -0.22429526, 0.0019216293, -0.24387588, 0.09486873, -0.07803543, -0.11432337, 0.4880771, 0.24128982, -0.08247143, -0.004706638, -0.07677508, -0.10711628, 0.39727968, 0.23225227, -0.10579884, 0.045456484, 0.009453163, -0.05869162, 0.34701094, 0.30157045, -0.19084787, 0.0079783, -0.104961514, -0.098458685, 0.30970213, 0.29304117, -0.074782506, 0.0071291104, -0.049172126, -0.047567416, 0.31727698, 0.23600611, -0.18203938, 0.006610485, 0.040502246, -0.052849844, 0.24004674, 0.11593454, -0.13380675, -0.0026874586, -0.009605322, -0.017442012, 0.21694541, 0.2113451, -0.04036867, 0.043405797, -0.029387245, -0.03983242, 0.17225097, 0.06599213, -0.00933867, 0.07801228, 0.054686427, -0.05463354, 0.14974415, 0.054867357, 0.029818308, 0.020262286, -0.030681057, -0.06009349, 0.071963064, 0.1516554, 0.048187688, 0.093722604, 0.1038053, -0.07499147, 0.09291604, 0.008991283, 0.107065685, 0.050624065, 0.11872863, -0.022185491, 0.12274027, 0.06780252, 0.12619686, 0.04775455, 0.10686071, -0.0015617448, 0.0019790104, 0.124349244, 0.16577171, 0.033002205, 0.10363373, -0.03617692, 0.030422697, -0.014404938, 0.29373512, 0.023913482, 0.17919658, -0.07729224, 0.092862874, -0.0072754878, 0.31209707, 0.10131746, 0.19145407, 0.056829013, 0.020212226, -0.4484454, -0.29563555, -0.29722032, -0.09140976, -0.061440688, 0.12934527, -0.37903237, -0.22902434, -0.17169239, -0.009094434, 0.022824734, 0.027784312, -0.3852181, -0.011260335, -0.21035536, 0.052386913, -0.052177496, 0.012818237, -0.2949583, -0.026086062, -0.2558285, 0.043223362, 0.014954949, 0.1390957, -0.23162054, -0.023732603, -0.09480004, -0.031897053, -0.024481894, 0.049142737, -0.15585326, 0.011284938, -0.04124913, 0.03247868, -0.08146646, 0.15765281, -0.18237609, 0.073250055, 0.0005121976, 0.057520356, -0.032422133, 0.08655827, -0.18279661, -0.023587795, -0.08248337, 0.035019767, 0.033949826, 0.031156804, -0.20351692, 0.06360924, -0.13380879, 0.03967095, -0.083277695, 0.116502896, -0.1310417, 0.061500426, -0.040914375, 0.04721275, 0.039398015, 0.08827288, -0.121316805, 0.02457819, -0.06844324, 0.002298177, 0.027103972, 0.10717214, -0.14329395, 0.02797978, 0.010155777, -0.014871272, -0.04437052, 0.04038534, -0.026798623, 0.14768223, -0.09766942, -0.053429138, -0.06686441, 0.009518476, -0.06022663, 0.09774693, -0.15397078, -0.044869363, -0.06863624, 0.10594518, -0.008801537, 0.19959608, -0.104609914, 0.014828926, 0.25484127, -0.060075313, -0.21776702, 0.18879618, 0.10700522, -0.33090535, 0.41640308, -0.061237223, -0.22973946, 0.31783074, 0.0162142, -0.22365315, 0.4730445, -0.013216373, -0.08591723, 0.24228083, 0.015521448, -0.18635212, 0.4364094, -0.013466977, -0.11083067, 0.23274456, -0.014355565, -0.08427478, 0.42241713, 0.05882854, -0.070849925, 0.1668805, -0.044774022, 0.067722626, 0.45469895, -0.02500025, -0.033867147, 0.13660738, -0.11822214, 0.21080217, 0.47084054, 0.013901523, 0.07984941, 0.01976719, -0.12713832, 0.087699786, 0.38578734, -0.08045732, 0.13027166, 0.11164605, -0.12159357, 0.19773896, 0.40940553, 0.017663997, 0.17098176, 0.08312939, 0.0021472238, 0.12967318, 0.26105154, -0.066387884, 0.1499197, 0.016023226, -0.11278592, 0.07532252, 0.2641903, -0.092971146, 0.14844646, 0.05056546, -0.01588333, 0.16373417, 0.20162763, -0.12554836, 0.19229719, -0.05648177, -0.015310266, 0.10839672, 0.20498297, -0.06430045, 0.20914117, -0.10360134, -0.11665497, 0.105790846, 0.20841622, -0.086381465, 0.14609253, -0.07346321, -0.0021470569, 0.084964365, 0.09504079, -0.084307596, 0.22678016, -0.031316955, -0.017007966, -0.022957379, 0.72104335, 0.2307905, 0.18534817, 0.10618744, 0.08393272, 0.14247347, 0.75689375, 0.19106056, 0.16902883, -0.035204377, -0.08095265, 0.06088111, 0.6786603, 0.13469878, 0.16076766, -0.07418386, 0.0042189206, 0.15436965, 0.47074574, 0.074685015, 0.1380579, -0.06022916, 0.04887558, 0.067432396, 0.43447283, -0.10152343, 0.16834056, 0.015787868, -0.01278481, 0.047105573, 0.34135807, -0.040468827, 0.028650312, -0.10495874, 0.07447651, -0.032682493, 0.25656196, -0.1463954, 0.086084336, -0.034943257, 0.050612595, -0.027796706, 0.15699103, -0.13473205, 0.044001173, -0.010034154, 0.017706472, 0.050674, 0.11936229, -0.13444634, 0.038897175, -0.052066665, 0.07050011, 0.18357824, -0.0076101418, -0.106956534, -0.025351835, -0.08522761, 0.019740777, 0.20562725, 0.0068865144, -0.20903501, -0.11926519, -0.023874825, 0.071379244, 0.21165767, -0.12556008, -0.16239145, -0.09604489, 0.00060891884, -0.03786125, 0.08039403, -0.08347117, -0.16477929, -0.13354783, 0.017898414, -0.08708427, 0.004095303, -0.20374846, -0.18712942, -0.04420837, -0.0690004, -0.06329453, 0.08458274, -0.12714478, -0.07765302, 0.004720223, -0.024054073, 0.06493815, 0.066857666, 0.0040822485, -0.6827262, 0.48008192, -0.08560653, -0.10617251, -0.101057775, -0.0007311641, -0.5541886, 0.22943291, 0.047377136, -0.08216748, -0.19247673, 0.03754334, -0.52923477, 0.087888375, 0.10554189, -0.021500655, -0.16706501, -0.04221486, -0.361063, -0.12462316, 0.12051897, 0.051949695, -0.14954779, -0.029751759, -0.13814089, -0.121392295, 0.19573799, 0.0047473195, -0.12367435, 0.042338964, 0.0022594498, -0.1402439, 0.18412833, 0.093064286, -0.033958904, 0.0051922677, 0.13766712, -0.13389288, 0.15981886, 0.14366907, 0.016189814, -0.00080166716, 0.24186674, -0.1759868, 0.12750491, 0.054080367, 0.07642772, 0.0013914688, 0.270127, -0.18485376, -0.00629636, 0.057298023, 0.08216289, -0.11095144, 0.34720147, -0.19226106, -0.014505587, -0.0015002281, 0.105544455, -0.03358607, 0.39716694, -0.051784996, 0.0331008, 0.08812844, 0.091991425, -0.13438196, 0.37030202, -0.11686159, -0.054452755, 0.052521236, 0.024552312, -0.19484095, 0.32283893, -0.10514356, -0.08500441, -0.0077437153, -0.03892653, -0.13746646, 0.43062097, 0.076275446, -0.11378512, 0.07000761, -0.014769411, -0.20399633, 0.4003045, 0.09945249, -0.17433348, 0.047821835, 0.05541804, 0.37299648, 0.015208305, 0.063344985, 0.3396384, -0.08469397, 0.1880445, 0.37142637, 0.078435384, 0.11494164, 0.27085662, -0.17588906, 0.30393088, 0.4429562, -0.019087479, 0.031119788, 0.22400486, -0.15598026, 0.27451345, 0.3960266, -0.036524728, 0.092703015, 0.1479446, -0.11555692, 0.14671035, 0.34937075, -0.0022299795, 0.12584296, 0.15126412, -0.17767774, 0.05690342, 0.3506188, -0.11470138, 0.13763788, 0.046943776, -0.027086975, 0.11124351, 0.2589275, -0.022110322, 0.19750649, 0.08209248, -0.101024665, -0.043002754, 0.23169889, -0.11711653, 0.21805885, 0.06212122, -0.042246573, 0.061283, 0.21978338, -0.058742266, 0.23725504, 0.043038275, -0.04114235, 0.007862427, 0.035600524, -0.03954006, 0.17722982, 0.039371938, -0.0031192142, 0.072868176, 0.08204146, -0.09229574, 0.15970728, 0.012052496, -0.0068567167, 0.09656499, 0.00156827, -0.13685533, 0.13920783, -0.028095823, 0.08192114, 0.060525347, 0.0049745105, -0.15615809, 0.23347525, -0.09723092, -0.0003571148, 0.006830721, -0.1176782, -0.24349093, 0.2142349, -0.03010636, -0.038043723, 0.12428708, -0.09115384, -0.23610674, 0.23578243, -0.06485868, -0.033657797, 0.076225094, -0.043131728, 0.28600216, -0.14332306, 0.16969623, -0.010207138, 0.08569823, -0.04906481, 0.25025278, -0.09943585, 0.18099026, 0.04991617, 0.07433058, -0.007651771, 0.24639165, 0.046778172, 0.07608482, 0.07666852, -0.08704637, 0.022240272, 0.23901503, 0.047515105, 0.13826722, 0.14694536, -0.012826647, -0.041327745, 0.21595156, 0.036342796, 0.12880963, 0.10581133, -0.124321826, -0.012072212, 0.17912005, 0.052253723, 0.073873885, 0.055185758, -0.14994198, 0.03615948, 0.13707368, 0.11365428, 0.08100528, -0.013942695, -0.09849561, -0.0032975215, 0.22620206, 0.025851618, -0.0075503695, -0.013405638, -0.20653062, -0.057760186, 0.11891118, 0.0676437, -0.022993239, -0.054844867, -0.09680664, 0.08325493, 0.13548228, 0.15438536, -0.062237922, -0.04933804, -0.17902951, 0.07296153, 0.18599941, 0.12815584, -0.07265193, -0.084158316, -0.109486416, 0.052362867, 0.20908438, 0.14997752, -0.12739034, -0.07461344, -0.15330282, 0.06804272, 0.12327999, 0.08873153, -0.14754127, -0.07192949, -0.17938744, 0.0099137435, 0.18225469, 0.19915383, -0.12751201, -0.07391508, -0.070608, 0.08837339, 0.1638478, 0.17041455, -0.1905866, -0.08399526, -0.10449167, 0.0425931, -0.19351254, -0.032298993, -0.022748502, 0.013634995, -0.008369628, 0.005655075, -0.14000262, -0.10932651, 0.04783074, -0.048931483, -0.042567335, -0.031304944, -0.15107043, -0.042489048, 0.073674865, -0.06472904, -0.033495758, 0.02846478, -0.18149269, -0.09688275, -0.052623726, 0.017137937, -0.11951153, -0.011720749, -0.21535872, -0.037727464, -0.061664082, -0.022048838, -0.13246068, -0.09312636, -0.20850463, -0.16708682, -0.029321047, 0.009142411, -0.06289182, 0.0010936667, -0.13080971, -0.030015953, -0.038658116, 0.06531499, -0.16541724, -0.022082224, -0.09824222, -0.1142448, -0.0631771, 0.06486532, -0.051241938, -0.113346085, -0.086878136, 0.0037741363, -0.10918372, 0.10089668, -0.17227574, -0.038032074, -0.15888382, -0.07495126, -0.04545842, 0.1435944, -0.027839676, -0.14185353, -0.11945792, -0.08267045, -0.07253122, 0.12216274, -0.063725226, -0.12041647, -0.049052972, -0.039610814, -0.13765109, 0.13764958, -0.059432007, -0.059788715, -0.036137823, -0.055709656, -0.13718197, 0.15647182, -0.04969532, -0.087666065, -0.1486771, -0.052277036, -0.26640177, 0.13232176, 0.03235007, -0.15030831, -0.06127459, -0.014614561, -0.19999954, 0.22652562, 0.039130602, -0.020765001, 0.31225854, 0.34056583, 0.12273655, 0.14928277, -0.23149799, 0.032178443, 0.37148812, 0.35807663, 0.11769008, 0.22820184, -0.39324963, 0.11984257, 0.3421363, 0.46543813, -0.042859346, 0.23280117, -0.22708847, 0.045197655, 0.29726684, 0.49174196, -0.088542975, 0.09544847, -0.30142868, 0.047268815, 0.32850176, 0.43207484, -0.0929515, 0.07282867, -0.19092, 0.039142784, 0.25098947, 0.44398227, -0.01622898, 0.060813192, 0.0015146425, 0.14612769, 0.13793889, 0.35702893, 0.0018504686, 0.10078859, 0.0055166753, 0.057174183, 0.03532308, 0.34074223, -0.06104994, -0.03866426, 0.1993603, 0.11779953, -0.045664366, 0.27736625, -0.020905145, -0.013255398, 0.15655223, 0.117496416, -0.032099392, 0.17594595, -0.103767104, 0.0052069784, 0.20152566, 0.04540433, -0.073730394, 0.23897393, -0.026632998, -0.07721784, 0.025583306, 0.09431448, -0.05972178, 0.13867605, -0.030596457, 0.09099819, 0.12640603, 0.06653723, -0.13327403, 0.17049009, -0.02629916, 0.04210438, 0.02943584, 0.013787626, -0.07267164, 0.10181881, -0.11282159, 0.007623911, -0.1650934, 0.114163145, -0.18522562, 0.13942273, -0.15173705, -0.090015545, -0.19100083, 0.014360441, 0.29603305, 0.20335685, 0.1284019, 0.035928663, -0.11427117, -0.09702077, 0.27008837, 0.19531177, 0.14409135, -0.040192258, -0.032671057, -0.076496266, 0.26747784, 0.10335216, 0.09785193, 0.025409339, -0.018263828, -0.014836999, 0.3580137, 0.1302287, 0.14875306, -0.04161158, 0.036724254, -0.02890433, 0.31749713, 0.07898901, 0.077376656, -0.032376874, -0.0030169224, -0.07712352, 0.25729516, 0.10425092, -0.023523064, -0.058080867, 0.059882227, -0.09301308, 0.2717522, 0.120183885, -0.07407498, -0.06821972, 0.0961012, -0.06300793, 0.2507184, 0.13636963, -0.028587578, -0.063630305, 0.036292836, -0.07630861, 0.3026132, 0.1518473, -0.13447936, -0.15045074, 0.07654894, -0.027137216, 0.18558203, 0.06721718, -0.1623391, -0.18545829, 0.099114574, -0.09196889, 0.16735151, 0.15939648, -0.1541107, -0.101956666, 0.06612257, 0.021509299, 0.14686885, 0.12359653, -0.16492248, -0.22084245, 0.0859966, 0.016264152, 0.19698127, 0.16134457, -0.07768707, -0.19678064, 0.13980405, -0.00255179, 0.099438034, 0.15245226, -0.21649157, -0.116378255, 0.18761684, -0.042319205, 0.11770432, 0.18969208, -0.11551126, -0.18116014, 0.19827524, 0.028721832, -0.4119078, 0.2900011, 0.024844188, -0.09059672, -0.04870264, 0.10165768, -0.4056526, 0.19160756, 0.07125647, -0.09553568, -0.10633456, 0.09847274, -0.27038652, 0.08295787, 0.1289391, -0.050341025, -0.03867092, 0.04140276, -0.34030172, -0.00013612254, 0.14219697, -0.072772846, -0.13940378, -0.037723042, -0.19717424, 0.057384197, 0.095398664, -0.035628404, -0.18143548, 0.06696287, -0.18562888, -0.12389503, 0.17933376, 0.023218304, -0.085165866, 0.07146535, -0.11931759, -0.074128, 0.14149052, 0.12664698, -0.14522128, -0.043918513, -0.10423516, -0.09116066, 0.11872279, 0.15047808, -0.07539757, 0.019329045, 0.038469426, -0.11294008, 0.16142483, 0.13297139, -0.122619115, -0.083584905, 0.09231216, -0.038951863, 0.04539465, 0.15943924, 0.0153860375, -0.08784491, 0.041253813, -0.10729912, 0.15590604, 0.20117174, 0.056800924, 0.027526557, 0.13408062, -0.06810354, 0.044981178, 0.19518, 0.054722242, -0.11510895, 0.11811559, -0.036802206, 0.08348418, 0.14432193, 0.057231877, -0.14284077, 0.15418659, -0.052234657, -0.041533373, 0.12707645, 0.1245284, -0.14278793, 0.16503935, 0.04342818, -0.04675384, 0.19451222, 0.29011998, -0.10044531, 0.010560458, 0.24648944, -0.15399168, 0.2931712, 0.2894641, -0.1239346, -0.11175818, 0.35171494, -0.10725818, 0.31665868, 0.23827128, -0.08404205, -0.12965992, 0.31592155, -0.111018546, 0.17442675, 0.024443692, 0.0193002, -0.07797253, 0.30189627, -0.033906344, 0.046742193, -0.027830308, 0.0025743183, -0.19084293, 0.2574953, -0.10366354, 0.11235829, -0.05458975, -0.045550123, -0.19558421, 0.24036205, -0.013229157, 0.04587408, -0.042460617, 0.06422998, -0.11412682, 0.17082597, -0.06510687, 0.004307818, -0.073034994, -0.06280438, -0.16556618, 0.18201053, -0.06649994, 0.017920088, -0.037420083, 0.053397696, -0.20459656, 0.0888035, 0.033064634, 0.04841351, 0.093442805, -0.007066396, -0.06513381, 0.16647352, -0.06390097, -0.033945866, 0.064683, 0.04641877, -0.08381993, 0.10094071, 0.008403518, 0.03070772, 0.040304918, 0.048750147, -0.018958056, 0.14989457, -0.042110525, 0.048288535, 0.014648639, 0.10386042, -0.0861334, 0.18535599, 0.005522457, 0.001701346, 0.035172254, 0.06999674, -0.08512835, 0.2153571, -0.11744009, 0.05467521, 0.06300355, 0.042676862, 0.018089805, 0.2164941, -0.102039844, 0.07210529, 0.14990604, -0.25607988, -0.083084755, 0.62815374, -0.18284759, 0.22134276, -0.041420028, -0.17158455, -0.04288958, 0.663661, -0.29822233, 0.1640704, -0.10772218, -0.05769022, -0.07206674, 0.5721226, -0.17381917, 0.1359289, -0.047718532, -0.037958607, -0.08715151, 0.63476074, -0.13508822, 0.040778555, -0.08538234, -0.08708798, -0.16642967, 0.5769208, -0.08119962, 0.06567453, 0.018019564, -0.02324853, -0.07244563, 0.41152006, -0.13451347, 0.058169764, 0.00047776476, 0.02963597, -0.06159599, 0.4583418, 0.015591655, 0.012086641, -0.01699805, -0.049377307, -0.081544235, 0.46412405, 0.0019228167, -0.041771594, -0.0113001345, -0.030586544, -0.056219537, 0.3376845, -0.046708867, 0.08037986, 0.047738727, 0.04372358, -0.14324358, 0.37024146, 0.017801972, 0.05425511, 0.095076405, 0.07128009, -0.059165403, 0.37004763, -0.030864017, -0.001990556, 0.00021497977, 0.06558873, -0.07052048, 0.3192063, 0.002935058, 0.050333995, 0.007945836, 0.065753095, -0.07772804, 0.18131897, 0.03816574, 0.010918632, 0.029947322, 0.003243682, -0.15567885, 0.22536916, -0.072634354, -0.020914754, 0.07834212, 0.11753476, -0.118676506, 0.21449466, -0.04679405, 0.07960653, 0.18200609, 0.1884414, 0.025512656, -0.102326326, -0.24808688, -0.03067497, -0.07308738, 0.09513182, -0.029074647, -0.21776599, -0.16336443, -0.05938482, -0.13006411, 0.11959484, -0.06802202, -0.09881386, -0.2605252, -0.038143396, 0.022289943, 0.16143034, -0.05338792, -0.063375324, -0.19068168, -0.042806484, 0.09630062, 0.14941628, -0.0819385, -0.14505626, -0.20343405, -0.1130957, 0.076889224, 0.1260892, -0.21230178, -0.051153667, -0.20008124, -0.18899567, 0.014504788, 0.07189574, -0.2213675, -0.06327406, -0.22231644, -0.24617054, 0.027158545, 0.112579085, -0.14927384, -0.11733026, -0.18433453, -0.2075805, 0.030092472, 0.07073863, -0.15119815, -0.02707202, -0.13089053, -0.2634568, 0.020606516, 0.03534565, -0.15000133, -0.15541726, -0.21970597, -0.31394503, 0.12650709, 0.013777675, -0.26972172, -0.08732121, -0.13150606, -0.24297439, 0.026396006, -0.0017268606, -0.19252506, -0.13659392, -0.22416121, -0.19500665, 0.061189964, -0.006447394, -0.14194086, -0.116863884, -0.19020894, -0.26128614, 0.09304625, -0.041044097, -0.21061395, -0.09074526, -0.15949783, -0.19123335, 0.04501028, -0.027062947, -0.22082932, -0.08552302, -0.22496016, -0.1360654, 0.06257872, 0.36632502, 0.043952804, 0.057729334, 0.3078037, 0.0063806036, 0.163391, 0.41891557, 0.110712394, 0.21123725, 0.38680047, -0.13544431, 0.25084952, 0.37732026, 0.017062578, 0.2641848, 0.27722606, -0.10307449, 0.23331256, 0.4316435, 0.04316113, 0.30365098, 0.12155875, -0.129009, 0.26064026, 0.43695673, 0.031703677, 0.20867196, 0.08425368, -0.14534521, 0.21118253, 0.3136054, -0.010425221, 0.16836041, 0.1065352, -0.1345171, 0.094745725, 0.19625187, -0.05989756, 0.15954246, 0.023620479, -0.02594103, 0.15790035, 0.18049496, -0.13502567, 0.2108871, -0.006483482, -0.073558666, -0.013642619, 0.2246933, -0.13047358, 0.1317991, -0.062103137, -0.018652858, 0.071912326, 0.16462249, -0.16968669, 0.13200642, -0.021655213, 0.01798119, -0.0411346, 0.09292443, -0.26230016, 0.047226172, 0.025681041, 0.14457884, -0.030343518, 0.013885369, -0.15821779, 0.17139046, -0.086620815, 0.015896965, -0.068276584, -0.08655443, -0.18023759, 0.09765064, -0.028352553, 0.040013056, -0.11291439, -0.05015796, -0.25441965, 0.16039765, -0.10878933, 0.07053854, -0.004017205, -0.120066084, -0.3075189, 0.16001445, -0.07932843, 0.07349846, 0.041064277, -0.07506235, 0.09548924, -0.0016801206, 0.22794838, -0.06487548, -0.21153656, -0.059729304, 0.025941342, -0.0071007195, 0.18075794, -0.031348564, -0.0947279, -0.10416304, 0.015578399, 0.021179046, 0.04272077, -0.042077757, -0.044474013, -0.008890897, -0.055351947, 0.012311221, 0.022460742, -0.0015506299, -0.009392607, -0.011042929, -0.030152716, -0.0013615408, 0.10378392, -0.027169397, 0.012029682, -0.07685947, -0.044851568, -0.014986082, -0.00069381343, 0.011992852, -0.010886047, -0.075641125, -0.010667117, 0.008072951, 0.036916275, -0.05800852, 0.015814593, -0.100395225, -0.124413945, 0.02426392, 0.025042182, -0.05941152, 0.06520495, -0.0449062, -0.04577397, -0.021129366, 0.06819278, 0.024581885, 0.05931159, -0.1320091, -0.048213888, -0.028508075, 0.03412849, 0.011529162, 0.042839166, -0.112246975, -0.123676, -0.039616082, 0.016104313, -0.0419174, 0.065508574, -0.07711616, -0.16058098, -0.059012596, 0.06025585, 0.056101963, 0.065248355, -0.13630433, -0.0775801, 0.02232565, -0.050628424, 0.018149387, 0.13463108, -0.07023091, -0.12348103, -0.023207394, -0.0060479487, 0.0051607178, 0.15588985, -0.052652836, -0.12583664, 0.025911821, -0.03894751, 0.033996727, 0.21096331, -0.1462379, 0.11625025, 0.4042, 0.13684711, -0.032578092, -0.04062893, 0.011891018, 0.095767915, 0.33495638, 0.08476577, 0.0018827919, -0.17303233, 0.032253962, 0.15008943, 0.3579872, -0.028340904, 0.0287108, -0.2590692, 0.03917915, 0.031648465, 0.44750044, -0.02854301, 0.13078678, -0.06788763, -0.012506612, 0.12073444, 0.42052135, -0.031063287, 0.19064376, -0.121478304, -0.031206677, -0.01338127, 0.4400974, 0.04115964, 0.16027127, 0.020541154, -0.021996327, 0.01517054, 0.37842968, -0.03186703, -0.008640246, 0.039209217, 0.09088784, 0.050432373, 0.30354467, -0.09856713, -0.017701501, 0.09377705, 0.0020871884, 0.051710792, 0.25974646, -0.019246805, 0.08100793, -0.012698711, 0.11522826, -0.007102215, 0.25657645, -0.08427598, 0.012270987, -0.065799914, 0.040605474, -0.026880104, 0.15531172, -0.08325623, -0.0021920789, -0.002287821, 0.12436278, 0.013805532, 0.11787279, -0.09144733, 0.032644365, -0.018465877, 0.03288769, -0.03558764, 0.18232155, -0.028278232, -0.022991987, -0.03200336, 0.07346047, -0.06520689, 0.070701025, -0.07622157, -0.037976574, 0.0624915, 0.07934983, -0.06520015, 0.15569027, -0.11634421, 0.0077849785, -0.017975792, 0.07313034, 0.45940244, 0.2327479, 0.19633387, -0.2577945, 0.22914405, 0.110462025, 0.531846, 0.21147925, 0.14781009, -0.29898024, 0.04825866, 0.22070171, 0.69648385, 0.1722486, 0.09048419, -0.40671676, 0.010295749, 0.17078923, 0.65580684, 0.21149072, 0.06459156, -0.3863502, -0.009006259, 0.24766131, 0.6593777, 0.108205, 0.03928375, -0.28700677, 0.07166264, 0.26063293, 0.75659126, 0.12266159, 0.09204178, -0.20767799, 0.12598759, 0.36998883, 0.7320033, 0.006599036, 0.0045801247, -0.09760344, 0.10809218, 0.3065654, 0.6562803, 0.044593953, 0.0787438, -0.058077462, -0.05905338, 0.2805817, 0.5631591, -0.06685679, 0.10500903, 0.14594367, -0.08625981, 0.3657384, 0.6042627, -0.17103863, -0.009258505, 0.20114765, 0.036177084, 0.27728078, 0.54490864, -0.13483489, 0.026175065, 0.10965937, -0.09790094, 0.19461925, 0.45088467, -0.31819198, -0.02781255, 0.102060154, 0.0049783792, 0.1884638, 0.28078854, -0.31318462, -0.053269006, 0.11169299, -0.07152164, 0.24285892, 0.3515072, -0.37794363, -0.023375804, 0.2619692, 0.080009855, 0.13379514, 0.2875251, -0.36885616, 0.02753866, 0.23260142, 0.10041206, 0.13684948, -0.053550642, -0.18733096, -0.0674271, 0.4278857, -0.18036883, 0.2480881, 0.0038854866, -0.21417288, -0.04601725, 0.32820043, -0.26865578, 0.13254535, -0.050054632, -0.17599347, -0.06384941, 0.3436281, -0.3047497, 0.24905244, 0.025364961, -0.19106749, -0.06760494, 0.19131705, -0.18729477, 0.20503889, 0.05871152, -0.23769562, -0.09088621, 0.12437427, -0.049534235, 0.12618826, 0.057558678, -0.26352847, -0.004565954, -0.05946895, 0.03905397, 0.14233339, -0.018497324, -0.25611916, -0.007589331, -0.034953244, 0.067594044, 0.17626417, 0.06301885, -0.22832629, 0.047090843, 0.008084307, 0.07187047, 0.19694743, 0.0023394406, -0.122815505, -0.042602435, -0.03692516, -0.035776887, 0.2604251, 0.106213905, -0.06390692, 0.02074073, -0.09730676, 0.099096246, 0.19978696, 0.12961155, -0.08860559, 0.048540704, -0.118847676, 0.044690784, 0.14017491, 0.12200907, -0.07991835, 0.0461658, -0.10764961, -0.0074107484, 0.1633897, 0.047044553, -0.117746204, -0.0024395217, -0.19976225, 0.03330244, 0.22990406, 0.17656986, -0.016902428, -0.015039743, -0.26133835, 0.039943896, 0.1253209, 0.08833296, -0.13206764, -0.031549323, -0.27928075, -0.0018351389, 0.6018289, 0.16525005, 0.6041179, -0.11084513, 0.17243366, 0.031017834, 0.55401754, 0.14353271, 0.41198263, -0.077252485, 0.15000856, 0.071696185, 0.5035078, 0.021370953, 0.36478353, -0.084659554, 0.17966272, 0.09276581, 0.39739555, -0.067728825, 0.37518334, -0.056919504, 0.1537012, 0.20955187, 0.25880522, -0.06789606, 0.24922863, -0.118000366, 0.01862344, 0.11381964, 0.19920558, -0.117696516, 0.18528204, -0.043689072, -0.036385864, 0.14931153, 0.23052034, -0.21975404, 0.06972492, -0.124297075, 0.04179221, 0.176488, 0.08250532, -0.2662865, 0.07964785, -0.16018084, -0.0110343965, 0.043868363, 0.07981864, -0.19228747, 0.008462934, -0.1135084, -0.054145608, 0.086414345, 0.014991802, -0.29107726, -0.019868756, -0.1129679, 0.005782623, 0.17394666, 0.08005699, -0.21113147, -0.06076725, -0.09633503, 0.0073764115, 0.07147949, -0.010840212, -0.22429286, -0.007085016, -0.0313549, -0.044189613, 0.108348444, -0.037735127, -0.20538051, -0.007446623, 0.019654946, 0.04705422, 0.14678384, -0.054280456, -0.23784652, 0.10035984, -0.08095985, 0.025812082, 0.14575905, -0.005286615, -0.23981112, 0.14180091, -0.07164793, -0.12005786, 0.13354474, 0.0768477, -0.052234303, -0.35092342, -0.089326166, -0.062473197, 0.32504696, 0.14150304, -0.123807214, -0.20721857, -0.09888034, 0.054331228, 0.30134794, 0.085228235, -0.04961987, -0.21018755, -0.07484889, 0.0105541395, 0.1935773, 0.083918914, -0.19453862, -0.13880761, -0.111161105, 0.12773323, 0.13491638, 0.021010464, -0.18246984, -0.18095471, -0.058391705, 0.14167058, 0.18918473, 0.052486673, -0.17364927, -0.09347159, -0.17165759, 0.11998459, 0.15153135, -0.035312623, -0.18155023, -0.038917255, -0.04073879, 0.1008002, 0.1978569, 0.10037992, -0.07068281, -0.17003928, -0.0993659, 0.04127649, 0.20205829, 0.032390803, -0.1079885, -0.1410799, 0.006613155, 0.06396387, 0.17463152, 0.054046124, -0.056887105, -0.09526796, -0.00988788, 0.06350209, 0.05411308, 0.013650072, -0.095037855, -0.14515053, -0.077356584, -0.09373044, 0.0116393315, 0.07469949, -0.13462162, 0.00021315443, -0.12248553, -0.028224962, -0.060260862, 0.056392565, -0.08807331, -0.116823755, -0.10902342, -0.08143095, -0.122389495, 0.011377529, -0.06987406, -0.046169806, -0.15401435, -0.19043407, -0.14019243, 0.025230872, -0.07817814, -0.041499216, -0.15200727, -0.18025021, -0.3625207, 0.2265992, 0.32028833, -0.22670828, 0.06750154, 0.026619527, -0.3737401, 0.24114546, 0.28261343, -0.25808713, 0.052341077, 0.036159515, -0.46467945, 0.26398906, 0.16273369, -0.2008927, 0.1393147, -0.106035255, -0.44933775, 0.33640587, 0.17357524, -0.12964615, 0.071232565, -0.2196191, -0.2093249, 0.2522679, 0.11641046, -0.16096213, -0.08557098, -0.24433558, 0.10236847, 0.265075, 0.056615572, -0.15855935, -0.024120757, -0.28414112, 0.38646606, 0.25045213, 0.03226593, -0.15345846, -0.12089887, -0.1612499, 0.4807615, 0.13120078, 0.02576603, -0.19790919, -0.0942485, -0.13908388, 0.4000638, 0.20329604, -0.057610102, -0.14032476, -0.0024666828, -0.0037466872, 0.27560335, 0.09032333, -0.023413692, -0.1264163, -0.045422584, 0.19150148, 0.06537282, 0.09723764, -0.12521583, -0.17338373, 0.027945034, 0.15949336, -0.0006873227, 0.015294527, -0.0668271, -0.08102319, 0.055566948, 0.13826941, -0.13779496, 0.0553194, -0.06065266, -0.12529354, 0.0072074393, 0.08370808, -0.22908717, -0.019818092, -0.08689377, -0.1452148, 0.06746499, 0.09760656, -0.13717882, -0.007740636, -0.13760355, -0.19790411, -0.00311899, 0.109706104, -0.10754331, 0.25854528, 1.1695415, 0.08864374, 0.0678153, 0.14769165, -0.31027758, 0.12610109, 1.26623, 0.17533247, 0.003970518, 0.1616837, -0.09020208, 0.024502339, 1.2768817, 0.24262974, -0.07076558, 0.006140563, 0.102540016, 0.049714047, 1.1860964, 0.4896286, -0.018726235, -0.029024912, 0.22908032, 0.07236441, 1.0016897, 0.46075106, 0.022736223, -0.13876528, 0.24909113, 0.025374426, 0.8352196, 0.4892419, -0.03256654, -0.14223826, 0.11713618, 0.026358115, 0.65633285, 0.42904282, 0.053262655, -0.17631543, 0.11855017, -0.015029617, 0.41093922, 0.44817966, 0.008262709, -0.22715366, -0.024569076, -0.03475047, 0.25887486, 0.2928329, 0.08535064, -0.09354343, 0.06963346, 0.01696524, 0.21634643, 0.22346115, 0.0004746685, -0.18920073, 0.061798472, -0.044562485, 0.06665657, 0.23179568, -0.0017646279, -0.0999204, -0.04965388, 0.06392602, 0.02048265, 0.08054012, 0.060018227, -0.049015254, -0.030158103, -0.015514064, -0.039711047, 0.07763111, 0.05113605, -0.11282377, 0.026359456, -0.019285163, -0.061343707, 0.029941984, -0.04770686, -0.12701412, 0.07560383, -0.0631246, 0.017610997, -0.032120157, 0.0021149295, -0.06934581, 0.053314865, -0.17156714, -0.14966871, 0.4980694, -0.15603483, 0.16821818, -0.072542116, -0.1639222, -0.09414093, 0.48564005, -0.19350274, 0.076032735, -0.0714591, -0.13957024, -0.18957973, 0.5408562, -0.1810078, 0.21028133, -0.10303021, -0.07465725, -0.14221427, 0.44531697, -0.14778164, 0.13110234, 0.022649832, -0.119508766, -0.18843426, 0.50434774, 0.01336397, 0.10737235, 0.034146912, -0.12149447, -0.11825393, 0.5030634, -0.089939125, 0.09249373, 0.049594607, -0.00460958, -0.21198261, 0.37042183, -0.034007024, 0.004214176, -0.027501287, 0.05844792, -0.114864886, 0.37181377, 0.020349482, -0.07168604, -0.06625625, -0.041283052, -0.09124569, 0.43130225, -0.04519165, -0.02308487, -0.051464703, 0.08033202, -0.10246919, 0.39823902, 0.048095148, -0.0003346706, 0.082600355, 0.09945194, -0.097915344, 0.37404603, 0.036527906, -0.085597046, 0.074611746, 0.09965686, -0.14292131, 0.27680892, -0.031398464, 0.038356684, 0.0549962, 0.040897295, -0.07808932, 0.33463278, -0.0023780903, -0.045691848, 0.061826173, 0.13141036, -0.0609965, 0.2807756, -0.06684595, -0.010397562, 0.0052595087, 0.099361114, -0.09520165, 0.25733978, -0.07724715, 0.0073683285, 0.10731273, 0.094674654, 0.05917594, 0.009255533, 0.14139761, -0.099158585, -0.22776401, 0.03490823, 0.036689516, 0.064932734, 0.12711094, -0.044306405, -0.17553976, 0.014738429, 0.067158304, 0.046023495, 0.033436965, -0.085201636, -0.18280508, -0.021464221, 0.023535576, 0.11082279, 0.046759125, -0.07941105, -0.15985811, 0.022564283, 0.00173339, 0.01179832, 0.074137405, -0.06632134, -0.115836024, -0.013929503, 0.06184723, 0.0040796227, 0.01095493, -0.10848733, -0.10976838, -0.030443877, -0.023183951, 0.07381288, -0.0149961775, -0.17292243, -0.14470644, 0.0042214524, -0.095508404, -0.0042356187, -0.08522437, -0.17076068, -0.100047804, 0.062467594, -0.106889814, -0.001807491, -0.069602676, -0.1412584, -0.16267873, -0.023328783, -0.04408404, 0.046158534, -0.15773602, -0.22981115, -0.078034595, -0.005345001, -0.024387887, -0.02776733, -0.08777903, -0.12878424, -0.04526075, -0.016498853, -0.12219501, 0.108638175, -0.15998805, -0.2349419, -0.12890199, 0.007910683, -0.07260876, 0.13196461, -0.19439292, -0.17743817, 0.02343742, 0.03503149, -0.09341542, 0.0007037476, -0.36088243, -0.21620046, -0.006278596, -0.06422145, -0.05816877, 0.051920947, -0.40119505, -0.14154603, 0.038148016, -0.025526123, 0.1517623, 0.21784927, -0.105486065, 0.071859755, 0.099017285, -0.050225805, 0.17343235, 0.2818976, -0.11752826, -0.0071391184, 0.083406344, -0.13898826, 0.20596398, 0.25616798, -0.07124095, 0.041302137, 0.033455577, -0.12011498, 0.18618472, 0.218332, -0.044431858, -0.023503505, 0.118804485, -0.012434977, 0.20223477, 0.19711387, -0.0656544, -0.06456882, 0.08759821, -0.00941158, 0.10537564, 0.121370725, -0.12210391, -0.022689316, 0.055289652, -0.050914597, 0.063615516, 0.14864671, -0.12271891, -0.08846789, 0.024798717, -0.038264446, 0.11216361, 0.1776496, -0.112782314, -0.10940083, 0.0890138, -0.11563269, -0.016972236, 0.12502721, -0.03427913, -0.10193706, 0.0707744, -0.040578544, -0.04005044, 0.11259369, -0.14822869, -0.123010725, 0.07501244, -0.069978215, -0.046310954, 0.117607966, -0.14356412, -0.13483058, 0.03521357, -0.037357535, -0.097083814, 0.041696858, -0.078078926, -0.15304157, 0.013100895, -0.11263829, -0.028936705, 0.032273013, -0.16060804, -0.0919887, 0.11960852, -0.019028103, -0.085491896, 0.12121658, -0.12586285, -0.14294152, 0.07780198, -0.08598644, -0.07817734, 0.09284417, -0.083346486, -0.08422493, 0.21036579, 0.62307274, 0.7616451, 0.80342966, -0.07174639, -0.16730167, 0.18831015, 0.5242175, 0.5126671, 0.84277236, -0.07985285, -0.1596522, 0.19419806, 0.5506684, 0.4702347, 0.74584424, 0.020014675, -0.12984666, 0.22440316, 0.41315475, 0.2347682, 0.64329714, 0.03785913, -0.2053668, 0.20716248, 0.34680426, 0.11403384, 0.5188129, 0.019054757, -0.13972354, 0.09311107, 0.38016486, 0.007367708, 0.41932, 0.030796036, -0.1542771, 0.08586269, 0.22693391, -0.042449016, 0.25525266, 0.022841264, -0.048317634, -0.08452244, 0.06220919, 0.01568727, 0.24738516, 0.039913315, -0.044892877, -0.033135295, 0.026333816, -0.0672413, 0.09174716, 0.07311728, -0.062345512, 0.0076257456, -0.030781193, -0.12418526, 0.15654959, 0.063247405, -0.02980299, 0.044709772, -0.10311648, -0.08624132, 0.031276893, -0.028575776, -0.016707975, 0.008933524, -0.11888233, -0.026418433, -0.014393911, 0.100891635, -0.028275171, -0.059304554, -0.043635245, -0.11595088, 0.07690097, -0.005352827, -0.10236736, -0.03461733, -0.092469364, -0.043729782, 0.0005316796, 0.15160182, -0.08175038, 0.09241393, -0.035192013, -0.02162698, 0.07513844, 0.10253534, -0.1730911, 0.16034892, -0.16419089, 0.15691821, 0.017139573, 0.11553404, -0.14301169, 0.029360587, -0.105739176, 0.17547907, 0.015739227, 0.010948039, -0.10188971, -0.016197287, -0.116543785, 0.16568434, 0.060027335, -0.032460257, -0.06700009, -0.012178098, -0.09511485, 0.12095217, -0.021982286, -0.044156585, -0.049591143, 0.03013271, -0.11146891, 0.07148339, -0.007275535, 0.047520615, -0.0025510872, -0.031337958, -0.068339005, 0.13402723, 0.040105067, -0.056652345, 0.10948567, 0.07961189, -0.025899906, 0.08987843, 0.047461998, 0.04022476, 0.022280721, 0.004254169, -0.015141428, 0.12156483, 0.05375562, 0.084264785, 0.070088446, -0.033679705, -0.11236597, 0.09650305, -0.004682692, 0.076398134, 0.052027415, 0.0025728752, -0.055937517, 0.03896773, 0.033687677, 0.00069494697, 0.06303579, 0.020515982, -0.04355852, 0.030729325, 0.012363058, 0.054376263, 0.008025972, -0.0045335507, -0.0038202917, 0.053337682, -0.05807627, 0.092444554, 0.012334788, -0.018268999, -0.06595181, -0.0144808, 0.0052426895, 0.039497744, 0.00019078642, 0.045802984, 0.028983684, 0.10297654, -0.09819214, 0.104783274, -0.041925494, 0.06057385, -0.08488242, -0.016254202, 0.010312594, 0.122544, -0.07006424, 0.060178064, -0.2834637, 0.27508146, -0.25584725, 0.1531504, 0.024201935, 0.6646297, -0.09914914, 0.37979424, -0.12837157, 0.1438349, -0.15012324, 0.2961249, -0.1930604, 0.5774681, 0.017998202, 0.05088773, -0.14358743, 0.054389905, -0.060561318, 0.68309426, 0.16173843, 0.03787936, -0.10827068, -0.095072076, -0.08135794, 0.67905265, 0.14174335, 0.056768846, -0.09876236, -0.37790135, -0.045602955, 0.6031795, 0.24608575, 0.02605444, 0.018841654, -0.4474991, 0.122395694, 0.5249797, 0.24792731, 0.014596899, 0.02437444, -0.35481426, 0.06926372, 0.36065227, 0.28175893, 0.010249329, 0.14857507, -0.058400404, 0.21129422, 0.3060889, 0.14111999, -0.040616456, 0.16504115, 0.08370388, 0.097136065, 0.22822592, 0.07514844, 0.017723905, 0.2820549, -0.033177696, 0.10915827, 0.059346806, 0.109977156, -0.042142402, 0.16060726, 0.07953911, 0.24501216, 0.082858175, 0.087430105, -0.003821156, 0.1268174, 0.008619943, 0.15762521, -0.021822957, -0.032003216, -0.028161172, 0.05567795, 0.04751401, 0.09470934, -0.02934395, -0.058230124, 0.0019200742, 0.022891644, 0.016368354, 0.19476907, -0.053772092, -0.12405052, 0.061448127, 0.005463591, 0.12880889, -0.15264873, 0.18099819, -0.4843731, 0.15852737, -0.2164404, 0.10408482, -0.21321112, 0.10777509, -0.40701282, 0.18073654, -0.20632125, 0.043707117, -0.16596378, 0.11335311, -0.25586498, 0.1454284, 0.012375714, 0.10859599, -0.2405404, -0.035968512, -0.121780865, 0.19130372, 0.05161922, -0.010339126, -0.20291299, 0.042633243, -0.03270577, 0.19964463, 0.07595587, 0.016729224, -0.12816346, -0.061050534, 0.019390097, 0.16805495, -0.021497365, 0.0007373072, -0.12308014, 0.04987726, 0.077380255, 0.12300952, -0.013324786, 0.0022165196, -0.10878074, 0.035058033, 0.08268307, 0.22632715, -0.068300575, 0.010900752, -0.12214742, 0.022582669, 0.074597225, 0.114895895, -0.05873406, -0.06666953, -0.121799015, -0.07074085, 0.0835366, 0.10892019, -0.018126993, 0.042495087, -0.0011686597, -0.06015124, 0.19854155, 0.10112129, 0.0147082135, -0.009457288, -0.044061493, -0.02639598, 0.19939755, 0.04073116, 0.025008745, 0.04655098, -0.08678175, -0.07861211, 0.1619363, 0.016373081, 0.010734943, 0.041574925, -0.03652202, -0.13034803, 0.23394527, -0.029722413, 0.090053864, -0.0055889064, -0.012052512, -0.0710747, 0.09737497, -0.030401088, 0.097405955, 0.018681847, -0.12409895, 0.20115201, -0.5179058, -0.09667829, -0.38433298, -0.18992573, -0.12852369, 0.100267455, -0.42111298, -0.14432108, -0.43106642, -0.0036086608, -0.07862854, 0.23503985, -0.3391368, -0.106224015, -0.35055912, 0.032165293, -0.05212741, 0.0934214, -0.37801182, -0.011308406, -0.25963545, 0.0046321503, -0.1452143, 0.1708052, -0.32012117, 0.02560775, -0.1827238, 0.08714348, -0.11656458, 0.061987825, -0.26112464, 0.15205967, -0.14214945, 0.14810014, -0.07864365, 0.08276634, -0.22668976, 0.066100076, -0.059887454, 0.05227944, -0.053257555, 0.047100697, -0.045297947, 0.16653958, -0.06674711, 0.057554524, -0.12760942, 0.084829554, -0.0718027, 0.16830185, 0.102458246, 0.088905826, -0.02422362, 0.028282816, -0.025811834, 0.116651915, 0.04606538, -0.001609776, -0.15021212, -0.029908003, -0.06832629, 0.088640176, 0.19185096, -0.010860832, -0.040230937, 0.032226875, 0.020839253, 0.19677001, 0.11820325, -0.019235197, -0.13423242, -0.008081537, -0.052015174, 0.10941294, 0.10030873, -0.0010886911, -0.0734458, 0.028620502, 0.01986356, 0.17719702, -0.01138613, -0.015108241, -0.14145368, -0.044073343, -0.07580935, 0.23330592, -0.052745983, 0.12394997, 1.2886745, 0.9421175, 0.6758712, 0.121672034, -0.44752648, 0.11211637, 1.3451989, 0.8897945, 0.63625896, 0.050930627, -0.49816915, 0.1862389, 1.4561405, 0.83646315, 0.6161167, -0.121354856, -0.42076325, 0.30982548, 1.322217, 0.7037742, 0.55001634, -0.1250567, -0.32477537, 0.14451903, 1.3063514, 0.64283884, 0.37098035, -0.032456923, -0.24045227, 0.13469727, 1.104018, 0.4673962, 0.28428686, -0.0790045, -0.11287511, 0.014210872, 0.81866443, 0.20992449, 0.19110292, -0.11532856, -0.12993124, -0.0130544, 0.6272054, 0.13031054, 0.21296993, -0.0256818, -0.0024303512, -0.100769155, 0.48849317, -0.0050968537, 0.20488025, -0.03703812, 0.07859252, 0.031104293, 0.24448724, -0.10283932, 0.14603452, -0.03954975, 0.116778225, -0.06971458, 0.12982138, -0.22352146, 0.06979766, -0.061140765, 0.03396746, -0.03022932, 0.049655966, -0.23767485, 0.026538247, -0.016304327, 0.13378711, -0.0033338768, -0.06630726, -0.29634064, 0.08620883, -0.040433835, 0.05966585, 0.11833397, -0.2022063, -0.32840684, 0.0071489885, 0.027095074, 0.102848046, 0.19502334, -0.27978936, -0.33879054, 0.033102334, 0.032554504, 0.03472452, 0.2213095, 0.010520721, -0.039118793, 0.16081935, 0.046870086, -0.056046456, -0.08635186, 0.025905684, -0.08260826, 0.14808108, 0.101140775, 0.0014211258, -0.027312279, 0.020552227, 0.006330604, 0.15539691, 0.049990896, -0.035412226, 0.014234456, 0.06425224, -0.11444683, 0.10239097, 0.04377273, -0.0766395, 0.071235694, -0.04439977, -0.030350145, 0.0643368, -0.016261663, -0.086383305, 0.051262, 0.03549311, -0.06094099, 0.1558282, 0.03587707, -0.016542222, 0.06101478, 0.036751553, -0.09243255, 0.15022504, 0.008329692, 0.016773896, 0.1565292, -0.0013793607, -0.1694341, 0.04237525, 0.021331374, -0.037383467, 0.1067373, -0.011241628, -0.2048951, 0.12710367, -0.06602037, 0.02532744, 0.08689434, -0.050626844, -0.084790796, 0.0150587205, -0.04847766, 0.033718552, 0.197227, -0.0841845, -0.16938683, -0.0040039215, -0.03473884, 0.049496908, 0.20774354, -0.04196852, -0.22580189, 0.029080598, -0.014540819, 0.15689532, 0.17650579, -0.08783673, -0.119290486, -0.020141827, -0.09996507, 0.11759652, 0.2835575, -0.114102736, -0.11601521, 0.04838209, -0.098564886, 0.16471298, 0.32517523, -0.043285012, -0.23905836, -0.046718165, -0.1456268, 0.1572437, 0.36017862, -0.20209755, 0.32744914, -0.05148086, 0.16746767, -0.34006482, 0.09507021, -0.14799875, 0.3347766, -0.083309025, 0.153339, -0.3923229, 0.018087428, -0.12678182, 0.39241263, 0.076725416, -0.0034569553, -0.37058422, 0.053069696, -0.097594365, 0.40480503, 0.14281768, -0.0118034985, -0.32203892, 0.12317236, -0.038892027, 0.32001546, 0.1993462, 0.04084496, -0.0985228, 0.12028367, 0.0019847767, 0.36198378, 0.18169335, 0.077769615, -0.04526548, 0.05060579, 0.0022698992, 0.3048, 0.29735336, 0.10480478, 0.18644078, 0.17039444, 0.11576352, 0.33127677, 0.2695563, 0.07935391, 0.21173438, 0.015152405, 0.12219348, 0.20322996, 0.23857687, 0.07234177, 0.16206868, 0.086418144, 0.14109895, 0.20922711, 0.14835303, 0.033161797, 0.1739159, 0.05838234, 0.13038667, 0.32431802, 0.1368165, -0.0170612, 0.095451415, -0.07738137, 0.20575336, 0.2861858, 0.12811114, 0.0018480384, 0.12175081, -0.0642433, 0.24887176, 0.2818622, 0.08352639, 0.019348502, 0.1458451, -0.04280431, 0.22468413, 0.27240944, -0.015518261, -0.041284487, 0.1407227, -0.088602975, 0.15316722, 0.24063729, -0.077539414, 0.0058315075, 0.078688644, 0.081874356, -0.16199455, 0.12743695, -0.06084642, 0.32902813, 0.091481656, 0.08883263, -0.09662021, 0.07755439, -0.048893847, 0.29111254, 0.013812, -0.11357933, -0.05620212, -0.047691055, 0.04658196, 0.18545389, 0.12099239, -0.041155938, -0.13203199, 0.023085577, 0.10363035, 0.1878213, 0.10281062, -0.06937608, -0.05390696, 0.041329525, 0.08756928, 0.22328351, 0.11146218, -0.07811671, 0.015727317, -0.012951846, 0.05484606, 0.214481, 0.13392544, -0.13598107, -0.057305843, -0.0022268908, 0.02487352, 0.15173697, 0.12169775, -0.19328119, -0.09207812, -0.065606095, 0.09646571, 0.119741075, 0.1017715, -0.13963273, -0.002730117, 0.033477843, 0.16837078, 0.14993162, 0.042482305, -0.1688721, 0.009920512, -0.073409304, 0.17996262, 0.13797572, 0.09365032, -0.085751325, -0.008223612, -0.06002291, 0.082423106, 0.055942185, -0.02189289, -0.13876165, -0.049504157, -0.054590423, 0.13610174, -0.031409107, -0.024011, -0.07112347, 0.01835828, -0.0622337, 0.16696443, 0.039279707, -0.033267718, -0.086186916, 0.02222738, -0.11920146, 0.04734624, -0.050196882, -0.04816252, -0.10635828, -0.085948035, -0.09140618, 0.10463668, -0.1251879, -0.05546309, 0.05644965, 0.06370885, 0.068053484, 0.082969315, 0.1031664, 0.17129152, 0.027290476, 0.040505968, 0.09988296, 0.050008424, 0.12859815, 0.1960688, -0.048148714, 0.010219954, -0.017370995, 0.05830749, 0.11831901, 0.096647814, -0.09092319, 0.052883606, 0.066204354, -0.006124398, 0.16567528, 0.11621976, -0.107441254, 0.050276194, -0.041671347, 0.013791619, 0.09893849, 0.15036328, -0.102105446, 0.0118292915, -0.078551546, 0.11223184, 0.1557191, 0.22066475, -0.19558033, 0.00096415746, 0.015725074, -0.0058290996, 0.14828067, 0.119542316, -0.15627126, -0.05544719, -0.054251418, 0.11713492, 0.07958129, 0.19139253, -0.15250243, 0.016235096, -0.013848575, 0.056226414, 0.15990937, 0.16537017, -0.20978108, -0.07197941, -0.0714574, 0.06585174, 0.10983525, 0.15381303, -0.16511738, -0.062206175, -0.09513854, 0.08155559, 0.09737532, 0.14034045, -0.1345791, -0.093495905, -0.048499588, 0.0070058107, 0.09214086, 0.06397415, -0.16446391, 0.013027057, -0.09491905, 0.06552293, 0.04101771, 0.006300522, -0.13387051, 0.014644302, -0.1477084, 0.11810409, 0.0915548, 0.0006241387, 0.008825504, 0.029039385, -0.053270068, 0.007307296, 0.028727608, -0.023248842, -0.009325827, 1.1652852, 0.9167226, 0.54151595, -0.06932577, 0.008424501, -0.22226423, 1.1224059, 0.71246475, 0.45437288, -0.052533172, -0.019883625, -0.1342669, 1.0987418, 0.40130812, 0.31606534, -0.092794634, 0.09716758, -0.16712826, 0.9693839, 0.32050002, 0.2932508, -0.047311265, 0.04165162, -0.19062106, 0.78378433, 0.14835247, 0.227742, -0.10363128, 0.14057699, -0.05639879, 0.7273459, -0.041983083, 0.13127668, -0.077372916, 0.086716935, -0.107028075, 0.5234558, -0.22898813, 0.11465714, -0.059280742, 0.12236766, 0.063226104, 0.4356032, -0.3208608, 0.07774803, -0.076196834, 0.036159087, -0.028552134, 0.29990977, -0.28724927, 0.029922089, -0.15119383, 0.026465135, 0.012329957, 0.22271761, -0.36418697, -0.004312925, -0.0434386, 0.0313734, 0.07552364, 0.054130312, -0.4159455, -0.14551356, -0.059857298, -0.03765174, 0.07602918, -0.026917806, -0.33499753, -0.1468126, -0.056782708, 0.072937004, 0.24241813, -0.006226531, -0.29567677, -0.13187015, -0.06551542, -0.025381517, 0.18153603, 0.008527663, -0.32814845, -0.123758584, -0.04430203, 0.0250993, 0.22360808, -0.11882797, -0.20607784, -0.26397905, -0.100516796, 0.021822855, 0.14733848, 0.7720841, 0.31229472, -0.10282613, 0.28271472, -0.3824533, 0.19270462, 0.8277316, 0.20405515, 0.06466576, 0.24341491, -0.25885588, 0.29980177, 0.8048568, 0.2162113, 0.09219451, 0.29220197, -0.123203084, 0.14783111, 0.71847165, 0.19168136, 0.028027097, 0.15904725, -0.18566154, 0.07192907, 0.6712248, 0.024161933, 0.11863421, 0.17026652, -0.096648924, 0.16803983, 0.5342296, 0.036383223, 0.1867702, 0.073533915, 0.052049994, 0.06530441, 0.45595807, -0.016552791, 0.1596895, 0.04043742, -0.008816883, 0.06650359, 0.36327597, -0.09808228, 0.08702717, 0.028529232, 0.12824205, 0.029436046, 0.24795534, -0.15612863, 0.0943965, 0.07603439, 0.057528477, 0.010453202, 0.06582125, -0.19601838, 0.10182349, -0.030582093, 0.037935976, 0.037985414, 0.04733603, -0.23282452, 0.16057627, -0.043259997, 0.15434277, 0.03018416, 0.052606788, -0.13696809, 0.1295033, -0.037313998, 0.1744183, 0.06528316, -0.07132324, -0.23960593, 0.14988297, 0.013960743, 0.20301074, 0.023208713, -0.09278805, -0.11632763, 0.13518894, -0.123821735, 0.13668358, -0.10174564, -0.15803796, -0.2051035, 0.07936632, -0.060798466, 0.20796408, 0.0020984004, 0.010319944, 0.11380501, 0.8896, -0.315902, -0.10685367, 0.20890652, 0.049298137, -0.013106402, 0.75514454, -0.12916353, -0.19680698, 0.32053515, -0.030966714, -0.1034396, 0.73882776, -0.06283062, -0.1620192, 0.12009415, -0.021046953, -0.19478464, 0.59887624, -0.010092935, -0.095682696, 0.16320133, 0.0006814854, -0.24008377, 0.59136456, 0.06361011, -0.08553358, 0.10694967, 0.0488685, -0.1761405, 0.51904947, 0.048242558, -0.0017294643, -0.034324344, -0.004200555, -0.19677882, 0.38348645, 0.03305522, -0.087713234, -0.07381922, 0.08984649, -0.28211087, 0.39009598, 0.07220357, -0.13208699, -0.14634082, 0.03357472, -0.15228811, 0.27950558, 0.06310956, -0.060392555, -0.18929191, 0.046927653, -0.27316788, 0.206901, 0.1927075, 0.00011712111, -0.0093125915, 0.17435853, -0.19225842, 0.09321529, 0.14561383, 0.010933533, -4.0819734e-05, 0.17242597, -0.11947805, 0.025787441, 0.18523861, -0.036500752, -0.0064504766, 0.19913083, -0.12868287, 0.016678117, 0.15342897, 0.021717958, 0.06477477, 0.19428986, -0.13107981, -0.060483616, 0.14833148, -0.05085373, 0.11868624, 0.1884021, -0.13278894, -0.03278067, 0.16119488, -0.052901533, 0.09614773, 0.09204285, -0.11919246, -0.28014973, 0.2603993, -0.0035408346, -0.19371206, 0.13396902, 0.039288472, -0.19782674, 0.2524929, -0.08316627, -0.18425019, 0.07699772, -0.037856665, -0.118597455, 0.26292104, -0.07614856, -0.0054441746, 0.089983106, 0.11808495, -0.1954184, 0.23847862, -0.019847816, 0.036991466, 0.20937563, 0.1220303, -0.075458124, 0.1709576, 0.0012534504, -0.024379011, 0.106589176, 0.10097598, -0.027121423, 0.2102916, -0.039203033, 0.08841309, 0.19181763, 0.13059786, 0.009475971, 0.18342584, -0.22933356, 0.13490754, 0.07956959, 0.15181187, 0.120304756, 0.18592672, -0.15357259, 0.20279624, 0.06880419, 0.07468613, 0.058309644, 0.11318421, -0.15286478, 0.2129137, 0.06617576, 0.179165, 0.0869319, -0.023328027, -0.05024538, 0.22291514, 0.012378356, 0.07276032, 0.16492884, -0.14868803, -0.07699963, 0.13860677, 0.035830572, -0.04528364, 0.112483874, -0.20921372, -0.06327966, 0.1751071, -0.046248622, -0.02772243, 0.156282, -0.33253157, 0.06632018, 0.13392001, 0.006891412, -0.0073222513, 0.09995555, -0.32601082, 0.1007617, 0.1770528, -0.020794632, -0.08194625, 0.09579998, -0.4800825, 0.15942337, 0.11883929, -0.050286517, -0.44569764, 0.8319793, -0.16705787, -0.28786868, 0.22317025, 0.057419453, -0.55549484, 0.64661986, -0.09999503, -0.3575566, -0.011296249, 0.12880509, -0.48563138, 0.6445864, 0.03232814, -0.35754666, -0.09398462, 0.108035184, -0.4237937, 0.37845457, 0.09534565, -0.30512556, -0.072281934, 0.1719765, -0.33422342, 0.34951353, 0.038470283, -0.17416267, -0.02734148, 0.24382862, -0.2808444, 0.22038339, 0.13495153, -0.002149294, -0.0845798, 0.20845714, -0.19200231, 0.10521599, 0.046606462, 0.07534363, -0.015908536, 0.21671264, -0.051715396, 0.0106913755, -8.143685e-05, 0.15665965, -0.05039173, 0.25056773, 0.04793067, -0.024477344, -0.12277656, 0.10171239, -0.047753423, 0.2841569, 0.008661254, -0.12109363, -0.106121585, 0.11322069, -0.01218532, 0.23874481, 0.028505318, -0.14654554, -0.17123435, 0.16739027, -0.03050025, 0.16746286, 0.13273025, -0.25844496, -0.13117069, 0.20563185, -0.13002238, 0.2685766, 0.20159924, -0.2761455, -0.17117631, 0.09876061, -0.009288481, 0.22867286, 0.17820907, -0.25077036, -0.12508257, 0.15601493, -0.06874522, 0.09772543, 0.21213853, -0.14164075, -0.20463301, 0.23944499, -0.06561485, 0.21425049, 0.27278954, 0.48958474, 0.047470648, 0.22674218, -0.42392775, 0.18339849, 0.46489218, 0.50876385, -0.015633088, 0.12502396, -0.38155445, 0.115175165, 0.5765664, 0.4544708, -0.061339222, 0.12742506, -0.29673278, 0.0711864, 0.5867295, 0.4366324, -0.046837714, 0.15700047, -0.038905714, 0.04242606, 0.6013689, 0.4730027, -0.073410764, 0.1270979, -0.086754374, 0.082620695, 0.5313397, 0.41413853, -0.149344, 0.07592643, 0.07751158, -0.048952594, 0.3981617, 0.37024257, -0.055927183, -0.021726856, 0.005404028, 0.008284626, 0.22862332, 0.34993896, -0.054798998, 0.023481604, 0.090167105, 0.021934362, 0.2200673, 0.26556116, -0.036507178, 0.079524636, 0.16894825, -0.122561485, 0.05554426, 0.26325232, -0.088953145, 0.023082752, -0.020560177, -0.012236199, -0.026463369, 0.2788881, -0.13432644, -0.0735573, -0.05453414, -0.14086926, -0.10315107, 0.29317787, -0.1378583, 0.051991086, -0.0026519494, -0.07900054, -0.17463787, 0.20026378, -0.0707549, -0.0116635, -0.11381332, -0.016629465, -0.10496151, 0.25405437, -0.090343185, -0.050544206, -0.13905363, 0.0006578458, -0.24350603, 0.279818, -0.16465466, 0.010883412, 0.027919801, -0.24655876, 0.14092863, 0.6252036, -0.2971094, 0.12666172, -0.07185705, -0.10380955, 0.09919833, 0.63976824, -0.21989861, 0.17866878, -0.084249325, -0.14521495, 0.108148016, 0.53962517, -0.25376904, 0.20323178, -0.09449389, -0.11052901, 0.023514742, 0.64186805, -0.23479457, 0.03139789, -0.08687567, -0.14554997, -0.010419478, 0.5688358, -0.06882553, 0.07959429, -0.08786033, -0.039340973, -0.06997621, 0.45704934, -0.06502187, 0.10432708, 0.0014373509, -0.01632141, 0.045473076, 0.4641557, -0.045906175, -0.0038289214, 0.0008756123, 0.03850223, -0.048592277, 0.4241059, -0.0015145589, 0.027199602, -0.02877811, -0.008902871, -0.09950687, 0.3365874, -0.028206028, 0.07640612, 0.009701715, 0.06432713, -0.09210993, 0.26400435, -0.045498647, -0.022937547, -0.03559049, 0.025327383, -0.073491134, 0.24242496, -0.012225866, -0.031216994, 0.07879914, 0.018293148, 0.024724882, 0.17130959, 0.09268121, 0.057447735, 0.04357237, 0.065437146, -0.050162986, 0.16230296, 0.086212724, 0.069796704, 0.08334956, 0.11794858, -0.029341185, 0.21592505, 0.0073325043, 0.050302543, 0.065323204, 0.13698977, -0.035372846, 0.12064615, 0.011798563, 0.12740658, 0.171144, 0.687534, 0.09479932, 0.22710553, 0.3497695, -0.23614551, 0.21521899, 0.6990839, -0.012638843, 0.19091527, 0.31527963, -0.15144919, 0.30444166, 0.61356825, -0.07908389, 0.28144485, 0.19426425, -0.17851143, 0.34324473, 0.613846, -0.05450847, 0.18771188, 0.1293053, -0.23274773, 0.25810334, 0.51835203, -0.088885665, 0.26000363, 0.029740788, -0.098097235, 0.14083482, 0.41595024, -0.11930203, 0.24530183, 0.1226941, -0.035737023, 0.108934216, 0.23208216, -0.040638126, 0.21401924, 0.08318964, -0.1114675, 0.051028047, 0.27293974, -0.0964263, 0.25711408, -0.013229508, 0.06289336, -0.017211553, 0.05419826, -0.0952169, 0.13900405, -0.06962687, -0.0358716, -0.025441047, -0.009293618, -0.19657965, 0.10180034, -0.054856308, 0.07734794, 0.043255903, 0.023800526, -0.22042409, 0.2085313, -0.007286952, 0.037825156, 0.06461042, -0.08560505, -0.13037679, 0.12806997, -0.014635173, 0.04232673, -0.099209204, -0.07738784, -0.26427293, 0.11728284, -0.08494857, 0.11504003, 0.0031147038, -0.08891343, -0.25462776, 0.12515344, -0.12230124, 0.05494249, -0.03686811, -0.25481024, -0.23329332, 0.10136707, -0.004215336, -0.0066755847, -0.07473047, -0.29184145, 0.58016455, 0.24687901, 0.35236225, -0.037334155, 0.17252576, -0.1334524, 0.45628643, 0.25650448, 0.3043765, 0.14120592, -0.01240065, -0.070653655, 0.43784896, 0.42672807, 0.12813416, 0.29056647, -0.23418207, 0.04320073, 0.36777776, 0.42303658, 0.16399628, 0.23638372, -0.4060289, 0.2570487, 0.30053, 0.38755816, 0.17102686, 0.15307136, -0.37095818, 0.22980866, 0.2591724, 0.34235317, 0.06569056, 0.03899954, -0.4728714, 0.29038218, 0.11387521, 0.35050455, 0.10438046, 0.032381408, -0.35188553, 0.30943933, 0.037282024, 0.19667685, 0.028310183, -0.033519525, -0.25914475, 0.30783078, -0.10239672, 0.13633558, 0.06420642, 0.09252745, -0.32275888, 0.31875327, -0.30448043, 0.116015725, -0.022651538, -0.012177513, -0.16376375, 0.28761774, -0.28900605, 0.1363351, -0.05360103, 0.048262343, -0.040922273, 0.2677927, -0.37645048, -0.055736005, 0.09433804, 0.038722236, -0.024940092, 0.3414121, -0.49055132, -0.0023821357, -0.03592975, 0.11224448, 0.11844296, 0.26061866, -0.58112764, -0.064634755, -0.02259458, 0.082203835, 0.13383779, 0.31724054, -0.5655981, -0.100966975, 0.031715058, 0.090760335, 0.07273958, 0.12411118, -0.017510148, 0.16421288, 0.117252834, -0.021525802, -0.0675363, 0.10155504, -0.10406509, 0.19751178, 0.15358315, -0.024288932, -0.031835467, 0.12244092, -0.10034368, 0.07132585, 0.086853705, -0.002532828, -0.022605255, 0.054383576, -0.037153263, 0.030230992, 0.09952929, -0.054633442, -0.09149408, 0.044790007, -0.14915666, 0.027559854, 0.052254774, 0.01529639, -0.050171643, 0.026562285, -0.0690264, -0.015793642, 0.12582365, 0.03712461, -0.07286291, 0.042323925, -0.10380181, -0.0030800297, 0.04059155, -0.030277262, -0.028095413, 0.08511356, -0.10334754, -0.003082971, 0.0665483, 0.063034415, -0.02366086, -0.025678365, -0.13713866, -0.07792078, 0.1346858, 0.04988079, -0.100160524, -0.02059117, -0.06396484, -0.02384139, 0.07780804, 0.09628288, -0.048630748, 0.03732705, -0.11200137, -0.06512273, 0.18451194, 0.1510473, -0.034257676, -0.023193458, -0.020786516, -0.04506727, 0.12481338, 0.10678106, -0.029026926, 0.03543685, -0.06632196, -0.025585163, 0.2548776, 0.14086981, 0.0019430445, 0.022948846, -0.012503881, -0.046115454, 0.2535331, 0.18234946, 0.023619166, 0.039811783, -0.023947105, -0.010735937, 0.18630053, 0.09969015, 0.11555771, 0.29676062, 0.7908864, -0.09951474, 0.036462393, 0.1989157, 0.003871582, 0.24358776, 0.8664506, 0.004799894, -0.0067182793, 0.17393978, 0.072337024, 0.18779677, 0.7649951, 0.08940693, -0.09470838, 0.0790574, 0.19712493, 0.14788403, 0.6188042, 0.14615415, -0.10296506, 0.0070548654, 0.28033337, 0.15626867, 0.38562107, 0.1746991, -0.020778712, -0.03585536, 0.30222082, 0.13608758, 0.16571002, 0.13147505, -0.0069456547, -0.010620145, 0.23821904, 0.021115556, 0.10741896, 0.10756362, -0.06905693, -0.12932456, 0.1795835, 0.09260373, -0.122631304, 0.04082879, -0.013802568, -0.08967781, 0.10460649, 0.020741256, -0.108645685, -0.020902716, 0.03483244, -0.016791685, -0.013598206, 0.07672207, -0.24402405, -0.14218065, -0.059253357, 0.0038193432, -0.11715197, 0.04342792, -0.2723195, -0.088372216, -0.04338713, -0.030693358, -0.09999232, 0.0041431976, -0.18821512, -0.20450352, -0.032197706, 0.065075904, -0.12834601, 0.017091641, -0.24028184, -0.12536544, -0.03203059, -0.0030661467, -0.097144425, 0.07407824, -0.22635111, -0.19556837, -0.07543765, 0.06457796, -0.13296069, 0.036896825, -0.33195296, -0.2881852, -0.013503943, 0.06534281, -0.07974906, 0.29356182, 0.047645427, -0.29978862, -0.11781412, -0.1333919, -0.18769498, 0.2882374, 0.07191714, -0.32721192, -0.06583395, -0.12726085, -0.106950425, 0.3054133, 0.079669915, -0.32635683, 0.004041407, -0.08225812, -0.14926367, 0.20863566, 0.06854571, -0.25765947, -0.04189909, 0.09287469, -0.06454424, 0.28868106, 0.050698712, -0.20491858, 0.099767186, 0.1072627, -0.13788106, 0.24157418, 0.083841145, -0.17806129, -0.0016070968, -0.03465753, -0.03916783, 0.19142474, 0.09198188, -0.24427484, 0.056798074, -0.051626083, 0.084696576, 0.27128202, 0.017757697, -0.16054073, 0.10096821, -0.0308443, 0.043514747, 0.16780153, 0.12750576, -0.1130773, 0.016937662, -0.16782674, 0.15208492, 0.11098258, 0.11270006, -0.13781574, 0.01431766, -0.20951125, 0.12077545, 0.17340426, 0.09301139, -0.15663968, 0.10798386, -0.21218464, -0.018374324, 0.12561178, 0.14440387, -0.01914329, 0.013796665, -0.12697631, 0.009638507, 0.050533004, 0.07078372, -0.08008414, 0.049218133, -0.15011932, 0.15320304, 0.10823203, 0.09076877, -0.06301435, 0.07377256, -0.13763277, 0.17106883, 0.08245506, 0.05498867, 0.053261004, -0.007939772, -0.12795809, 0.10378847};
static CNN_DTYPE CNN_bias[CNN_KERNEL_COUNT] = {0.29503858, 0.22188248, 0.3463719, -0.62995535, -0.11504757, 0.26126608, -0.21881585, -0.22748451, 0.18127052, 0.26256517, 0.27549264, -0.23671985, -0.23737016, -0.06513038, 0.10738736, 0.033427306, 0.068867736, -0.18230367, -0.0588312, -0.18081425, 0.18246584, -0.07052797, -0.02612774, 0.27429837, -0.27385384, 0.21328536, 0.26974362, -0.38872576, -0.29546568, 0.16036743, -0.056224164, 0.19959538, -0.3215203, 0.2383118, -0.29208702, -0.3993522, 0.031737715, -0.14508745, -0.16580398, -0.3169174, 0.12843348, 0.25592014, -0.060007777, 0.026482383, -0.18348217, -0.0010354093, 0.025857918, 0.43186277, 0.34468982, -0.13276628, 0.030781144, 0.13284113, -0.03985377, -0.019770807, -0.33561677, 0.19057274, -0.13615784, -0.07790365, -0.24666223, -0.046157047, -0.23467326, 0.1342952, -0.18484284, -0.20092231};
static CNN_DTYPE dense_weights[DENSE_OUTPUT_NODES][DENSE_INPUT_NODES] = {-0.22885768, -0.3497439, -0.47495857, -0.017230878, 0.56115454, -0.2750247, -0.33583745, -0.38690314, -0.24580504, -0.26691943, 0.11063743, -0.3698508, -0.14852498, 0.27826053, -0.10359464, -0.23781064, 0.10812508, -0.07725367, 0.04954827, 0.360579, -0.27840957, 0.3149215, 0.065765016, 0.37384737, 0.25560278, -0.15419567, -0.14811249, 0.15440086, -0.41883388, 0.25480402, 0.49640164, 0.06414691, -0.16220234, 0.6414059, 0.23941119, 0.31575745, 0.31904143, 0.595029, 0.1213763, -0.3848566, -0.08826056, 0.24066421, 0.5450492, -0.09054631, 0.4475802, 0.048516475, -0.27013838, 0.9710869, -0.044222854, 0.35690242, 0.31279194, 0.16011263, 0.4975374, 0.26044375, 0.2871816, -0.44853026, -0.48295188, -0.06846912, -0.45631316, 0.54726255, 0.35903987, 0.001629623, 0.43647072, -0.08654579, 0.24861282, 0.0510151, 0.12730145, -0.14730494, -0.1879485, 0.018533602, -0.060049076, 0.21394397, -0.15046865, 0.09288492, -0.1906974, 0.5884794, 0.3281177, 0.22243996, 0.21163303, 0.2590365, -0.54965997, 0.434351, 0.59620047, 0.15527254, -0.27470505, 0.49947277, -0.34876862, 0.054280274, -0.120165035, -0.09603761, -0.19411395, -0.08512418, -0.31222585, -0.034857657, 0.5399391, -0.18654802, 0.0784646, -0.80007464, 0.6232251, -0.39913446, 0.29142386, 0.7419342, -0.52652764, -0.1345933, -0.28617916, -0.3314621, -0.6827524, -0.1642189, -0.44475138, 0.17096846, 0.26812077, -1.0251243, 0.08162991, -0.55426204, -0.24867168, 0.14763367, -0.26941156, 0.5364628, -0.6383973, 0.33117756, 0.16200683, -0.7159945, -0.38905618, 0.57703376, -0.16277018, -0.25520346, 0.19863078, 0.49005574, -0.4563432, -0.22813748, -0.08131161, 0.81616414, 0.31999305, -0.16716525, -0.39507604, 0.30221432, -0.03893929, -0.22687866, -0.48954383, 0.39332944, 0.6262401, -0.57649374, 0.24995698, -0.64352775, 0.23507679, 0.44183016, -0.33207083, 0.25335497, -0.3640068, -0.20814632, 0.07488715, -0.2090467, 0.36793995, 0.04542031, -0.35199773, 0.36453447, 0.25759026, 0.04599093, -0.37299454, 0.105770364, 0.31992012, 0.6611631, -0.04289285, 0.4712359, 0.011900012, 0.1662612, -0.7908188, 0.2005079, 0.0858885, -0.080920264, -0.15562488, 0.28335768, 0.7275432, 0.41163272, 0.3997707, 0.13524769, -0.21354909, 0.54304177, 0.14729664, 0.017253803, 0.5888973, 0.010051942, 0.13514563, -0.3549587, -0.0026887183, 0.095972836, 0.41473085, -0.2022314, 0.5072122, -0.30742198, -0.49542418, 0.34001404, -0.017331496, -0.30879903, 0.3534661, -0.79807764, -0.8254587, -0.24057567, 0.6002607, 0.2858942, -0.13687618, 0.20091784, 0.18430823, -0.37359148, -0.5281225, 0.183507, -0.29045233, 0.23687766, 0.2090753, 0.069501646, -0.46092984, -0.44016746, 0.58258456, -0.18612033, -0.37736052, 0.08685673, 0.23373435, 0.2427853, 0.39805856, 0.006326241, 0.14292493, -0.4802747, -0.15587921, -0.10764372, 0.06510208, -0.50716126, 0.00349327, -0.049003687, -0.32101816, -0.968759, 0.8725738, 0.0011826316, -0.0640951, 0.22292654, -0.023752814, 0.005834894, -0.4009693, -0.36246258, -0.36387616, -1.348378, 0.12517153, -0.9058765, -0.4946995, -0.08498725, -1.1211517, -0.9652944, 0.65599024, 0.13660753, 0.9050064, 0.42879906, 0.3633608, -0.4343059, -0.9066705, 0.24881946, 0.6988151, -0.3606536, 0.20921215, 0.19563042, 0.19736673, -0.21519661, -0.62482816, 0.27375054, -0.52591133, -0.5497323, 0.394689, 0.44431254, 0.050144773, -0.2147372, -0.5780441, -0.15945743, 0.3419231, -0.1556318, 0.25939167, -0.17543, -0.62306905, -0.6918037, -0.19121845, -0.6014379, 0.123951666, 0.28306726, -0.79959625, 0.42076004, 0.15639815, -0.5891804, -0.5764617, 0.16484234, -0.7022197, 0.31643644, -0.6233761, -0.07574665, -0.31444356, -0.8370201, 0.20803969, -0.66569036, -0.5575308, -0.7157661, 0.38765344, 0.29163587, -0.3635155, 0.13594443, -0.5342589, 0.12819801, 0.012693621, -1.0246185, 0.37376273, -0.24277407, 0.22431488, 0.26184916, -0.76071846, -0.5024615, -0.54602706, 0.07182995, -0.28270704, -0.63428456, -0.34847817, -0.7788592, -0.4582485, 0.30872968, -0.50931877, -0.5818849};
static CNN_DTYPE dense_bias[DENSE_OUTPUT_NODES] = {-0.13843034, -0.095838934, -0.31436574, -0.009354678, 0.25261208};

	static int user_0_remaining_input_required = CNN_KERNEL_LENGTH;
	static CNN_DTYPE user_0_input_buffer[CNN_KERNEL_LENGTH][INPUT_DEPTH];
	static CNN_DTYPE user_0_cnn_output_buffer[CNN_OUTPUT_LENGTH][CNN_OUTPUT_DEPTH];
	static CNN_DTYPE user_0_cnn_output_enter[CNN_OUTPUT_DEPTH];
	static CNN_DTYPE user_0_cnn_output_exit[CNN_OUTPUT_DEPTH];
	static CNN_DTYPE user_0_cnn_output_averaged_buffer[CNN_OUTPUT_DEPTH];
	
	static int user_1_remaining_input_required = CNN_KERNEL_LENGTH;
	static CNN_DTYPE user_1_input_buffer[CNN_KERNEL_LENGTH][INPUT_DEPTH];
	static CNN_DTYPE user_1_cnn_output_buffer[CNN_OUTPUT_LENGTH][CNN_OUTPUT_DEPTH];
	static CNN_DTYPE user_1_cnn_output_enter[CNN_OUTPUT_DEPTH];
	static CNN_DTYPE user_1_cnn_output_exit[CNN_OUTPUT_DEPTH];
	static CNN_DTYPE user_1_cnn_output_averaged_buffer[CNN_OUTPUT_DEPTH];

	MAIN_PROCESS: if (function_select == 0) {
		if (user_number == 0) {
			// shift input_buffer to the left
			INPUT_SHIFT_LENGTH_LEVEL: for (int i = 0; i < CNN_KERNEL_LENGTH - 1; i++) {
				INPUT_SHIFT_DEPTH_LEVEL: for (int j = 0; j < INPUT_DEPTH; j++) {
					user_0_input_buffer[i][j] = user_0_input_buffer[i + 1][j];
				}
			}
			memcpy(user_0_input_buffer[CNN_KERNEL_LENGTH - 1], data, INPUT_DEPTH * sizeof(CNN_DTYPE));

			user_0_remaining_input_required--;
			if (user_0_remaining_input_required > 0) {
				// not enough data to run CNN
				memset(raw_output, 0, sizeof(CNN_DTYPE) * DENSE_OUTPUT_NODES);
				return;
			}

			// evaluate neural network result
			compute_convolution(user_0_input_buffer, CNN_weights, CNN_bias, user_0_cnn_output_buffer, 
				user_0_cnn_output_enter, user_0_cnn_output_exit);
			compute_global_average_pool(user_0_cnn_output_enter, user_0_cnn_output_exit, user_0_cnn_output_averaged_buffer);
			compute_dense(user_0_cnn_output_averaged_buffer, dense_weights, dense_bias, raw_output);
		} else {
			// shift input_buffer to the left
			for (int i = 0; i < CNN_KERNEL_LENGTH - 1; i++) {
				for (int j = 0; j < INPUT_DEPTH; j++) {
					user_1_input_buffer[i][j] = user_1_input_buffer[i + 1][j];
				}
			}
			memcpy(user_1_input_buffer[CNN_KERNEL_LENGTH - 1], data, INPUT_DEPTH * sizeof(CNN_DTYPE));

			user_1_remaining_input_required--;
			if (user_1_remaining_input_required > 0) {
				// not enough data to run CNN
				memset(raw_output, 0, sizeof(CNN_DTYPE) * DENSE_OUTPUT_NODES);
				return;
			}

			// evaluate neural network result
			compute_convolution(user_1_input_buffer, CNN_weights, CNN_bias, user_1_cnn_output_buffer, 
				user_1_cnn_output_enter, user_1_cnn_output_exit);
			compute_global_average_pool(user_1_cnn_output_enter, user_1_cnn_output_exit, user_1_cnn_output_averaged_buffer);
			compute_dense(user_1_cnn_output_averaged_buffer, dense_weights, dense_bias, raw_output);
		}

	} else if (function_select == 1) {

		// reset CNN output buffer, CNN output averaged buffer, and dense output buffer
		if (user_number == 0) {
			memset(user_0_input_buffer, 0, sizeof(CNN_DTYPE) * CNN_KERNEL_LENGTH * INPUT_DEPTH);
			user_0_remaining_input_required = CNN_KERNEL_LENGTH;
			memset(user_0_cnn_output_buffer, 0, sizeof(CNN_DTYPE) * CNN_OUTPUT_LENGTH * CNN_OUTPUT_DEPTH);
			memset(user_0_cnn_output_enter, 0, sizeof(CNN_DTYPE) * CNN_OUTPUT_DEPTH);
			memset(user_0_cnn_output_exit, 0, sizeof(CNN_DTYPE) * CNN_OUTPUT_DEPTH);
			memset(user_0_cnn_output_averaged_buffer, 0, sizeof(CNN_DTYPE) * CNN_OUTPUT_DEPTH);
		} else {
			memset(user_1_input_buffer, 0, sizeof(CNN_DTYPE) * CNN_KERNEL_LENGTH * INPUT_DEPTH);
			user_1_remaining_input_required = CNN_KERNEL_LENGTH;
			memset(user_1_cnn_output_buffer, 0, sizeof(CNN_DTYPE) * CNN_OUTPUT_LENGTH * CNN_OUTPUT_DEPTH);
			memset(user_1_cnn_output_enter, 0, sizeof(CNN_DTYPE) * CNN_OUTPUT_DEPTH);
			memset(user_1_cnn_output_exit, 0, sizeof(CNN_DTYPE) * CNN_OUTPUT_DEPTH);
			memset(user_1_cnn_output_averaged_buffer, 0, sizeof(CNN_DTYPE) * CNN_OUTPUT_DEPTH);
		}
		memset(raw_output, 0, sizeof(CNN_DTYPE) * DENSE_OUTPUT_NODES);

	} else if (function_select == 2) {
		// set CNN weights
		memcpy(CNN_weights, weights_and_bias, sizeof(CNN_DTYPE) * CNN_KERNEL_LENGTH*CNN_KERNEL_DEPTH*CNN_KERNEL_COUNT);
	} else if (function_select == 3) {
		// set CNN bias
		memcpy(CNN_bias, weights_and_bias, sizeof(CNN_DTYPE) * CNN_KERNEL_COUNT);
	} else if (function_select == 4) {
		// set dense weights
		memcpy(dense_weights, weights_and_bias, sizeof(DENSE_DTYPE) * DENSE_INPUT_NODES*DENSE_OUTPUT_NODES);
	} else if (function_select == 5) {
		// set dense bias
		memcpy(dense_bias, weights_and_bias, sizeof(DENSE_DTYPE) * DENSE_OUTPUT_NODES);
	} else {
		// do nothing
	}
}
