#include "cnn_model.h"
#include <string.h>

void cnn_action_detection(
		FUNCTION_SELECT_BIT_WIDTH function_select,
		int user_number,
		float data[INPUT_DEPTH],
		float raw_output[DENSE_OUTPUT_NODES],
		float weights_and_bias[CNN_KERNEL_COUNT * CNN_KERNEL_LENGTH * CNN_KERNEL_DEPTH]) {
#pragma HLS INTERFACE mode=s_axilite port=function_select
#pragma HLS INTERFACE mode=s_axilite port=user_number
#pragma HLS INTERFACE mode=m_axi depth=6 port=data offset=slave
#pragma HLS INTERFACE mode=m_axi port=raw_output depth=5 offset=slave
#pragma HLS INTERFACE mode=m_axi port=weights_and_bias depth=576 offset=slave
#pragma HLS interface s_axilite port=return

	// Initialize weights and bias
	static CNN_DTYPE CNN_weights[CNN_KERNEL_COUNT][CNN_KERNEL_LENGTH][CNN_KERNEL_DEPTH] = {0.21383297, -0.11007331, -0.11454122, 0.04452619, -0.029432338, -0.2952259, 0.17294109, -0.18746455, -0.08306058, 0.010486012, -0.040258437, -0.15838031, 0.10503458, -0.15681963, -0.021007914, 0.01889563, 0.021597508, -0.08370229, 0.17773837, -0.100342005, -0.02353394, 0.0099487575, 0.021505887, -0.19402069, 0.10608392, -0.11303517, 0.07499965, 0.031820986, 0.017579654, -0.100825265, 0.19830982, -0.15004607, 0.045790393, 0.010608078, 0.06138418, -0.28474775, 0.19105065, -0.07046337, 0.17309667, 0.0034628978, 0.059640247, -0.29449108, 0.165609, -0.10324768, 0.20296112, -0.07768722, 0.077440865, -0.3037857, 0.1212878, -0.030646825, 0.20271407, -0.12941454, 0.058163177, -0.3562679, 0.19902475, -0.113555714, 0.048608366, -0.074186035, 0.15705493, -0.39074838, 0.206874, 0.035289466, 0.031715974, 0.044287767, 0.24121676, -0.1612032, 0.24341482, -0.08783918, -0.10624298, 0.11144865, 0.32545456, 0.1272959, 0.11261834, -0.086603485, -0.052380253, 0.26016608, 0.34899336, 0.10768553, 0.05832727, -0.17007536, -0.13324384, 0.22081432, 0.3025602, 0.01671115, 0.030563692, -0.1640629, -0.14597927, 0.16293368, 0.25426444, -0.06947528, 0.037242122, -0.3335487, 0.015410721, 0.032301974, -0.07265346, -0.052757364, 0.0600772, -0.3120848, -0.08108325, 0.026178757, -0.10457473, -0.028591117, 0.07848587, -0.25226837, -0.016200095, 0.021617463, -0.014328018, -0.07661051, 0.10732176, -0.2897958, 0.043364644, 0.078169696, -0.0024935482, -0.11238244, -0.0027918457, -0.28165576, 0.02839214, 0.044746418, -0.033430398, -0.024317559, 0.16791174, -0.16224255, 0.060341347, 0.04056611, 0.04156175, 0.08217348, 0.08939283, -0.20954153, 0.1788696, -0.07248572, 0.12293748, 0.09921691, 0.10980025, -0.18897176, 0.1221572, -0.115924634, 0.1437385, -0.03263164, 0.20637682, -0.14530744, 0.1815577, -0.12998904, 0.18626873, -0.07485246, 0.19116235, -0.025082512, 0.005770783, -0.010606058, 0.15671407, -0.13992424, 0.31737608, -0.08954723, 0.01780755, 0.20888604, 0.29092708, 0.06823056, 0.15933491, -0.11144809, -0.065447725, 0.27373752, 0.35083324, 0.26085913, 0.21683426, -0.06589984, -0.10823467, 0.31812835, 0.35785306, 0.32464534, 0.1166102, -0.059005775, -0.12574305, 0.29284912, 0.23452187, 0.35402143, -0.0067162905, -0.07155751, -0.15616894, 0.24111487, 0.122536786, 0.29636648, 0.44968277, 0.39469573, -0.0739998, 0.24085614, -0.077602744, 0.01877111, 0.3814688, 0.42372498, -0.17121103, 0.23926726, -0.039997518, 0.031322803, 0.32000715, 0.23881176, -0.1691503, 0.3681001, -0.33047026, 0.004807906, 0.3255454, 0.20120452, -0.17162098, 0.23236677, -0.16739665, 0.10076109, 0.18651561, 0.20423147, -0.15522368, 0.22962391, -0.15623817, 0.16435164, 0.21869859, 0.0482754, -0.15569867, 0.08795415, -0.01756635, 0.07620477, 0.12990358, -0.043060247, -0.17141291, 0.15722609, -0.26288155, 0.10386546, 0.100380436, -0.114621185, -0.11283964, 0.24319944, -0.25637653, 0.048844233, 0.057322893, -0.14159146, -0.26886716, 0.0816354, -0.102692045, 0.0033110841, 0.1308403, -0.07877074, -0.23449802, 0.044209756, -0.063701466, -0.009541779, 0.06717579, -0.09482394, -0.3324492, -0.010643813, -0.26472086, 0.00693426, 0.06061537, -0.03978265, -0.33077466, 0.047350667, -0.16577834, 0.06880719, 0.07154544, -0.046595458, -0.3152988, 0.089931265, -0.42573383, 0.19482847, 0.0675233, 0.12205468, -0.26651928, 0.20097035, -0.38301206, 0.20242645, 0.13750038, 0.1322086, -0.20658036, 0.26780564, -0.4972, 0.31087637, 0.32361627, 0.5921747, -0.14963111, 0.2438134, -0.50915295, 0.08279881, 0.37744716, 0.6016419, -0.24293867, 0.25440586, -0.2754499, -0.04983691, 0.45847407, 0.6925698, -0.23951747, 0.04179789, -0.3020442, -0.045206185, 0.4749344, 0.65703917, -0.1542739, 0.04566035, -0.22453168, -0.17272544, 0.51493937, 0.7412352, -0.18015665, -0.055441972, -0.01821629, -0.117279924, 0.5454653, 0.6766474, -0.22391358, 0.05505848, -0.01924851, -0.014243364, 0.48646215, 0.7262893, -0.095808126, -0.013211991, 0.02915146, -0.15391815, 0.4410216, 0.6530813, -0.04039369, 0.0557459, -0.19271372, -0.107440084, 0.4332418, 0.62413865, -0.14607613, -0.013305934, -0.23134397, 0.03944974, 0.36137602, 0.5155421, -0.036471605, 0.0013237542, -0.20153224, 0.1469185, 0.40953115, 0.4093071, -0.034972142, 0.020870268, -0.020044694, 0.1825238, 0.36541903, 0.26108652, 0.07397949, -0.02614184, 0.118607946, 0.22925444, 0.28607914, 0.24755654, 0.025353927, 0.06406401, -0.077098295, 0.19682644, 0.29293838, 0.07679798, 0.11391023, -0.07140721, -0.25874427, 0.162521, 0.3507465, 0.05093894, 0.12598617, 0.06472853, -0.25691926, 0.31813368, 0.23369321, 0.42062268, 0.5308489, 0.0918797, -0.024880867, 0.26111954, 0.18962382, 0.34118703, 0.55932915, 0.1536382, -0.032391015, 0.057367485, 0.20829539, 0.24781588, 0.5475966, 0.032773867, 0.010247579, 0.02517275, 0.23660365, 0.20031856, 0.46708965, 0.064687125, 0.062942624, 0.044319283, 0.28185526, 0.20059967, 0.5155928, 0.08363685, 0.17222598, 0.065952, 0.19031918, 0.091339216, 0.53644186, 0.016939843, 0.2161247, -0.087080374, 0.22291039, 0.010696703, 0.5241711, 0.031063756, 0.04619097, -0.046758883, 0.23366243, -0.02713981, 0.5066314, -0.08143728, -0.047721665, 0.22475526, 0.1644911, 0.041694496, 0.32336268, -0.099573664, -0.059740417, 0.12636574, 0.21377897, -0.0022241012, 0.23813896, -0.11770304, -0.02951555, 0.20254868, 0.18673228, -0.16474202, 0.11115122, -0.20700012, -0.16841629, 0.3146799, 0.121422894, -0.2411707, -0.13201335, -0.13094334, -0.010496352, 0.2848671, 0.06952856, -0.27414244, -0.105999276, -0.1311446, 0.030476687, 0.17041388, -0.0030096509, -0.2877958, -0.09413163, -0.10870642, 0.18657124, 0.21242587, 0.0010722511, -0.21488842, -0.11773447, -0.1589042, 0.21105759, -0.03794411, -0.09204497, -0.7917692, 0.89162827, 0.12418096, -0.14952078, -0.17954814, -0.08258697, -0.7398794, 0.61503464, 0.09289106, 0.013603541, -0.036559857, 0.079910114, -0.59713405, 0.4725782, 0.083594166, -0.03719177, -0.08953576, 0.15946934, -0.37658906, 0.3474237, 0.05891227, -0.054478254, -0.08703696, 0.20117466, -0.32946074, 0.19135801, 0.048537623, -0.13304341, -0.14729959, 0.18990014, -0.08128659, 0.07362356, 0.031086097, -0.15346679, -0.13001378, 0.24179645, 0.03139951, -0.07030217, 0.038212758, -0.32468763, 0.018189728, 0.2512667, 0.16042033, -0.23366791, -0.00030680903, -0.21466158, -0.02862422, 0.2898074, 0.40059164, -0.42970547, -0.19805723, 0.08776186, -0.12381363, 0.1900703, 0.5882771, -0.37503308, -0.20713976, 0.24029808, -0.16628644, 0.1530386, 0.627206, -0.43178615, -0.24170606, 0.25052047, -0.1275052, 0.13256754, 0.6169413, -0.3953213, -0.25666502, 0.23339957, -0.07596884, -0.0076250783, 0.65797484, -0.34779772, -0.19169171, 0.42871016, -0.14537144, -0.04177195, 0.57807153, -0.1905945, -0.19198424, 0.3522261, 0.012609606, -0.0139799835, 0.6583086, -0.15202661, -0.4534428, 0.32585332, 0.20294367, 0.13565783, 0.9272039, 0.33357817, -0.1781386, -0.4069396, 0.22297981, 0.00082799786, 0.70758736, 0.16374096, -0.20500858, -0.19942445, 0.30620363, -0.011471252, 0.5610402, 0.091108754, -0.2571328, -0.18209806, 0.19922473, 0.047126118, 0.32356283, 0.022718448, -0.2700278, -0.17679623, -0.05138685, 0.10052833, 0.21408065, -0.088075005, -0.18374725, -0.03287665, -0.18193065, 0.0522246, 0.028263487, -0.01830513, -0.18739589, 0.15628323, -0.24124579, 0.07049562, -0.060579993, -0.017122904, -0.09135762, 0.13196775, -0.14490537, -0.041362025, -0.06679602, -0.07377054, -0.11995857, 0.19985574, -0.24973254, -0.04894769, -0.11367595, -0.09711562, -0.15081264, 0.1115367, -0.26243702, -0.035162054, -0.15010491, -0.13092645, -0.098647185, 0.0645708, -0.32223186, -0.013122867, -0.13578403, -0.11227583, -0.07375116, 0.09603707, -0.27959502, 0.06347342, 0.0178459, -0.24101272, -0.0136799915, 0.06712049, -0.20796266, 0.06947473, -0.022450807, -0.16260153, -0.058393966, 0.040500753, -0.09438542, -0.011411044, 0.04449929, -0.25903496, -0.1448254, 0.07625561, 0.024606563, 0.003042831, 0.14984259, -0.22557063, -0.36316687, 0.02445919, -0.124867596, -0.3367511, -0.7661016, -0.35122588, -0.46604317, 0.20322001, -0.4105679, -0.20536642, -0.67735386, -0.1893259, -0.061071277, 0.36236477, -0.1435799, -0.26208693, -0.51679033, -0.027575212, 0.3745792, 0.0411016, -0.03679938, -0.11271565, -0.30123794, -0.011789276, 0.17724358, -0.051653963, 0.21117967, -0.047581058, -0.18255591, 0.021342186, -0.034975775, 0.3293273, 0.15659879, 0.08178689, -0.04788611, -0.006675136, 0.046874903, 0.10345182, 0.06897663, 0.104429856, -0.0014673795, -0.035645206, -0.023070546, 0.12599713, -0.010294249, 0.14831512, 0.08409192, -0.22426233, 0.11761586, -0.021033557, 0.035819963, 0.24077171, 0.34621733, -0.18042572, 0.10339737, -0.02497197, 0.004524357, 0.43368605, 0.48597723, -0.2309732, 0.13996212, 0.020364873, 0.03908899, 0.41122553, 0.58666265, -0.10278599, 0.12606844, -0.01469564, 0.07138049, 0.55598134, 0.5924379, -0.09793279, 0.045904238, -0.110039406, -0.024783881, 0.5682787, 0.7054491, -0.22802183, 0.068592675, -0.025925552, 0.07955876, 0.55167264, 0.71267647, -0.23630367, -0.06481936, -0.029668774, 0.059204616, 0.5087569, 0.6670033, -0.21157266, -0.01418022, 0.09055586, 0.034565315, -0.07297935, 0.25471222, -0.020509949, -0.03725297, 0.096180186, -0.064674824, -0.081669144, 0.40897787, -0.090635575, -0.01010771, 0.14501856, 0.013461189, 0.0056774537, 0.34512085, 0.019725824, -0.07304787, 0.051533166, 0.012138805, 0.063807994, 0.39806518, 0.106128156, -0.037247322, 0.14762244, 0.035431117, 0.03355948, 0.2897307, 0.28665158, -0.17087246, 0.15787478, 0.03651983, -0.05566171, 0.21721566, 0.46698436, -0.21862279, -0.022401014, -0.08122909, 0.06690601, 0.17266698, 0.560357, -0.31030846, 0.037148084, -0.15588796, 0.06432149, 0.10411493, 0.6051201, -0.3232964, 0.2476, -0.12462776, 0.21134867, 0.030465381, 0.6822045, -0.2934266, 0.3111488, -0.09641289, 0.25941992, 0.07677649, 0.40388545, 0.110697605, 0.34414276, -0.04705625, 0.22716667, 0.0807569, 0.40002343, 0.28286645, 0.3574974, -0.06191823, 0.20757021, 0.14113979, 0.32807097, 0.249647, 0.28441712, -0.09843054, 0.2700236, -0.007580157, 0.37677774, 0.17988168, 0.17868927, -0.07352616, 0.17663945, -0.05389057, 0.26787394, 0.07164968, 0.15322916, -0.06318516, 0.105511166, -0.12170806, 0.33539987, 0.14784157, 0.14361905, -0.022460341, -0.07842435, 0.091130644, 0.38691753, 0.23545589, -0.10659503, 0.21209165, 0.061025776, 0.11586179, 0.30397704, 0.18824604, 0.04448379, 0.11157066, 0.028324116, 0.12760842, 0.33800325, 0.11057036, 0.066390246, 0.123277366, 0.14090854, 0.23581056, 0.45331928, 0.07394122, 0.10358965, 0.10851974, 0.17777817, 0.112348415, 0.53515697, 0.12985998, 0.037054386, 0.18327004, 0.1397635, 0.15051046, 0.56598556, 0.07894287, -0.012583802, 0.17226568, 0.19575211, 0.14493439, 0.46916753, 0.008434054, 0.026404066, -0.0033714783, 0.22362494, 0.094926074, 0.49714908, -0.066722624, 0.100765385, 0.162169, 0.23715484, 0.049397867, 0.5112582, -0.14044574, 0.020647904, 0.26322153, 0.17772242, -0.12920554, 0.3312508, -0.0887566, 0.09279647, 0.28085253, 0.14478584, -0.049318925, 0.18417872, -0.067049176, 0.10511504, 0.26893008, 0.22996119, -0.089697674, 0.009642893, -0.07054498, 0.13560095, 0.16228633, 0.2455399, -0.23048119, -0.07160072, -0.04880881, 0.1015386, -0.2957479, 0.19617689, -0.14562076, -0.1311997, -0.0823996, -0.025685772, -0.45149928, 0.09685385, -0.2637494, -0.21545509, -0.13821757, 0.31168833, -0.45216274, -0.070002526, 0.1243192, -0.019221967, -0.23703453, -0.18397546, 0.48356515, -0.16478582, 0.113883294, -0.04437816, -0.23196939, -0.17620774, 0.3604494, -0.108908474, -0.04266648, 0.015665691, -0.15933023, -0.035849266, 0.20050865, -0.064109914, -0.11643265, 0.029499872, -0.013695733, 0.13640158, 0.064029485, -0.106709965, -0.16492514, 0.095576525, 0.001309609, 0.21493517, 0.021981388, -0.14724034, -0.15820177, -0.029156527, 0.032430694, 0.17803422, 0.0415286, -0.08178205, -0.101745576, 0.09304867, 0.15663123, 0.15069331, 0.0411573, 0.013977037, 0.001421887, 0.09648279, 0.1665101, 0.069901206, -0.05299924, -0.08887608, -0.053384136, 0.155134, 0.17446329, -0.11877746, -0.045384303, -0.07142979, 0.12342829, 0.18300918, 0.1992687, -0.11478852, 0.019637497, 0.055733476, 0.10854171, 0.23166683, 0.27228495, 0.09646592, 0.060458306, -0.0025714098, 0.21030618, 0.26884642, 0.21641813, -0.021374922, 0.03360842, -0.045533627, 0.2544067, 0.1983467, 0.18904532, -0.077670366, -0.08376867, -0.04749475, 0.32253644, 0.16649006, 0.27433968, -0.21122235, -0.07230987, -0.109355435, 0.21382545, 0.13645238, 0.3515941, -0.35937133, -0.078141205, 0.29370645, 0.54925835, -0.04619495, 0.14013064, 0.0028667608, 0.2993277, 0.34114215, 0.5136175, 0.012052684, 0.058763325, -0.0024983159, 0.14824755, 0.2883013, 0.3654201, 0.06347035, 0.004914021, -0.025293384, 0.027921565, 0.43952703, 0.38178465, 0.17244643, 0.026158227, 0.063100904, 0.0015225488, 0.36079678, 0.21235718, 0.11717153, -0.01810781, 0.068808824, 0.0057133012, 0.48310354, 0.19502601, 0.28657514, 0.106370695, 0.012928795, -0.0074878195, 0.45538542, 0.04302023, 0.34320885, -0.013252281, -0.04845642, 0.042255607, 0.5384782, -0.013874585, 0.3815593, 0.07837529, 0.032963958, 0.00269993, 0.43600652, -0.13472499, 0.40896732, 0.29801396, -0.10005974, -0.0040803743, 0.48348662, -0.18824351, 0.38414708, 0.37870595, -0.14700712, -0.12629426, 0.42855608, -0.27005073, 0.29101208, 0.03371627, -0.20650145, -0.062083986, 0.4121779, -0.29379845, 0.18175703, -0.16647838, -0.22381775, -0.110554606, 0.3760701, -0.421862, 0.22138143, -0.1971124, -0.15525825, 0.16724098, 0.20131357, -0.38734505, 0.18326674, -0.085127026, -0.17256379, 0.27322882, 0.15702619, -0.35901302, 0.13526122, -0.102497414, -0.31054398, 0.24490267, 0.54257613, 0.37926075, 0.06477075, 0.36252543, -0.06280591, 0.480414, 0.51497215, 0.14913385, 0.037926167, 0.2636307, -0.10577193, 0.16838816, 0.5889267, 0.07343051, 0.0021446587, 0.1552762, -0.18335296, 0.13122499, 0.5928582, 0.11020391, 0.13466224, 0.017059846, -0.1307437, 0.06997995, 0.48987553, -0.05173617, 0.17214918, -0.00951096, -0.12616946, 0.19790293, 0.5463636, -0.09581621, 0.17309485, 0.11652656, -0.09065999, 0.026516045, 0.5044792, -0.21364856, 0.20008408, 0.12705693, -0.1316057, 0.056809455, 0.4780342, -0.26572073, 0.11293039, 0.0809643, -0.03975772, 0.116200104, 0.49803862, -0.3742339, 0.1781899, 0.10142825, -0.09987986, 0.27453345, 0.4958265, -0.42635092, 0.20402183, 0.10861269, -0.13197169, 0.30634683, 0.401101, -0.44773707, 0.18700491, 0.1624533, -0.15265693, 0.06762486, 0.32684746, -0.5406812, 0.09712894, -0.12090726, -0.38518956, -0.11407549, 0.31519416, -0.597593, 0.16487241, -0.24677758, -0.2809119, -0.16210414, 0.22878121, -0.57182807, 0.09069986, -0.25564006, -0.22130884, 0.18908519, 0.2668054, -0.41825843, 0.014590315, -0.19586463, -0.2808485, 0.34010836, 0.31370217, 0.0908286, 0.28859818, 0.038229775, -0.17734087, 0.022676758, 0.3197248, 0.2358162, 0.09901952, -0.07455173, -0.097649924, -0.049558427, 0.28232446, 0.32957348, 0.034162037, -0.15407558, 0.004158214, -0.114964046, 0.28727174, 0.34499803, -0.039744142, -0.18529731, 0.2576609, -0.077878185, 0.26588044, 0.27836582, -0.047982555, -0.04290652, 0.23278233, -0.089450516, 0.17802548, 0.20179264, -0.0052949106, -0.121562846, 0.16984065, -0.1410377, 0.13118455, 0.08789164, -0.0061984775, -0.05091736, 0.20586082, -0.0689811, 0.07292287, 0.12260966, -0.067680314, -0.023082787, 0.101145774, -0.012003899, 0.076261, 0.18886636, -0.10936753, -0.00014098054, 0.19616221, 0.10506197, 0.10136337, 0.24470095, -0.06895755, -0.01843472, 0.20397727, 0.1344148, 0.07029263, 0.24312921, -0.02961587, -0.09909447, 0.23439369, 0.22589053, -0.063266166, 0.13279939, 0.09613616, -0.23513944, 0.29696184, 0.20795901, -0.071156844, 0.17179185, 0.069298536, -0.22143506, 0.12850946, 0.26803544, -0.060193636, 0.08083813, -0.01236677, -0.17076862, 0.21917777, 0.17269853, -0.16177987, 0.1158456, 0.07706729, -0.12754339, 0.22458169, 0.29995647, 0.19588138, 0.007554448, -0.47777814, 0.14254096, 0.2929976, -0.5298755, 0.07847606, 0.11447017, -0.24511033, 0.066009104, 0.29121917, -0.36512813, 0.08752975, 0.102528326, -0.17613336, -0.018058043, 0.25599855, -0.21142393, 0.094376944, 0.028824437, -0.019107021, -0.058826998, 0.1499662, -0.23542279, 0.11555028, -0.14894576, 0.13530993, 0.10184294, -0.08922571, -0.34260902, 0.019375753, -0.21276098, 0.08279345, 0.1494907, -0.21921362, -0.30865228, 0.1219022, -0.20640424, 0.056762706, 0.0853504, -0.21132416, -0.45374843, 0.12565315, -0.19731249, -0.029858956, 0.123004325, -0.20517899, -0.42522037, 0.09523809, -0.28473583, 0.021210289, 0.11943504, -0.27051324, -0.4427572, -0.04348703, -0.16814041, 0.20027326, 0.07041147, -0.27156663, -0.5182089, 0.0032669627, -0.1494597, 0.14761595, 0.06641005, -0.17358893, -0.3399234, -0.035826344, -0.22234747, 0.2123441, 0.035807088, -0.22421412, -0.2900032, -0.025080843, -0.3138157, 0.15052463, 0.03931745, -0.21700044, -0.19617303, -0.12250321, -0.37602824, 0.2462778, 0.061714906, -0.17885348, -0.18565895, -0.13071981, -0.42600086, 0.343607, 0.06546757, -0.09153817, -0.19256039, 0.006068589, -0.32601395, -0.010743936, 0.067339726, 0.24660768, 0.42135552, 0.0036708666, -0.3921613, -0.0075229686, -0.019211922, 0.14521053, 0.33724824, 0.074869715, -0.41811863, -0.020116206, -0.016537452, 0.029754627, 0.17665122, -0.040743344, -0.43301892, 0.10814008, -0.07710197, 0.09298767, 0.18963061, -0.028329177, -0.31241703, 0.087277964, -0.15821168, -0.026239652, 0.18234251, 0.07536066, -0.27909794, 0.08512221, -0.16297598, 0.065275565, 0.19789389, 0.057401378, -0.2566428, 0.14800335, -0.10125686, 0.13852294, 0.31914592, 0.08514395, -0.18502402, 0.18743381, -0.09576336, 0.06441903, 0.26766753, 0.120227024, -0.061361875, 0.07980663, 0.0015764507, 0.11816924, 0.109096065, 0.1364114, -0.074751735, -0.00883796, -0.27124992, -0.06754423, -0.01706531, 0.13590382, -0.044212885, 0.14235047, -0.09268783, -0.16942433, -0.26831114, 0.073627144, -0.10250035, 0.13997976, -0.061344523, -0.32649407, -0.35264495, 0.063048616, -0.07044742, 0.050632503, -0.08912253, -0.35042626, -0.15904161, 0.10902639, -0.05515929, 0.04504662, -0.0634055, -0.06097728, 0.049200427, 0.09240814, -0.0435711, 0.18626544, 0.0053927815, 0.14436601, -0.073099025, -0.04103639, 0.4924583, -0.013428865, -0.06101227, -0.29830098, -0.08338977, 0.012692844, 0.5709843, 0.074162856, -0.13878357, -0.23093797, 0.022705054, -0.046197496, 0.52590793, -0.02225847, -0.121073656, -0.22777969, 0.010855107, -0.05799962, 0.49963567, -0.04318465, -0.16593711, -0.1907825, 0.003988177, 0.07488829, 0.43318087, -0.023614122, -0.13681152, -0.017981438, -0.031181546, 0.008894889, 0.4336565, -0.06830992, -0.047242228, 0.05371877, 0.021253133, 0.059807222, 0.27593002, -0.16730331, -0.027246006, -0.0032657895, 0.047779314, -0.04640195, 0.23338345, -0.04853575, 0.054044243, 0.07897375, 0.1345625, 0.039230235, 0.15780441, -0.046641145, 0.124464095, -0.0365393, 0.23403719, -0.010785446, 0.12883413, 0.28706747, 0.030840695, -0.24212198, 0.09357093, -0.16290168, -0.020758118, 0.38357773, -0.019934485, -0.38725898, -0.034983482, -0.11461559, -0.11572758, 0.36609006, -0.10687628, -0.37768173, -0.12225536, -0.11867933, -0.12652636, 0.38867784, -0.09375947, -0.19272473, -0.09309007, 0.020158952, -0.14046444, 0.32230055, -0.047922242, 0.016616374, -0.21671388, 0.04737922, 0.052822083, 0.2677184, -0.20170793, 0.10450443, -0.35822606, -0.1713034, -0.48193932, -0.55869496, -0.009365451, 0.80799294, 0.3448751, -0.27920562, -0.5061829, -0.41831958, -0.014214751, 0.5928934, 0.07691007, -0.17545646, -0.45467082, -0.37776038, 0.033564053, 0.44163564, -0.058656305, -0.22629407, -0.34639478, -0.32175565, -0.18706925, 0.35150424, -0.21716365, -0.19134888, -0.30724812, -0.08518342, -0.08353142, -0.19832242, -0.2407263, -0.08200949, -0.13450587, -0.003895771, 0.13642667, -0.17463833, -0.1420292, 0.04705905, -0.036813784, -0.062305447, 0.15647432, -0.34285837, -0.031876322, 0.04445185, 0.17155668, 0.016707072, 0.0380145, -0.26345477, 0.023426734, 0.14955199, 0.272647, 0.082122706, -0.031467818, -0.31692526, -0.063956425, 0.12257329, 0.37790984, 0.07197639, 0.050406303, -0.18300572, -0.040118877, 0.19447489, 0.33387822, 0.0835976, 0.021156223, -0.21764483, -0.05059576, 0.19358595, 0.39092144, 0.0995887, 0.01061531, -0.08608969, -0.029421782, 0.25855038, 0.40802944, 0.19314843, 0.015486144, -0.30003032, -0.001422327, 0.26883838, 0.45605022, 0.1575769, -0.048995856, -0.1685553, -0.019623423, 0.22111823, 0.4705408, 0.014160141, -0.0809523, -0.12443267, 0.09975672, -0.0675194, -0.026482051, 0.19323549, 0.07852916, -0.018821092, -0.19450425, -0.1432414, 0.011101937, 0.287201, -0.0064867022, 0.008935433, -0.22395302, -0.13618998, -0.084433645, 0.23933011, -0.025003724, 0.039460845, -0.25589257, -0.010520779, -0.059395544, 0.15226685, -0.044947915, 0.047318414, -0.30853972, -0.042270653, 0.01736633, 0.17215829, 0.006894603, 0.051407106, -0.29826957, -0.05826797, 0.014882492, 0.018333849, -0.034717936, 0.100718744, -0.23109, -0.026307438, -0.07833749, 0.070323065, -0.040211022, -0.016390407, -0.1987437, -0.03501824, -0.06952612, -0.016047254, 0.0015562858, -0.046434447, -0.125053, 0.10514383, -0.06731783, -0.015618602, -0.0108018415, -0.14036089, -0.042505868, 0.0521146, -0.15182438, -0.03768895, 0.034642477, -0.28307456, -0.083165355, -0.015580543, -0.19597284, -0.024192333, 0.03610082, -0.28650987, 0.058802493, -0.025440367, -0.20145221, -0.09318056, 0.10916604, -0.23191953, 0.08533996, -0.034681138, -0.21933533, -0.095017776, 0.011040687, -0.20380047, 0.3256596, -0.04190707, -0.25090793, -0.15322988, 0.025997726, -0.17776251, 0.34504628, -0.033117976, -0.2600247, -0.050262656, 0.05199175, -0.14925526, 0.4477932, 1.0647843, 0.22205305, 0.42861453, -0.0056730127, -0.25950277, 0.27462378, 1.1748626, 0.071313225, 0.32493216, 0.0061051743, -0.084610485, 0.28332144, 1.0413507, -0.022906141, 0.41224322, 0.0355834, -0.10860394, 0.2670474, 0.9590668, 0.015418166, 0.24175082, -0.0143726, -0.007372401, 0.26074114, 0.91746926, -0.024365958, 0.3682207, 0.05204084, 0.075938575, 0.270571, 0.8402116, -0.048858825, 0.35677308, 0.05256174, 0.085368924, 0.18585066, 0.53989047, -0.047228135, 0.47746977, 0.007518173, 0.07815748, -0.18438374, 0.47154632, -0.06555319, 0.31999245, -0.16431038, -0.045248568, -0.13059305, 0.3187444, -0.14407128, 0.31457636, -0.18866523, -0.07496346, -0.048315216, 0.31346688, -0.24292104, 0.23665111, -0.19210835, 0.009220572, 0.29629776, 0.21300513, -0.2558465, 0.27779427, -0.2624377, 0.12330662, 0.19897822, 0.16613863, -0.2518455, 0.18864207, -0.31489846, 0.13204913, 0.11717053, -0.0124900825, -0.33176452, 0.085215345, -0.08869729, 0.17151971, -0.072918706, -0.033942644, -0.38004893, -0.037481293, -0.08943817, 0.18459825, -0.083763495, -0.14929892, -0.31261533, -0.028415132, -0.13630569, 0.13098149, 0.027439637, 0.2085372, -0.26925755, 0.004234578, -0.24471325, -0.11653978, -0.25628734, 0.12258987, -0.19465432, 0.112730265, -0.24796462, -0.04630004, -0.20562162, 0.02251364, -0.19118631, -0.047388706, -0.08086103, -0.08542996, -0.0222611, 0.09110872, -0.14347942, -0.012851584, -0.0881967, 0.18592566, 0.16104597, 0.03938315, -0.1426337, -0.03442978, 0.010884114, 0.28516126, 0.17187843, -0.07889323, -0.004128912, 0.042371128, -0.015025343, 0.31572753, -0.043487903, -0.057066843, -0.014823353, 0.09700569, -0.29188454, 0.054058105, -0.35778323, -0.0968627, -0.016879395, 0.18166316, -0.026946327, -0.42533153, -0.17616032, -0.08475014, 0.05235499, 0.31584233, 0.03967322, -0.28475773, 0.06038544, -0.11271975, 0.088872306, 0.40518108, 0.13217217, 0.049243707, 0.25289142, -0.19209337, -0.02049942, 0.46987543, 0.24135858, -0.038827464, 0.07334731, -0.14600617, 0.16737026, 0.44707346, 0.20033512, 0.08457013, 0.12779836, -0.1220919, 0.091270946, 0.1817519, 0.2363974, -0.18942048, 0.11021193, -0.07860933, 0.14256501, 0.1665949, 0.19405894, -0.044627786, 0.0626927, -0.015454477, 0.25960383, -0.019096663, 0.15862729, -0.061537877, -0.05128098, 0.2983594, 0.014799892, -0.4344772, 0.3315423, 0.02946549, -0.15313964, 0.22846434, -0.033229046, -0.4634643, 0.19139008, 0.07419708, -0.032847848, 0.30071247, -0.18278658, -0.4929615, -0.030983157, 0.12947503, -0.10123554, 0.14236951, -0.23354664, -0.4893263, 0.084381126, 0.14916162, -0.09004054, 0.08319395, -0.2744591, -0.6123431, -0.06111066, 0.15167455, -0.0539202, 0.08174101, -0.2690825, -0.5361876, 0.04783735, 0.08853744, -0.09343202, 0.07865504, -0.3405561, -0.34196806, -0.049834345, 0.25421184, -0.1489753, 0.041154914, -0.3205931, -0.0014494598, -0.12890492, 0.07515007, -0.118508555, -0.01665952, -0.3508361, 0.2439757, -0.050576717, -0.15833777, -0.33208695, -0.09099495, -0.20221004, 0.24319479, 0.16247548, 0.026197769, -0.27574095, 0.022036595, -0.23272964, 0.3889312, 0.2937135, 0.16394864, -0.31108603, 0.12586117, -0.20017917, 0.37045577, 0.19850689, 0.20334555, -0.13428499, 0.144268, -0.06881096, 0.40092582, 0.13030002, 0.3136499, -0.14860205, 0.20353985, 0.08880819, 0.4877449, -0.0055840365, 0.26728523, -0.02588802, 0.1490508, 0.3289119, 0.58294606, -0.22629254, 0.35685098, 0.14911278, 0.23656245, 1.2752485, 0.17848934, -0.05465427, 0.48905224, 0.08382635, 0.16132875, 0.98529553, 0.16221273, -0.18711323, 0.43314338, 0.022107238, 0.050356388, 0.7173236, 0.09996626, -0.13678962, 0.31117368, -0.06734243, 0.08394837, 0.40247628, 0.10398758, -0.09370507, 0.22206269, 0.03579909, 0.028898833, 0.17925473, 0.18711755, -0.022503722, 0.17903136, 0.008652567, -0.1649657, 0.05541072, 0.14230932, -0.047327965, 0.15389004, 0.052880954, -0.1655528, -0.04708559, 0.27306885, -0.061470248, 0.18110149, 0.14292656, -0.11601948, -0.13068926, 0.33761132, -0.052067067, 0.14851186, 0.23712048, -0.036737166, -0.17265353, 0.4568999, 0.014465542, 0.11473749, 0.10368398, -0.022925986, -0.08972304, 0.4918307, 0.06026255, 0.124569334, 0.1176636, 0.06490436, 0.023619113, 0.34330684, -0.09623703, 0.20442371, 0.007091894, 0.10759745, 0.041695904, 0.24096864, -0.10609732, 0.15144423, -0.019027915, 0.05137722, 0.057223674, 0.16366011, -0.077944, -0.03937081, 0.013979182, 0.11925583, 0.19026126, 0.27293122, -0.1282896, 0.03916765, -0.095078014, 0.08025624, 0.2743408, 0.27282003, -0.20629267, 0.15102012, -0.11348302, -0.08018545, -0.12616259, -0.47559232, -0.25343952, 0.43446085, 0.02940011, 0.00076597993, 0.021957528, -0.20260887, -0.27079806, -0.21792634, -0.26218095, -0.059145637, 0.10025462, -0.18532524, 0.029067893, -0.61967164, -0.15241091, 0.03922007, 0.20928301, -0.1948617, 0.17273997, -0.55263126, 0.05365221, 0.06350767, 0.25333515, -0.09611453, 0.12196126, -0.3029409, 0.15617977, 0.22822185, 0.23611218, -0.13593617, 0.060343217, -0.18953316, 0.27310398, 0.19217367, 0.30415988, -0.17034426, -0.10910731, -0.12000823, 0.27955496, 0.14801644, 0.3352584, -0.18633738, 0.026168087, -0.07483025, 0.20107496, 0.2550141, 0.2898312, -0.28830877, -0.07236201, -0.09029469, 0.1703743, 0.10231789, 0.3158081, -0.28964126, -0.0073814974, -0.11322188, 0.04724369, 0.07819228, 0.31986263, -0.32810238, 0.00815204, -0.11739649, -0.0071852654, 0.0904942, 0.37350917, -0.4511839, -0.09774244, -0.050010253, 0.1306753, 0.19067264, 0.33378753, -0.48757234, -0.09036885, -0.13672647, 0.114224784, 0.051329974, 0.3916678, -0.5133168, 0.023128388, -0.32406756, 0.19541648, 0.036970336, 0.38351408, -0.49409738, -0.13618504, -0.22383627, 0.25959846, 0.119655505, 0.065266065, -0.4994269, 0.43343303, -0.44798383, -0.051354177, 0.095731296, 0.11677655, -0.48429742, 0.41177592, -0.21129614, 0.07091095, 0.15236118, 0.018627137, -0.37930772, 0.0078107817, -0.1080949, 0.10027233, 0.11404184, 0.14298601, -0.41998863, -0.0011606154, 0.01650918, 0.2292267, 0.19083363, 0.16129293, -0.29797223, -0.14672343, -0.070167325, 0.330078, 0.010959296, 0.016107231, -0.37027174, -0.17387971, -0.008446342, 0.22338505, 0.10925401, 0.02570971, -0.17979728, 0.025192609, -0.1327833, 0.15037578, -0.008566837, -0.024667054, -0.24945922, 0.105996475, -0.1789116, 0.25610927, 0.07188188, -0.10165864, -0.25325453, 0.09789452, -0.09358012, 0.2263936, -0.005272344, -0.18972242, -0.19941941, 0.20773001, -0.05348089, 0.16677944, -0.03249514, -0.17710061, -0.15585342, 0.18211988, 0.09719413, 0.1642036, 0.02069616, -0.17001781, -0.07963572, 0.3524589, 0.17383389, 0.124327086, 0.03975994, -0.18851012, 0.065752596, 0.24875633, 0.12534408, -0.0410767, 0.017341305, -0.19503668, 0.049517374, 0.17532547, 0.17734449, -0.31888196, 0.098137215, -0.1079543, 0.30282736, 0.22789177, 0.31083533, -0.29405382, 0.10661064, -0.14607593, -0.3561731, -0.29353067, 0.67737603, -0.060769197, 0.15826194, -0.2830038, -0.2982594, -0.096380986, 0.5446923, 0.08746456, 0.043635964, -0.13445053, -0.10016616, -0.19387715, -0.02039608, 0.00014621642, -0.033366792, -0.11900354, -0.2674044, -0.09505316, -0.073657334, 0.08594661, -0.019183692, 0.012442416, -0.25548765, -0.08382168, 0.10883898, 0.13868004, -0.04485073, 0.09363711, -0.38922286, 0.0016249247, 0.03283902, -0.15429242, -0.11807971, 0.1328808, -0.29574758, -0.14013436, -0.2856465, -0.21688406, -0.16130407, 0.058462936, 0.007498265, 0.02963449, -0.34045663, -0.01732157, -0.039003402, 0.1035664, 0.18349093, 0.0323018, 0.00077472895, 0.22672041, -0.14317061, 0.13651489, 0.28091416, 0.15380324, 0.17168051, 0.120021276, -0.1762912, 0.18127267, 0.45249587, 0.21905641, 0.012584766, -0.021525996, -0.17286979, 0.16859777, 0.5265524, 0.17336906, -0.14550355, -0.08510743, -0.06292964, 0.2198867, 0.575162, 0.19655211, -0.21233378, 0.066248655, -0.050709408, 0.32948613, 0.49812862, 0.23019171, -0.06298383, -0.044301093, -0.06510674, 0.44741657, 0.4114858, 0.3309918, -0.09073422, 0.03185683, -0.18814826, 0.11836495, 0.01442123, 0.059069786, -0.07371744, -0.2889836, -0.15236473, 0.16536896, -0.037578613, 0.07380561, 0.0057733487, -0.18487953, -0.05006293, 0.24105339, 0.014867134, 0.12418122, 0.06539018, -0.06424021, -0.14685628, 0.3863585, 0.0778901, 0.10736968, 0.11876486, 0.1386955, -0.20794101, 0.46508622, 0.1913328, -0.13115343, -0.09005366, 0.2557717, -0.28457236, 0.43128887, 0.45103467, -0.21766785, -0.42208877, 0.17485246, -0.23965345, 0.30021292, 0.3828776, -0.32367876, -0.42303413, 0.07237153, -0.3113583, 0.16687298, 0.3310558, -0.21378124, -0.11646538, -0.01809476, -0.22028193, 0.0547219, 0.35693267, -0.22098035, 0.096203, -0.031625293, -0.14632484, 0.05724977, 0.2777451, -0.054947812, 0.24152231, -0.10694051, -0.16599816, -0.05068226, 0.29037693, -0.03467096, 0.3287114, -0.09249907, -0.15717119, -0.042314958, 0.25590658, -0.0004171359, 0.19825266, -0.15028897, -0.13779339, -0.100814685, 0.08713357, -0.017086843, 0.12577732, -0.10366189, 0.006929011, -0.10039443, 0.09960038, -0.066208094, 0.062870696, 0.00092785584, -0.034757677, -0.1209376, -0.059033215, -0.13129117, 0.12769665, 0.09727321, 0.93057793, 1.1135056, 1.0656781, -0.20502642, -0.07528755, 0.42380905, 0.82582355, 0.89184797, 1.0717142, 0.012076808, 0.0597854, 0.23854493, 0.55359674, 0.68659073, 1.1812748, -0.10399673, 0.021814333, 0.27106547, 0.39514393, 0.49597043, 1.1468, -0.048469156, -0.11873063, 0.23898488, 0.35836816, 0.36846742, 1.010971, -0.050462216, -0.25951675, 0.2554467, 0.32524922, 0.11907499, 0.8363732, 0.08219769, -0.2503634, 0.2911071, 0.3249045, 0.057242803, 0.6195252, 0.16679145, -0.24141672, -0.18557426, 0.35502857, 0.12552136, 0.33111072, 0.1716674, -0.21227224, -0.05625815, 0.296301, 0.08278391, 0.08307231, 0.08764315, -0.24789974, 0.04256089, 0.2069553, -0.014960409, -0.07102297, -0.018347384, -0.038097333, 0.025036318, 0.124863885, -0.12431712, -0.25776374, 0.10021454, 0.065996975, 0.07526298, 0.09071796, -0.046362404, -0.32047626, 0.05897505, 0.057673495, 0.14903265, -0.020600902, -0.11809414, -0.29034245, -0.0031052555, 0.038130887, 0.11558119, -0.08467691, -0.052311137, -0.40861043, -0.1484629, 0.14145249, 0.3186182, 0.026481664, -0.07923989, -0.37353015, -0.0308855, 0.14761703, 0.35947645, 0.37437844, -0.5514173, 0.27060094, -0.20383954, 0.16027164, 0.4031959, 0.349423, -0.6954588, 0.29599914, -0.15593554, 0.21935762, 0.23158924, 0.25316897, -0.6291303, 0.28214407, -0.19491765, -0.053156152, 0.06988441, 0.16078663, -0.48503584, 0.082482316, -0.18511136, -0.044380438, 0.10689106, 0.089833915, -0.43800357, -0.117041, -0.06534123, 0.08568267, -0.10160747, 0.09297758, -0.34070808, -0.33333182, -0.17239189, -0.18849799, -0.0061342525, 0.072957195, -0.27089813, -0.3828957, -0.18491697, -0.3610717, 0.09802728, -0.07006707, -0.18795668, -0.3547433, -0.104999244, -0.25545362, 0.29544678, -0.06566462, -0.15134056, -0.24876058, -0.1748741, 0.0974231, 0.094173424, -0.16530274, -0.115235575, -0.030108888, 0.0040358263, 0.33222497, 0.013837239, -0.23066196, -0.056739192, 0.1619079, 0.035588622, 0.19457212, -0.046031836, -0.27463603, 0.12112542, 0.2983566, 0.0018680709, 0.097198255, -0.15610117, -0.16991924, 0.0761298, 0.46123868, 0.0170335, 0.000590509, -0.11897288, -0.19266495, 0.119709805, 0.51003265, 0.13829541, 0.17718805, -0.0856963, -0.26855198, 0.22540729, 0.56656474, 0.17819746, 0.14143632, -0.11354522, 0.41234583, 0.43285707, 0.028770717, -0.055890325, -0.111418724, 0.107895985, 0.36100107, 0.29119202, -0.044529673, -0.023214204, -0.10839269, 0.04556121, 0.32500994, 0.29441512, -0.05296713, 0.011276463, -0.0063874647, -0.020004371, 0.2624146, 0.19317769, 0.011060702, 0.12769282, 0.05642179, -0.07835884, 0.29069698, 0.18905082, -0.0488775, -0.12454779, -0.079295956, -0.087045595, 0.2325701, 0.037830412, -0.0041332636, -0.11796626, 0.116091944, 0.0030716406, 0.0514243, -0.003294682, -0.18665053, -0.016472993, 0.23157148, -0.202812, -0.026193116, -0.08201541, -0.23492059, 0.22791769, 0.10174809, -0.3592733, 0.034523245, -0.1557065, -0.39061293, 0.037545513, -0.013251067, -0.24441002, -0.06436883, -0.27000296, -0.48307976, -0.02445473, 0.11098916, -0.075238004, -0.061782945, -0.21964969, -0.579381, 0.0723019, 0.110307634, -0.10603904, -0.09959937, -0.2198854, -0.5162501, -0.078199744, 0.16884182, 0.09599517, -0.22276942, -0.21052058, -0.39073068, -0.518411, 0.20297182, -0.0059063914, -0.3012803, -0.16079547, 0.16654646, -0.007308385, -0.4623365, -0.48747218, -0.15034162, -0.17007329, -0.09908311, 0.5266956, 0.037755024, -0.4294778, 0.09540018, 0.067771256, -0.1454962, 0.33023363, 0.06297521, 0.16859126, 0.11696647, 0.15397407, -0.09470855, 0.27505806, 0.07605666, 0.16990334, 0.07447816, 0.23234624, -0.05276378, 0.27290204, 0.042122334, 0.074221924, 0.04707403, 0.18015523, 0.09561996, 0.17582068, 0.013559397, -0.045608193, -0.10533932, 0.19830579, 0.3377589, 0.04392283, -0.12045446, -0.05741472, -0.022648277, 0.24929191, 0.31248978, -0.1392609, -0.14299224, -0.08095837, -0.057827823, 0.19820653, 0.20382173, -0.04776957, -0.1358439, -0.060288507, -0.15869279, 0.14394017, 0.15512572, 0.04882192, -0.26349273, 0.016427461, -0.08520265, 0.059962783, 0.22565824, 0.1289847, -0.077941515, 0.011678928, -0.12434055, 0.2084655, 0.20055941, 0.21307395, -0.03540552, 0.15794548, -0.12723479, 0.27974236, 0.12729967, 0.111664526, 0.017914994, 0.14172006, -0.16331002, 0.27158847, 0.16340871, 0.07441117, -0.067167364, 0.21805756, -0.20223303, 0.35519552, 0.20138039, -0.16742025, -0.06498652, 0.22132333, -0.20273438, 0.2948929, 0.20982648, -0.110240705, -0.13396738, 0.15421297, -0.23337704, 0.11587255, 0.36384785, -0.28220788, -0.23490457, 0.09044831, 0.20249337, -0.03603734, -0.024361249, 0.19329482, -0.09510865, -0.4329584, 0.26419386, -0.0035994863, -0.041543428, 0.061253935, -0.030500174, -0.37112504, 0.18536282, -0.04225852, -0.089120336, 0.058786612, -0.0018680734, -0.30996457, 0.27444464, -0.006099839, -0.10851899, 0.033356648, 0.024685582, -0.1695736, 0.1924591, 0.11666854, 0.02881865, 0.054210532, 0.011192761, -0.0939978, 0.2114878, -0.06304064, 0.13733561, -0.008148778, 0.025830604, 0.038480606, 0.011746134, -0.0669627, 0.26950574, -0.053309187, -0.014973939, 0.1453107, -0.04227891, -0.19703798, 0.5456277, -0.0994306, -0.21723081, -0.040870816, -0.05070727, -0.15881816, 0.68095, -0.09371382, -0.2842912, -0.1805254, 0.025293365, -0.17810789, 0.6325045, 0.0061650444, -0.12259524, -0.1979227, 0.055924732, -0.17251885, 0.6214479, 0.060373556, -0.032491256, -0.15699765, 0.043241885, -0.088768676, 0.6826132, 0.1654877, -0.02572729, -0.039869778, 0.07071377, -0.12243722, 0.65611976, 0.13996829, 0.13360876, -0.016577292, -0.024574932, 0.021281624, 0.6577552, 0.14783031, 0.17203397, 0.014808979, -0.036078013, 0.11460329, 0.6833154, -0.024888638, 0.26517865, 0.049332634, -0.01811287, 0.052319877, 0.04001446, 0.17582034, -0.08456749, -0.27486795, -0.04930221, -0.021411063, -0.010179397, 0.057978284, -0.067890875, -0.16640253, -0.01593815, 0.08510014, -0.023583025, -0.033225514, -0.045328904, -0.08102259, 0.023098597, 0.22885238, -0.06585594, 0.05041532, -0.1199056, -0.068439975, -0.05734761, 0.2710523, -0.052159194, 0.006125517, -0.013405182, -0.015399638, -0.13952723, 0.23061784, 0.08627438, 0.10275192, -0.018757634, 0.09629221, -0.17848524, 0.28455976, 0.16211489, -0.0133301215, -0.11881445, 0.11777524, -0.2714681, 0.30177617, 0.21275268, -0.057300456, -0.05211131, 0.1277322, -0.2884676, 0.18897942, 0.49540868, -0.21595235, -0.11605061, 0.16738252, -0.2745815, 0.26750687, 0.5390271, -0.2649197, -0.25102416, -0.012339329, -0.27407116, 0.16005585, 0.40598592, -0.28771493, -0.04631819, -0.105267994, -0.20174825, 0.21126762, 0.3388018, -0.21274236, 0.24559173, -0.048851933, -0.24724074, 0.1786539, 0.26015553, -0.1899358, 0.30275506, -0.00046396937, -0.21386741, 0.051362894, 0.21366021, -0.08944299, 0.22222696, -0.068984896, -0.18621704, 0.13911699, 0.07325552, -0.023403598, 0.22126171, -0.016353238, 0.29728788, 0.08581956, -0.4000331, 0.07515404, 0.023879148, 0.13954689, 0.35342044, -0.05718897, -0.42385873, 0.17820501, -0.0007057748, 0.05873492, 0.41909945, -0.23767862, -0.38208058, 0.22331831, 0.071090855, 0.08623262, 0.42786658, -0.1704195, -0.2233728, 0.20074119, 0.09547891, -0.120047696, 0.36381558, -0.28912577, -0.22712308, 0.19652931, 0.12842335, -0.21076328, 0.40442863, -0.3428028, -0.12527533, 0.23673351, 0.009875754, -0.011471437, 0.5124564, -0.373695, -0.035113946, 0.08237075, -0.024864644, 0.0029907667, 0.5292953, -0.38476905, 0.0029311606, -0.0056313174, 0.02347045, 0.098090105, 0.4729773, -0.42697495, 0.13756526, -0.020333845, -0.013837433, 0.03469668, 0.4830809, -0.41051292, 0.14517082, 0.04470327, -0.010305465, -0.0019082535, 0.41751444, -0.5589825, 0.11586642, 0.10796514, -0.049817376, 0.06893433, 0.3998565, -0.5355134, 0.295524, 0.34910128, -0.018410109, 0.1490799, 0.28222355, -0.6173666, 0.3555553, -0.023351349, -0.018861758, 0.120014004, 0.3241446, -0.60823965, 0.23209408, -0.014920498, -0.0018088678, 0.09877716, 0.2198974, -0.67660904, 0.12403661, -0.14440562, -0.063337654, -0.14815235, 0.039032217, 0.82123286, -0.07711651, 0.36457697, -0.4166491, 0.20204769, 0.056401197, 0.59830433, 0.014218146, 0.14971808, -0.4288173, 0.013236846, -0.042171195, 0.534089, 0.08503498, 0.13449061, -0.17105567, -0.113969974, -0.07923145, 0.3223569, 0.0053784177, 0.14586477, -0.060130384, -0.09944457, -0.16940674, 0.20731023, 0.009113645, 0.3484574, -0.054184355, -0.250272, -0.18935739, 0.16033939, 0.04883075, 0.3416334, 0.029517464, -0.16081554, -0.113940515, 0.21038213, 0.08031351, 0.360418, 0.30914864, -0.25680986, -0.1113908, 0.0034126658, 0.15201059, 0.25001502, 0.12939852, -0.19093291, -0.065944396, -0.06656576, 0.25157562, 0.24119847, 0.07985799, -0.07671768, -0.090989605, -0.037654426, 0.16647337, 0.13220344, 0.101024866, -0.0017913436, -0.035757925, -0.13484214, 0.15069531, 0.16351342, 0.08265018, -0.11590297, 0.055009194, -0.23193589, 0.17735764, 0.064282276, 0.03396827, -0.12319172, 0.07783507, -0.15946436, 0.12601738, 0.13909858, -0.006168629, 0.12627421, 0.2529175, -0.28585538, 0.067615055, 0.009109289, 0.14283074, 0.4066724, 0.19146259, -0.3625402, -0.056803674, 0.030906113, 0.19021654, 0.49327645, 0.11931865, 0.8122733, 0.92300946, 0.021506539, -0.06306509, -0.33971617, 0.14981356, 0.6992622, 0.77533466, -0.039907668, 0.004765421, -0.31224862, 0.20421433, 0.6597846, 0.6469419, 0.074981645, 0.14663881, -0.14803784, 0.29524872, 0.6540324, 0.4541343, -0.061828263, 0.24171534, -0.10070898, 0.3630428, 0.4888464, 0.36417466, 0.03945102, 0.37476608, -0.14312154, 0.38352907, 0.47426957, 0.26537076, -0.13992909, 0.22063138, -0.13589291, 0.42112303, 0.4281237, 0.17755665, -0.14287302, 0.0003672032, -0.12597603, 0.28380448, 0.33002582, -0.0032059958, -0.10043204, -0.023364529, -0.050163843, 0.2399521, 0.26632348, -0.061917577, -0.20800504, 0.055850577, -0.103797786, 0.28413683, 0.22015332, -0.16838306, -0.16519241, -0.0044782753, -0.044600345, 0.2091153, 0.048980273, -0.21052651, -0.23267795, 0.22244231, 0.053855248, 0.21432903, -0.035840705, -0.33995962, -0.14940377, 0.24457003, 0.047330897, 0.12275105, -0.08983111, -0.47840467, -0.19794647, -0.019951336, -0.011484312, 0.019925792, -0.18514562, -0.39981064, -0.13726754, 0.01042105, -0.0053938217, -0.044367425, -0.13225277, -0.40363392, -0.30060136, 0.5205185, -0.20909107, -0.21855077, -0.48548734, -0.6048893, -0.073027715, 0.20203856, 0.19198786, -0.24536927, -0.40231296, -0.6513021, 0.14494367, 0.23868062, 0.14947574, -0.27682716, -0.33458877, -0.57207215, -0.2111119, 0.023394205, -0.057404276, -0.13796328, -0.34090453, -0.46691415, -0.12075768, 0.010621231, -0.11356969, -0.2760352, -0.30013996, -0.2188926, -0.07814224, -0.71825045, -0.27534735, -0.15464482, -0.23010151, -0.120190606, 0.061181124, -0.5196716, -0.06015767, -0.05392738, -0.10601656, 0.037496418, 0.096804015, 0.06896099, 0.024013566, -0.00151524, -0.04021115, 0.19342083, 0.10566322, -0.013115273, 0.054475665, 0.014868113, -0.0045673274, 0.19714877, 0.053190824, 0.032355037, 0.085268505, 0.10310788, 0.20984341, 0.14253528, 0.10385078, 0.06905522, 0.102754936, 0.107287265, 0.3065604, 0.21915147, -0.017672915, 0.16280808, 0.15350027, 0.25862384, 0.31023353, 0.20861296, 0.0670744, 0.15494753, -0.033815436, 0.26302412, 0.43528298, 0.33821222, -0.015548936, 0.17320785, 0.11614051, 0.19363791, 0.42931452, 0.32223216, -0.018311482, -0.17546336, -0.020943327, 0.3281579, 0.52004945, 0.13274659, 0.08852449, -0.009590294, -0.06435134, -0.5415883, 0.59913003, 0.53436166, 0.31842044, 0.6160327, 0.15290144, -0.39970556, 0.5143368, 0.5180041, 0.43106374, 0.21965063, -0.0067932615, -0.20332083, 0.6220004, 0.31036502, 0.15667252, -0.10520182, -0.42573172, -0.16917343, 0.84839773, 0.22835508, 0.09881103, -0.27706432, -0.32315496, 0.022861268, 1.0418326, 0.16807243, -0.09744298, -0.21919107, -0.25551596, 0.15344597, 0.9530213, 0.34850293, -0.19576025, -0.151977, -0.29300836, 0.24015203, 0.8713759, 0.34985507, 0.06363671, -0.0027381973, -0.30749357, 0.24287608, 0.59264094, 0.28620017, -0.08328103, -0.03956216, -0.20388605, 0.2911229, 0.4685634, 0.25226346, -0.11008627, 0.0013868536, 0.1848805, 0.3816809, 0.30692485, 0.20191573, -0.0509674, 0.027139662, 0.26423484, 0.457564, 0.18503132, -0.008217827, -0.0076282765, -0.0010501961, 0.18371145, 0.44447148, 0.094302386, -0.12754017, -0.070211954, -0.15386193, -0.02180303, 0.3847003, -0.0037080806, -0.27329904, -0.123462446, -0.08691482, -0.06933053, 0.33487335, -0.14361858, -0.51340854, -0.39228323, 0.15227488, 0.19042799, 0.31042096, -0.37107342, -0.6334457, -0.31310877, 0.2543354, -0.06299887, 0.03378085, -0.083967, -0.0029945977, 0.12302124, 0.10362574, -0.19582725, 0.068192564, -0.014625912, 0.051393285, 0.028680753, 0.074923374, -0.118502334, 0.14442179, -0.06343723, -0.010169795, -0.11117172, 0.18454286, -0.019308018, 0.16779837, 0.052302606, 0.034884322, -0.01260876, 0.2086813, 0.028638965, 0.10348585, -0.012902335, -0.028153557, 0.023060424, 0.21205288, 0.08331373, 0.055123933, -0.02171282, -0.076786034, 0.26899317, 0.23830123, 0.13740107, 0.011499599, -0.02716067, -0.027303934, 0.2885192, 0.16030478, 0.04033717, 0.08449753, 0.018841214, 0.042946775, 0.24962202, 0.035977885, 0.109217115, -0.02045756, -0.07740527, 0.017095758, 0.12546262, 0.013667783, 0.12278974, -0.040822126, 0.018846102, 0.15951037, 0.17592551, -0.02531095, 0.20492356, -0.12531324, 0.045985363, 0.106051095, -0.006075907, 0.019941354, 0.23222232, -0.0071042324, 0.008855895, -0.02595718, 0.03723062, -0.030347534, 0.23316038, -0.08117655, -0.010235154, 0.043472335, -0.016087336, -0.0034554137, 0.16506144, -0.20572662, -0.014683047, -0.08729487, 0.011289017, -0.07869674, 0.14090246, -0.1278307, -0.0002693323, -0.061414387, -0.03602977, -0.0544228, 0.16437028, -0.7185103, 0.38799825, 0.52216566, -0.2785889, -0.09866819, -0.42383775, -0.49543682, 0.3224758, 0.65747374, -0.18090932, -0.2345262, -0.59487283, -0.4340943, 0.26913455, 0.74037725, -0.018330388, 0.52100223, -0.29819772, -0.32854062, 0.16483703, 0.63125163, 0.020519929, 0.32982793, -0.1972696, -0.20473875, 0.20275167, 0.6010631, 0.05768069, 0.15835057, 0.0093323635, -0.06176695, 0.051950112, 0.5305135, 0.07574681, 0.09609948, -0.020761533, -0.009832331, 0.0803898, 0.44769016, 0.17170146, 0.14562187, -0.13285767, 0.0751202, 0.110191755, 0.50032705, 0.092029065, 0.31147677, -0.17740305, 0.09509657, 0.10987839, 0.5028275, 0.019111311, 0.250949, -0.35918236, 0.058136918, 0.1844666, 0.4442821, -0.06087751, 0.21105063, -0.29828438, -0.011240222, 0.16629446, 0.35176677, -0.061701603, 0.10210808, -0.22712094, 0.084967114, 0.018857822, 0.20588145, -0.06682622, 0.17334382, -0.1680838, -0.04120807, 0.08284446, 0.20813736, 0.028534826, 0.137899, -0.23184758, -0.0975158, -0.016499618, 0.071071625, 0.10186839, 0.12653144, -0.22319008, -0.21855243, -0.11495742, 0.002409348, 0.13440567, 0.09559861, -0.14735688, 0.19842298, 0.6663945, 0.7385888, 0.3884413, -0.13926, 0.22699037, 0.16268246, 0.6223261, 0.78613085, 0.267733, -0.018337721, 0.13960241, 0.066261485, 0.53353477, 0.6312662, 0.18043433, -0.15386748, 0.17620784, -0.026039254, 0.416723, 0.71017396, 0.02093437, -0.085574426, 0.16885577, 0.025743557, 0.26443937, 0.55464244, 0.05099088, -0.17516264, 0.045033526, -0.0051508527, 0.05309789, 0.43218973, 0.08913613, -0.16039081, 0.09424094, 0.07935839, 0.06359587, 0.3502149, 0.130879, -0.12764294, 0.08164867, 0.015486822, -0.02196233, 0.36470225, 0.079297096, -0.09962267, 0.18929219, 0.05349494, -0.13797167, 0.20917608, 0.03183896, -0.06710543, 0.1532686, 0.02482316, -0.17714864, 0.051846597, -0.052130435, 0.03010338, 0.11460159, 0.106125735, -0.1236653, -0.036251765, -0.0931337, 0.03684127, 0.16702293, 0.074909426, -0.2079986, -0.12975162, -0.10764742, 0.09182757, 0.15965256, 0.008720703, -0.21066198, -0.17636663, -0.15251225, -0.036653575, -0.15298173, -0.006785845, -0.29702967, -0.18322937, -0.16810374, 0.06750022, -0.29481968, -0.029339194, -0.23408167, -0.35189617, -0.263456, 0.45416212, -0.256208, -0.15239473, -0.15103252, 0.122046135, 0.032234922, -0.15874809, -0.04431085, -0.123019755, -0.19056581, 0.041967597, -0.06364709, -0.092910185, -0.016133422, -0.016537454, -0.10581346, -0.016026083, -0.03695662, -0.05478551, -0.051358048, 0.0025580465, -0.17965125, 0.026058821, -0.22771415, -0.073389344, 0.11081891, -0.05694121, -0.010245961, -0.054202825, -0.16891167, -0.035002626, 0.1775559, 0.018377973, -0.090384595, -0.10672438, -0.100301094, 0.12289167, 0.2926073, 0.012747085, 0.05671759, -0.18378124, 0.0022402473, 0.21478769, 0.35014966, -0.021282664, 0.024053566, -0.22306198, -0.042955674, 0.18688644, 0.33264616, 0.018073367, 0.007240713, -0.24949272, 0.021429645, 0.123793535, 0.3569195, 0.033275887, -0.11869683, -0.29036522, 0.0024477453, -0.032407876, 0.34038413, -0.022087019, -0.12033888, -0.19009537, 0.03176706, -0.20844324, 0.32667765, -0.02508133, -0.087192535, -0.23822899, -0.0803381, -0.20469154, 0.18976153, 0.07201383, -0.06788281, -0.29280305, 0.000644049, -0.18556, 0.19848986, 0.04242606, -0.112484165, -0.3149091, 0.24166316, -0.30019283, 0.027577445, 0.041993316, -0.14725496, -0.23391353, 0.23634775, -0.5295368, 0.03597829, 0.1373592, -0.13582708, -0.6319087, -0.3156533, 0.33082286, -0.31668663, 0.035764836, -0.11663991, -0.59440815, -0.21212848, 0.2219779, -0.25924385, -0.09046321, 0.002169101, -0.6057895, -0.19360591, 0.25896373, -0.14738043, -0.03695525, 0.066775866, -0.39355853, -0.12309849, -0.015262368, -0.11635164, -0.10888743, 0.26737285, -0.2928127, -0.23128365, 0.13407634, 0.052971702, -0.1097693, 0.33660686, -0.2468757, -0.07626437, 0.06563654, 0.06003149, -0.21466395, 0.34934714, 0.026495814, -0.22407095, -0.20854943, -0.082535446, -0.13105634, 0.3653468, 0.14939508, -0.15009673, -0.06903476, -0.052631974, -0.09760498, 0.3818866, 0.27347422, -0.054006726, -0.15117657, 0.15747763, -0.17736606, 0.3271882, 0.34731016, 0.05899262, 0.059862867, 0.26229772, -0.17778853, 0.32369095, 0.34140232, -0.030393317, -0.030894155, 0.19301999, -0.123536624, 0.2643081, 0.49184293, -0.11104297, -0.25295272, -0.04445326, -0.14649406, 0.22866747, 0.42467833, -0.057669047, -0.24480852, -0.3082331, 0.014548428, 0.12032812, 0.35891813, 0.068531714, 0.02507454, -0.09005095, -0.06448453, 0.07993659, 0.27984673, 0.33137837, 0.1907346, -0.21989746, 0.07029514, -0.40952516, -0.07854733, 0.13708526, 0.39575326, 0.11186672, 0.0010232999, -0.31351337, -0.0968373, 0.13741912, 0.25306636, 0.022624604, 0.013783978, -0.26377225, -0.08927808, 0.18983367, 0.08666578, 0.021789297, 0.021030288, -0.19170535, -0.10475037, 0.2305249, -0.11586629, 0.06757699, -0.12540226, -0.044540826, -0.10742575, 0.16552477, -0.06493558, 0.046093002, -0.09339454, 0.0239566, -0.13257225, 0.18117908, -0.09036296, 0.08481303, -0.10812154, 0.17907092, -0.0484122, 0.10638585, -0.03874911, 0.052241724, -0.06921752, 0.38197243, -0.009343633, 0.06068393, -0.015944242, 0.07457834, -0.031995866, 0.37763903, -0.06732687, 0.10829727, -0.0054509314, -0.040574536, -0.04685395, 0.37417427, -0.04595222, 0.11055343, 0.011746413, -0.028871024, -0.12719291, 0.45945543, -0.06551249, 0.113054, -0.08062771, -0.1126386, -0.10044958, 0.4836711, -0.039318956, 0.09146421, -0.26586956, -0.12458066, -0.2043702, 0.46710828, 0.0399551, 0.07395807, -0.2290202, -0.076157026, -0.2705539, 0.40825057, -0.028924849, 0.036481213, -0.12590064, -0.12503588, -0.26803255, 0.5138534, -0.20419051, 0.06255497, 0.055713028, -0.37663963, 0.019335588, 0.026300192, 0.22693421, 0.032007724, -0.12831914, 0.07854304, -0.09024395, -0.09235755, 0.16794795, -0.0301529, -0.15332448, 0.02062824, -0.09028314, -0.09962024, 0.045089345, -0.06557207, -0.11734942, -0.04515341, -0.11932917, -0.12604953, 0.053394184, -0.053589802, -0.04347587, -0.14312337, -0.13382049, -0.15822344, 0.05874318, -0.010592671, 0.03250994, -0.17608592, -0.12222935, -0.21209408, -0.060251772, 0.015001987, 0.069577895, -0.15158646, -0.102495834, -0.27694884, -0.015581482, 0.045446575, -0.019046497, -0.050784767, 0.01504009, -0.1798215, -0.014954284, 0.13866197, -0.17661762, 0.03779846, -0.09707995, -0.14892565, 0.07447143, 0.12949876, -0.34212133, 0.19627756, 0.01336435, 0.0051630014, 0.07410979, 0.05437971, -0.35153982, 0.3598787, -0.06323487, -0.008680853, -0.1065385, -0.018175222, -0.2594383, 0.40662742, 0.02389417, -0.0059549455, -0.22192344, 0.0019286373, -0.2722239, 0.39215583, -0.047779083, 0.05870821, -0.37180224, -0.14513728, -0.26626948, 0.35405776, -0.102098666, 0.05746946, -0.4571779, -0.08765056, -0.23894398, 0.2030263, -0.12794013, -0.0050369883, -0.42067522, -0.09355882, -0.09605038, 0.23134436, -0.11152214, 0.062474683, 0.06310705, 8.162591e-05, -0.09333444, 0.036506325, -0.13180365, 0.0235231, 0.18856663, -0.02623264, 0.09882417, 0.05257396, -0.11989724, -0.06832048, 0.22915891, 0.005004657, 0.26804468, -0.05445392, -0.068802774, -0.10586738, 0.21641235, -0.02201889, 0.23866127, -0.06322738, -0.15864274, -0.08466367, 0.32338423, -0.031823322, 0.18075909, -0.25597107, -0.06331748, -0.08417931, 0.3174164, -0.061693914, 0.19509672, -0.19395766, -0.0054290546, -0.008590988, 0.2540947, -0.20161417, 0.07531907, -0.33608794, 0.014533998, 0.011385043, 0.09405521, -0.01592306, 0.020018943, -0.36278385, -0.0039489903, 0.08865496, -0.14062339, 0.011834031, -0.113048494, -0.25580093, 0.104041025, 0.23908001, -0.18010299, 0.010821646, -0.36339742, -0.12593423, 0.12591533, 0.20106028, -0.23199634, 0.010224648, -0.27880996, 0.045107536, 0.10683859, 0.12318581, -0.24001355, 0.012952754, -0.18420725, 0.042642187, 0.10733708, 0.20192048, -0.3458842, -0.026364462, -0.26308143, 0.10533613, -0.012663578, 0.14128354, -0.38584745, -0.089461595, -0.32563978, 0.23478155, 0.029502014, -0.054451913, -0.3908843, -0.042116318, -0.30700856, 0.21503215, 0.5781424, 0.78714395, -0.040378183, 0.08884365, -0.21797787, 0.6009367, 0.6619008, 0.63725865, 0.025761431, -0.034465916, -0.07930873, 0.3430793, 0.68255526, 0.522048, -0.06326305, -0.006134955, 0.13896911, 0.17170893, 0.8235309, 0.4131668, -0.03822277, -0.009149893, -0.007319202, 0.112574734, 0.78176177, 0.35634995, 0.020116422, 0.07490585, -0.029996555, 0.18292595, 0.87444067, 0.1735479, 0.027002048, 0.13149823, -0.043406308, -0.05412991, 0.8795224, 0.12609695, 0.05218772, 0.14163046, -0.028542189, 0.03440627, 0.9135751, -0.036620755, 0.09640272, 0.09613178, 0.053449214, 0.12966196, 0.8789764, -0.03652053, 0.07390356, 0.20268387, 0.072941765, 0.2231006, 0.70069057, -0.05592352, 0.12201502, 0.04579716, -0.12630895, 0.32091758, 0.5969952, -0.064331904, 0.060055573, -0.058312368, -0.35160512, 0.07932847, 0.55977035, -0.22370754, 0.08765322, -0.1077181, -0.34874535, 0.20475866, 0.4625215, -0.20483789, -0.011717442, -0.12631041, -0.39966813, 0.118750945, 0.2618538, -0.32400337, -0.12041623, 0.015560162, -0.4355964, 0.1618815, 0.17018847, -0.38701302, -0.12921533, -0.21223599, -0.3225649, 0.31523877, 0.038995508, 0.45694116, 0.9478562, 0.40409458, 0.54161227, 0.4856922, 0.24673983, 0.42812198, 0.83039236, 0.19500753, 0.4154499, 0.17502993, 0.39072314, 0.60412246, 0.6535366, 0.06612293, 0.1909671, -0.35376585, 0.51541895, 0.6665671, 0.40438676, 0.038042076, 0.016545631, -0.23832999, 0.54095834, 0.76106364, 0.28413847, -0.0800956, -0.022329228, -0.29789767, 0.49857512, 0.66590214, 0.15412866, 0.067613594, -0.22615483, -0.2763323, 0.56175876, 0.6397533, 0.06238634, 0.008064004, -0.18623742, -0.27988285, 0.5910462, 0.528323, 0.14339241, 0.107508704, -0.0062196204, -0.11647497, 0.653974, 0.34234068, 0.06584977, 0.1605781, 0.11640439, 0.19297329, 0.6563259, 0.143732, 0.13108155, 0.08820737, 0.054012887, 0.13583526, 0.64726067, -0.08522749, 0.021135151, 0.051657245, 0.050749898, 0.2005652, 0.5573071, -0.3464424, 0.013356746, 0.11124579, 0.043123536, 0.0707673, 0.548597, -0.4398962, 0.107454866, 0.064817436, 0.2100555, 0.102847785, 0.40655336, -0.4305479, 0.24274743, -0.046099566, 0.25886, 0.1679413, 0.2884259, -0.4141275, 0.39340407, -0.030068286, 0.3750347, 0.29109907, 0.20245568, -0.13819653, -0.22941889, 0.24032205, 0.18805292, -0.016789261, 0.23864663, 0.029290803, -0.28511825, 0.30628654, 0.3091952, 0.04154351, 0.25907323, 0.11837473, -0.25944683, 0.38356167, 0.27411783, 0.040058423, 0.1771265, 0.20881931, -0.08079948, 0.38726905, 0.21607915, 0.06912239, 0.06265561, 0.26363495, 0.0496036, 0.20960298, 0.010051123, 0.14156972, -0.0037578833, 0.3971463, 0.22101526, 0.05720504, 0.04326512, 0.2054797, -0.09797217, 0.4221045, 0.15743798, 0.034933012, 0.02440198, 0.21361478, -0.16962704, 0.31769738, 0.31684768, -0.098859705, -0.019226918, 0.14637372, -0.25453302, 0.38767076, 0.32243556, -0.038491257, -0.07824658, 0.013765425, -0.14807726, 0.27518624, 0.251752, -0.11476788, -0.02994546, -0.018041175, -0.20119087, 0.35416347, 0.27040225, -0.027383663, 0.1773917, -0.048965223, -0.22019123, 0.3527178, 0.21335061, -0.0508301, 0.2180636, 0.0073328917, -0.20152734, 0.18117045, 0.13153628, 0.025126768, 0.14113255, 0.08846265, -0.32626504, 0.1738703, 0.3440938, 0.08484289, -0.09415051, 0.12198516, -0.35422018, 0.06913594, 0.3848799, -0.07508719, -0.32810163, 0.19647598, 0.82458746, 0.29488403, 0.431251, -0.19053283, 0.11905938, -0.3514673, 0.81296474, 0.22661772, 0.416987, -0.33051595, 0.2697597, -0.22087948, 0.8808883, 0.20683615, 0.39162347, -0.36289656, 0.24639434, -0.06905724, 0.8895343, 0.24890985, 0.14568326, -0.37929022, 0.20201531, 0.029244274, 0.8596158, 0.034444775, 0.11936666, -0.3105154, 0.11728628, 0.02131776, 0.800013, -0.048966736, -0.0080251815, -0.24392644, 0.11059869, 0.036581226, 0.6858897, -0.08473499, -0.023310287, -0.05017014, 0.068472445, -0.12636258, 0.6160553, -0.12567161, -0.10160878, 0.27785626, -0.12209279, -0.09643924, 0.5249335, -0.26541713, -0.10529815, 0.15391625, -0.03437058, -0.09181884, 0.49485475, -0.24778318, -0.15748066, -0.03701147, -0.08178895, -0.1939465, 0.55044454, -0.39490977, -0.15538411, 0.091162525, 0.0814626, -0.1960968, 0.54943186, -0.44949886, -0.11281241, 0.06200839, -0.011494908, -0.14155501, 0.5233519, -0.40353197, -0.23589846, -0.0006972647, 0.044282217, -0.050370883, 0.47793195, -0.49303702, -0.21431607, -0.1206443, 0.1457983, 0.0122510465, 0.55158454, -0.6372402, -0.19110459, -0.26960757, 0.21656774, -0.017883712, -0.52063185, 1.1731151, -0.32865736, 0.2346062, -0.53149146, 0.23240502, -0.27657714, 1.0316072, -0.17817661, -0.074045174, -0.27744088, -0.050729297, -0.30967852, 0.8981489, 0.026225071, -0.038673908, 0.30515313, -0.1596784, -0.21675664, 0.720522, 0.22418445, -0.087634824, 0.07665664, -0.010499568, -0.077072546, 0.58898103, 0.35209003, 0.05235546, 0.029854793, -0.011705313, -0.1010799, 0.49351588, 0.51634765, 0.08994584, 0.33989713, -0.17928652, 0.14025961, 0.39817643, 0.52631044, 0.06651148, 0.11230313, -0.28374556, 0.1865979, 0.22285219, 0.45292845, 0.062494416, 0.30583876, -0.31402892, 0.2977181, 0.24552326, 0.40611845, 0.0119362995, 0.16585727, -0.2944498, 0.30308852, 0.36745512, 0.34478346, -0.09816451, 0.1034345, -0.2475505, 0.24702264, 0.25308132, 0.26768187, -0.09140267, 0.19245383, -0.24769917, 0.22449334, 0.21600053, 0.22318242, -0.041750293, 0.120806985, -0.116285525, 0.26761487, -0.05096477, 0.21760832, 0.05943975, -0.051664867, -0.17374499, 0.1654943, -0.22499518, 0.14778583, 0.19990674, -0.12976411, -0.17660458, 0.01740407, -0.41721714, 0.11329756, 0.21066082, -0.24167727, -0.09326611, 0.4128321, 0.2685181, 0.32592905, -0.30607873, 0.28183028, 0.073502295, 0.36519542, 0.1912426, 0.24448238, -0.17151223, 0.18050408, 0.06515211, 0.20904423, 0.11669136, 0.22652407, -0.15512423, 0.13584495, -0.023014922, 0.23084937, 0.09617949, 0.23956823, -0.07929487, 0.14921723, 0.1752957, 0.20310889, 0.05415618, 0.2867688, 0.1085073, 0.17672434, 0.2599749, 0.15667082, 0.0067992765, 0.13900597, 0.061887927, 0.040284555, 0.06156263, 0.04551874, 0.05833789, 0.14854679, 0.06629234, 0.038466018, -0.002454028, 0.05474047, 0.10166286, 0.12942801, -0.039941054, 0.1957758, -0.04065416, 0.028044391, 0.123666056, 0.03815219, 0.019628748, 0.058459178, 0.065251745, -0.034460172, 0.1329849, -0.056805834, -0.20205025, -0.17606372, 0.059718315, -0.08528468, 0.14260474, -0.03309295, -0.10695744, -0.065367624, 0.154185, -0.02646113, 0.057325535, -0.1247533, -0.08924235, 0.031675678, 0.18299828, -0.024145558, 0.08102627, 0.1009327, -0.025725065, -0.029115135, 0.12761435, 0.01972656, 0.21059544, 0.21121812, -0.12200603, -0.06961945, -0.24146804, -0.06983684, 0.16314659, 0.16716658, -0.18678415, -0.054977547, -0.1978532, 0.17711659, -0.12855652, -0.07406559, 0.39697582, 0.31311646, 0.11227859, 0.1600099, -0.074923344, -0.15632603, 0.29312888, 0.26556742, 0.12861851, 0.21804412, 0.021220755, -0.3007359, 0.23715898, 0.14606811, 0.09500466, 0.16929555, 0.1544676, -0.41895336, 0.24922033, 0.17017964, 0.043122847, 0.13120678, 0.06956701, -0.5572898, 0.11595961, -0.0076775914, -0.18281007, 0.19573358, 0.10630887, -0.5589994, 0.11393797, -0.071849935, -0.17141593, 0.1578293, 0.09365764, -0.6056364, 0.14467087, 0.03348708, -0.15718393, 0.19417804, 0.10298192, -0.5398052, 0.013195368, -0.035973106, -0.21284896, 0.1535488, 0.26128563, -0.46937376, -0.06323681, 0.09134431, -0.29283622, 0.14485273, 0.2785389, -0.3607008, -0.041218232, 0.07530849, -0.116336375, 0.1753173, 0.2036147, -0.24087101, 0.04051004, -0.07868581, -0.099743485, 0.3596322, 0.2996792, -0.11825562, 0.29677454, 0.090061635, -0.05778475, 0.37655866, 0.40189487, 0.05388448, 0.2803926, 0.018221261, -0.03281717, 0.5519488, 0.2810087, 0.15848345, 0.099052794, 0.035489447, -0.12696747, 0.5904382, 0.28580895, 0.22625703, 0.15634695, -0.02396924, 0.08921756, -0.070522904, 0.2463014, 0.7025604, 0.057385024, 0.10911013, 0.22965816, -0.15031053, 0.22712372, 0.65740746, -0.08024952, -0.051344927, 0.19715604, -0.1059264, 0.09909031, 0.55063695, 0.049598865, -0.1144495, 0.13774529, -0.040089466, -0.086723216, 0.4434718, -0.09265197, -0.018666642, 0.17594405, -0.0680367, -0.1620746, 0.24151705, -0.00020926978, 0.019557238, 0.20158783, -0.012750783, -0.3189459, 0.37012953, -0.095243976, 0.0028826413, 0.1686862, -0.013782506, -0.43974072, 0.40388596, -0.13943689, -0.3769227, -0.18916076, -0.029063618, -0.35703123, 0.15159796, -0.015213372, -0.24641916, -0.08249275, 0.008357709, -0.485848, -0.2121465, 0.08052977, -0.0073646926, 0.023593053, -0.0916819, -0.44388428, -0.32435274, 0.43024528, 0.23480956, -0.049495295, -0.023600275, -0.34656772, -0.36701325, 0.065760195, 0.19661766, -0.34703478, -0.052774325, -0.22323747, -0.26500195, -0.08520292, -0.1862063, -0.3499745, -0.0466846, -0.16956003, -0.20055279, -0.06912339, -0.14206804, -0.14433868, -0.03265448, -0.19296828, -0.09511353, 0.12781745, 0.005637793, -0.13491866, 0.15197971, -0.13888349, -0.082638465, 0.19584036, 0.0959143, -0.09515752, 0.35435903, -0.25153452, 0.22311635, -0.029376691, 0.18471095, -0.033785053, 0.19420049, -0.31288323, 0.30974486, -0.34967682, 0.17691359, 0.05703872, 0.120291375, -0.38697898, 0.36614466, -0.266483, -0.043755405, 0.012392171, -0.043620553, -0.42297447, 0.40020522, 0.09873447, -0.058982316, 0.056460984, -0.113441795, -0.43319413, 0.37314194, 0.032520097, -0.07603993, 0.03830782, -0.11820048, -0.29132408, 0.5716732, 0.011429396, 0.097515404, 0.13229825, -0.076882794, -0.38612783, 0.6470985, 0.065480776, 0.1395547, -0.13148928, -0.122693874, -0.25371307, 0.54779196, -0.0013906803, -0.08877416, -0.114413224, -0.013830826, -0.15753731, 0.45233685, 0.037229136, -0.124895185, -0.044979487, -0.09865718, -0.021174118, 0.27520132, -0.049958654, -0.16955796, 0.00859596, -0.07231318, -0.026551878, 0.27856746, 0.04445466, -0.16851407, 0.04782592, -0.025287738, 0.06777408, 0.13295776, -0.09247395, -0.14479262, 0.1066675, -0.08768668, -0.02514384, -0.0020778344, -0.17525558, -0.026293958, 0.0881331, -0.19260511, 0.006485531, -0.06909949, -0.14544673, -0.2407289, 0.08255859, -0.19082549, -0.091426715, -0.0699492, -0.30024388, -0.4167032, -0.032300435, 0.33741346, 0.5815886, 0.060818825, 0.22975399, 0.098198466, -0.18133758, 0.48228306, 0.5635805, 0.07710259, 0.12524459, 0.09357464, -0.12563048, 0.5397485, 0.67546207, 0.02475437, 0.1530655, 0.25158754, -0.12619482, 0.5346759, 0.7739628, -0.086564675, 0.08880755, 0.124362394, -0.11351316, 0.59769404, 0.8482226, -0.123605914, -0.019364117, 0.18565503, -0.098150894, 0.55916435, 0.76900375, -0.18600251, -0.0626389, 0.115569815, -0.14283097, 0.5968811, 0.7688545, -0.15915617, -0.11575558, 0.02833828, 0.013627486, 0.48640212, 0.8127012, -0.11751756, -0.09803565, 0.056993, -0.055768758, 0.36530098, 0.85129005, -0.2409511, -0.054320008, 0.07962763, 0.19465703, 0.2783188, 0.73559386, -0.18487662, -0.16432014, -0.11388731, 0.21468458, 0.12719625, 0.54840755, -0.053161338, -0.17084295, 0.08955889, 0.24067663, 0.035150174, 0.3689102, 0.11886356, 0.04836623, 0.29285902, 0.22788775, -0.21190909, 0.3995517, 0.31009704, 0.25067586, 0.29192817, -0.006225261, -0.14478311, 0.365268, 0.49588764, 0.18919174, -0.0034126418, -0.06708778, -0.21985093, 0.53264725, 0.81100816, 0.028612861, -0.21665238, -0.022731155, 0.259488, 0.7735328, -0.3365232, -0.07162726, -0.33712518, 0.23925956, 0.25414985, 0.61805886, -0.34358725, 0.06085689, -0.33062756, -0.002513772, 0.20262049, 0.52471626, -0.20679925, 0.09190403, -0.45873603, -0.15615891, 0.24404271, 0.48738375, -0.16784155, -0.11148798, -0.23649964, -0.17207192, 0.16834487, 0.18222016, -0.2260959, -0.09001583, 0.5044097, 0.06556809, 0.20056313, 0.0500694, -0.1380638, -0.1083224, 0.55735546, 0.09396055, 0.02069735, 0.046556275, -0.09699177, -0.0144635355, 0.12393511, 0.04862989, 0.07577648, -0.091246665, -0.13894431, 0.08707049, -0.06827281, -0.06060762, 0.017127756, -0.045438137, -0.12689723, 0.07082003, 0.100220665, -0.0071820472, -0.04654216, -0.10887468, -0.15767215, 0.04492485, 0.09258537, 0.13527162, -0.2031275, -0.16457999, -0.09390162, 0.03848619, 0.27305305, 0.167068, -0.19265792, -0.15375239, -0.13939427, 0.01995024, 0.22055726, 0.134765, -0.24345309, -0.32625836, -0.06266543, 0.0905355, 0.11922172, -0.2691335, -0.23576902, -0.32379752, 0.02127369, 0.24871089, 0.23318778, -0.30488855, -0.20616893, -0.50677776, 0.08624945, 0.24214476, 0.2366304, -0.45667443, -0.52058625, -0.46265683, 1.8749874, -0.05105574, -0.1389915, -0.06986337, -0.37532115, -0.6709143, 1.730022, 0.0042964895, -0.31745702, -0.22403018, -0.3291976, -0.6685415, 1.5785971, 0.2071365, -0.07437507, 0.103676364, -0.119972005, -0.63372463, 1.4225566, 0.24807627, 0.11128878, 0.07814299, -0.10988102, -0.5118952, 1.1984457, 0.23096699, 0.02341746, 0.07945516, 0.083468415, -0.37496707, 0.93422645, 0.16468263, 0.08632575, -0.031709686, 0.16090603, -0.34596926, 0.58974737, 0.13288453, 0.05084437, 0.043233585, 0.19684069, -0.22787549, 0.3802295, 0.2606236, 0.09066281, 0.0059149023, 0.16697706, -0.23767747, 0.26330128, 0.1437172, 0.03252763, -0.008396316, 0.089116216, -0.13336152, 0.09720559, 0.063316174, 0.0044293045, 0.00053759804, 0.16848317, 0.02414934, 0.03337488, 0.07180015, -0.070044495, -0.004242807, 0.08621367, 0.037710465, -0.16296628, 0.11535703, 0.00520005, 0.016908338, 0.1579566, 0.083627, -0.1407425, 0.06425136, -0.0147876935, -0.030763619, 0.18195419, 0.049087502, -0.24813522, 0.114024565, -0.0050423695, 0.0013713544, 0.15143068, 0.10960294, -0.2030912, 0.16746543, 0.14226376, 0.01927925, 0.02265872, 0.16646756, -0.1921403, 0.33690235, 0.051585678, -0.13225484, 0.08559787, 0.1329231, -0.18321802, 0.28681242, 0.122395694, -0.15230107, 0.012999111, 0.10855053, -0.13335298, 0.25037795, 0.050236546, -0.1788287, 0.06977752, 0.19502155, -0.046921093, 0.16639537, 0.03663441, -0.02710872, 0.16648896, 0.21698517, 0.11012812, 0.202791, -0.038876727, -0.0020919817, 0.053026557, 0.28716174, 0.11675413, 0.11192718, -0.019823603, 0.15533887, 0.014200368, 0.17972377, 0.131386, 0.0044244337, 0.032151192, 0.25829634, 0.0058428748, 0.19199048, 0.29890543, 0.104541354, -0.12538107, 0.18368767, -0.014235127, 0.09184359, 0.24597193, 0.03407073, -0.051018905, 0.17443563, -0.07247867, 0.115934625, 0.23013142, 0.05714804, 0.06734002, 0.14006722, 0.018675787, 0.20731339, 0.2540215, -0.09558887, 0.04758154, 0.22742222, -0.07261304, 0.13700776, 0.3147196, -0.1741096, -0.013141616, 0.09947012, -0.12028737, 0.13566656, 0.18948497, -0.2010458, 0.0039201267, 0.1513961, -0.01785152, 0.08208456, 0.24767435, -0.19161543, 0.090205096, 0.12533703, -0.0704444, -0.040037982, 0.2680054, -0.18289448, 0.09737599, 0.0047577047, 0.06376895, 0.15153742, -0.17048289, 0.14528757, 0.17805007, 0.03606713, -0.009336515, 0.0073456597, -0.047212765, 0.026347127, 0.14179143, 0.014522004, 0.011587941, -0.016487395, -0.08530462, 0.16490115, 0.0761108, -0.04663303, -0.0040112147, -0.13318206, -0.056170788, 0.28064495, 0.0042555733, -0.04013717, 0.10778919, -0.1236826, 0.072366446, 0.24761479, -0.16996075, -0.03842356, 0.019973729, -0.0827025, 0.18577589, 0.22781181, -0.23146011, -0.02081982, 0.008725546, -0.048800725, 0.27589643, 0.13786891, -0.14686006, -0.039351474, 0.037951916, -0.010086046, 0.20503324, 0.0380567, 0.006724804, -0.041094437, 0.02639172, -0.059898425, 0.11536497, 0.10400271, 0.03523803, -0.06482631, 0.077989094, 0.01333274, 0.15330194, 0.060582783, 0.1862458, -0.029606232, 0.042651452, -0.079078384, 0.23223226, 0.051055476, 0.27125126, -0.024948854, -0.07436816, -0.19235167, 0.24581173, 0.118256696, 0.2815382, -0.027810324, -0.12625788, -0.16659123, 0.4238061, 0.11136536, 0.06442451, -0.12326937, -0.22035469, -0.080698945, 0.3778425, 0.03506892, 0.010492686, -0.2115025, -0.17217681, -0.1276617, 0.3023114, 0.015080511, 0.000121369885, -0.4446796, 1.1029104, 0.91416067, 0.9698882, -0.1651703, -0.31369326, 0.1215095, 1.0787452, 0.8437883, 1.0623071, -0.034544285, -0.107628904, 0.056098256, 0.9746582, 0.5896171, 1.0559355, 0.10441877, -0.14703818, 0.11479737, 0.8788942, 0.5373602, 1.039199, 0.012008744, -0.23491904, 0.08738432, 0.67859226, 0.4010774, 0.95820695, 0.08839351, -0.24015254, 0.13643147, 0.6610011, 0.3493272, 0.9525345, 0.015128671, -0.23623647, 0.11465505, 0.6310241, 0.28379375, 0.98287576, 0.03295056, -0.1815666, 0.098656945, 0.54515964, 0.26264223, 0.86338717, -0.012063245, -0.17207204, 0.17297257, 0.4698223, 0.21789667, 0.7463851, 0.013254725, -0.16931121, 0.16067153, 0.45817742, 0.0560814, 0.68619305, -0.052056834, -0.093329206, 0.17199948, 0.4342658, 0.06159631, 0.615795, -0.05280796, -0.11508782, -0.0848233, 0.34487745, -0.056350857, 0.38578537, -0.011158466, -0.068673, 0.0037575543, 0.34190592, -0.1559779, 0.35040283, -0.010797622, -0.08239804, 0.068858884, 0.19131494, -0.20974311, 0.19776067, 0.03567353, 0.17331253, -0.09740039, 0.14622678, -0.2736906, 0.16584371, -0.04059308, 0.1063194, -0.17373073, -0.24486873, 0.588597, 0.33069092, 0.44252113, -0.27876535, -0.03374771, -0.14963843, 0.7913702, 0.2683255, 0.14217515, 0.22140346, -0.16058667, -0.21466054, 0.9748338, 0.1589048, -0.08271696, 0.0052548316, -0.27959338, -0.16219841, 0.9816488, 0.099298045, -0.15266447, 0.037757546, -0.25646052, -0.08001911, 0.8869976, 0.1502374, -0.23316956, 0.11446049, -0.1507513, -0.08282916, 0.6761061, 0.08650345, -0.091965765, 0.35513723, -0.067971796, -0.15819716, 0.31167436, 0.203923, -0.036418248, 0.25827155, 0.071524374, -0.11982315, 0.1742332, 0.33873263, 0.14846331, 0.31337658, 0.0052870875, -0.10995809, 0.116311274, 0.32976803, -0.011687629, 0.17808728, 0.07257596, -0.07967836, 0.004192074, 0.3261058, -0.06912345, 0.05822542, 0.17360593, -0.09923358, -0.13222687, 0.29958466, -0.12595391, 0.1437811, 0.3196446, -0.14529178, -0.22482166, 0.3316575, -0.06163237, 0.08932805, 0.29216668, -0.23212585, -0.28419757, 0.5300674, -0.031288218, 0.13765632, 0.20331994, -0.09245911, -0.15727425, 0.5214552, -0.004488897, 0.12363223, 0.018483954, -0.07132385, -0.11064212, 0.48943928, -0.12012467, 0.23573834, -0.012330718, -0.044695035, 0.51010764, -0.0058589634, -0.3024588, 0.09286869, 0.05733017, -0.005982892, 0.48906553, -0.041123606, -0.2504054, 0.13641582, 0.0058131153, -0.1070357, 0.694511, -0.010131235, 0.03543923, 0.18399875, -0.059026696, -0.12143898, 0.7359383, 0.018144198, 0.14219242, 0.23179659, 0.033636007, -0.06894111, 0.8473328, -0.032573693, 0.19823386, 0.24749498, -0.054117363, -0.09683774, 0.9502495, 0.03994987, 0.047132887, 0.33689323, 0.07824068, -0.19868918, 0.8615348, 0.15024178, -0.006496317, 0.15760222, 0.19139276, -0.26552543, 0.7113282, 0.19988121, -0.03154056, 0.16829668, 0.18806162, -0.34761658, 0.5922598, 0.320198, -0.06354085, -0.047804806, 0.11855052, -0.34082025, 0.33111486, 0.19688736, -0.019597266, -0.2516881, 0.11433515, -0.40024552, 0.13414513, 0.3060019, 0.015359765, -0.2916048, 0.09637823, -0.30669248, -0.0026247713, 0.42706883, -0.010897843, -0.30474976, -0.087834686, -0.34009138, -0.03929529, 0.55619156, -0.1671682, -0.40317822, -0.12992948, -0.2922125, -0.10564492, 0.6128194, -0.16239989, -0.12051477, 0.069468066, -0.28241584, -0.19884582, 0.6178873, 0.034933712, 0.082500935, 0.041055836, 0.029945143, 0.29247507, 0.16669813, 0.43779135, -0.30717808, 0.18466449, 0.034417722, 0.36113384, 0.037377447, 0.25821653, -0.07170783, -0.0044690412, 0.0028001897, 0.2708992, -0.05953159, 0.3865081, -0.09045721, 0.0037430355, 0.070510775, 0.24853837, -0.18466842, 0.16359514, -0.40774328, -0.36100706, 0.09660331, 0.121567585, -0.34259087, 0.08414357, -0.21044841, -0.35927582, 0.17280917, 0.1342786, -0.48399767, -0.13003795, 0.028462822, -0.24010868, 0.12882096, 0.1151399, -0.4163943, -0.06747034, 0.016684199, -0.12577665, 0.19456196, 0.19477849, -0.506637, 0.05701257, 0.12957597, 0.004420543, 0.28343952, 0.3084704, -0.39459696, -0.030862264, -0.02388014, -0.15359356, 0.26634192, 0.38241723, -0.3970211, -0.23515247, -0.06337626, -0.18503223, 0.22916499, 0.37916896, -0.4352854, 0.061655793, 0.05964374, -0.17389444, 0.24222626, 0.45225066, -0.39185616, 0.16102749, -0.06635614, -0.09968768, 0.32637167, 0.42814577, -0.37303606, -0.035996493, 0.04579025, -0.09337632, 0.36251634, 0.53228086, -0.30379358, 0.10196365, -0.16567321, -0.2117483, 0.4703467, 0.51466316, -0.3894403, 0.20912866, -0.26314333, -0.12324005};
	static CNN_DTYPE CNN_bias[CNN_KERNEL_COUNT] = {0.6879877, 0.7812191, -0.97869974, -0.33436164, -0.7508415, -0.15059234, 0.7508244, -0.3876651, 0.48193625, -0.39442492, 0.06366016, -0.54843265, -0.52264285, -0.438255, 0.6355248, -0.8018387, 0.59787416, -0.55453545, 0.57032853, -0.2959294, -0.7638478, 0.6882791, -0.8669974, -0.19924928, 0.22657962, -0.7430817, 0.71904004, -0.23517141, -0.8566931, -0.46140686, 0.80567515, 0.7667422, 0.76392376, 0.22479388, 0.2905866, -0.5941477, -0.58112055, -0.15430449, 0.7674997, -0.6738133, 0.122393884, 0.6843125, -0.37986133, -0.037062366, 0.7185804, 0.30830583, -0.38811314, -0.36612272, 0.7542361, 0.21528855, -0.98058623, -0.65065086, -0.25589168, -0.53471875, -0.34578806, -0.2211398, -0.63129497, 0.2162061, 0.8636034, 0.6235839, 0.106368475, -0.6364526, -0.1320866, -0.75386244};
	static CNN_DTYPE dense_weights[DENSE_OUTPUT_NODES][DENSE_INPUT_NODES] = {0.20426494, -0.018526742, -0.50261843, 0.7914237, 0.21180488, -0.4011053, -0.10715482, 0.03401107, -0.6498975, 0.25006723, -0.52387846, 0.2895388, 0.26396644, -0.028774636, 0.23383942, 0.46068236, -0.31594566, 0.109071024, -0.29202643, 0.83174515, -0.1811981, 0.17129607, -0.3027214, -0.40967703, -0.4181081, -0.069455564, -0.3251124, 0.84100914, 0.35682464, 0.4022358, -0.37947488, 0.038907968, -0.21385121, -0.5484539, -0.029402433, -0.58090603, 0.15225516, 0.42328423, -0.31304595, 0.25079948, 0.21193996, -0.0115545215, -0.20766689, 0.24503495, -0.128912, 0.11246806, 0.7379701, 0.4248771, -0.08769731, -0.6974507, 0.20986809, 0.2047061, 0.20227714, -0.11722043, -0.03694391, 0.15050529, 0.26004663, -0.71243346, -0.25538254, -0.007847564, 0.68189555, -0.26635483, -0.3081256, 0.21833302, -0.24596755, -0.15195517, 0.23680237, 0.19639136, 0.3576162, -0.08486048, 0.028919473, 0.24435513, -0.18895169, 0.32693815, -0.34424135, 0.49672213, 0.30543187, -0.33210868, -0.1657945, 0.25461406, -0.20648749, 0.521154, -0.2942947, 0.32055557, 0.09619044, 0.18426429, -0.3798821, 0.078091785, 0.24914154, 0.14634462, -0.32513806, -0.4374021, 0.043005306, 0.43701127, -0.041136965, 0.061215077, -0.028370252, 0.164973, 0.3975012, 0.5651936, 0.25594583, 0.52035964, -0.027547047, -0.55642414, 0.2759671, -0.24714753, 0.17363079, -0.39272162, -0.26661223, 0.20610966, 0.50512975, 0.16539441, 0.0335114, 0.07390476, -0.559843, -0.14045064, 0.14740972, 0.34074095, -0.010686197, -1.0515641, 0.54304725, -0.35776502, 0.102134734, -0.16320558, -1.0289513, -0.2984511, -0.4734426, 0.20028271, -0.30342853, -0.32204467, 0.82945037, 0.6053284, 0.28016287, -0.21357475, -0.577991, -0.11805677, 0.11107469, -0.30582687, 0.36259627, -0.19230911, -0.64948267, 0.007336417, -0.07137904, 0.15911983, -0.24687248, 0.20987058, 0.07987029, 0.1114459, 0.3383107, -0.5942724, 0.48492128, 0.08541443, -0.05417176, 0.57574075, -0.4783483, -0.20326442, 0.4630968, -0.23180367, -0.4597162, -0.3912161, -0.36601648, -0.6531993, 0.14195257, 0.25848734, -0.049745917, 0.3258619, -0.24802947, 0.69841236, -0.59359574, -0.17150544, -0.2924521, 0.27570647, -0.25894248, 0.35794723, 0.43493962, 0.6779441, -0.38791525, -0.15604429, 0.8785055, 0.26681918, -0.4635957, -0.19163382, 0.49444237, 0.38323498, 0.464264, 0.22819194, -0.455179, -0.042945858, -0.16114031, 0.39371812, 0.060388893, 0.05424394, 0.12430822, -0.05093622, 0.20826048, 0.46735755, 0.2883411, 0.98871046, 0.05194369, 0.48583803, 0.28204882, 0.13496499, 0.033591826, 0.28465042, 0.118577674, 0.25524005, -0.5969906, -0.19402817, 0.39632693, -0.56807464, -0.16277978, -1.0186003, 0.13425505, 0.0947573, -0.1140682, -0.84488314, -0.49284196, 0.44449154, -0.04615805, 0.40518823, -0.1920265, -0.4549169, 0.050725065, -0.3147448, 0.12960123, -0.3808899, -0.72773176, -0.46306148, 0.028962502, -0.98280984, -0.108198114, 0.07713616, 0.40593037, -0.19056535, 0.44882122, 0.33703765, -0.236138, -0.20887747, -0.0041492637, -0.85205, 0.3005016, -1.2890406, -0.7226959, 0.13575776, 0.6145829, 0.48500553, -0.32832682, 0.0065591186, -0.6022822, 1.0030253, -0.027463773, -0.37571502, 0.54506415, 0.29708797, 0.529288, 0.53618556, 0.27010688, 0.46796802, 0.014607687, -0.55023605, -0.38715312, -0.30559233, 0.11389938, -0.68333626, 0.24294558, -0.19768018, 0.07137723, -0.5052701, -0.29906484, -0.2933853, 0.27211088, -0.19563875, 0.3751119, -0.35528153, 0.38281295, -0.2307131, -0.31269407, 0.19292971, -0.3588518, 0.06460971, 0.08844769, -0.2021791, 0.4725198, -0.55697435, -0.34343845, -0.09208677, 0.10974154, 0.32673305, 0.30749217, 0.12596178, 0.17945673, -0.21687679, -0.4520717, 0.020091394, 0.3903755, -0.41745326, 0.0941224, 0.3679163, -0.38049906, 0.12764144, 0.44064635, 0.37942454, -0.3003142, -0.8310769, 0.4521942, 0.52833205, -0.20353548, -0.073198274, -0.08639329, -0.32093906, 0.02986493, -0.07718165, -0.37958044, -0.17841345, 0.16863517, 0.25104108, 0.1386163, -0.35841957, 0.003947325, -0.5557326};
	static CNN_DTYPE dense_bias[DENSE_OUTPUT_NODES] = {-0.28095555, -0.35817087, -0.7547936, -0.35537288, 0.75296676};
	
	static CNN_DTYPE user_0_input_buffer[CNN_KERNEL_LENGTH][INPUT_DEPTH];
	static CNN_DTYPE user_0_cnn_output_buffer[CNN_OUTPUT_LENGTH][CNN_OUTPUT_DEPTH];
	static CNN_DTYPE user_0_cnn_output_exit[CNN_OUTPUT_DEPTH];
	static CNN_DTYPE user_0_cnn_output_averaged_buffer[CNN_OUTPUT_DEPTH];
	static CNN_DTYPE user_0_dense_output_buffer[DENSE_OUTPUT_NODES];
	
	static CNN_DTYPE user_1_input_buffer[CNN_KERNEL_LENGTH][INPUT_DEPTH];
	static CNN_DTYPE user_1_cnn_output_buffer[CNN_OUTPUT_LENGTH][CNN_OUTPUT_DEPTH];
	static CNN_DTYPE user_1_cnn_output_exit[CNN_OUTPUT_DEPTH];
	static CNN_DTYPE user_1_cnn_output_averaged_buffer[CNN_OUTPUT_DEPTH];
	static CNN_DTYPE user_1_dense_output_buffer[DENSE_OUTPUT_NODES];

	MAIN_PROCESS: if (function_select == 0) {
		if (user_number == 0) {
			// shift input_buffer to the left
			for (int i = 0; i < CNN_KERNEL_LENGTH - 1; i++) {
				for (int j = 0; j < INPUT_DEPTH; j++) {
					user_0_input_buffer[i][j] = user_0_input_buffer[i + 1][j];
				}
			}
			memcpy(user_0_input_buffer[CNN_KERNEL_LENGTH - 1], data, INPUT_DEPTH * sizeof(CNN_DTYPE));

			// evaluate neural network result
			compute_convolution(user_0_input_buffer, CNN_weights, CNN_bias, user_0_cnn_output_buffer, user_0_cnn_output_exit);
			compute_global_average_pool(user_0_cnn_output_buffer, user_0_cnn_output_exit, user_0_cnn_output_averaged_buffer);
			compute_dense(user_0_cnn_output_averaged_buffer, dense_weights, dense_bias, user_0_dense_output_buffer);
			memcpy(raw_output, user_0_dense_output_buffer, sizeof(float) * DENSE_OUTPUT_NODES);
		} else {
			// shift input_buffer to the left
			for (int i = 0; i < CNN_KERNEL_LENGTH - 1; i++) {
				for (int j = 0; j < INPUT_DEPTH; j++) {
					user_1_input_buffer[i][j] = user_1_input_buffer[i + 1][j];
				}
			}
			memcpy(user_1_input_buffer[CNN_KERNEL_LENGTH - 1], data, INPUT_DEPTH * sizeof(CNN_DTYPE));

			// evaluate neural network result
			compute_convolution(user_1_input_buffer, CNN_weights, CNN_bias, user_1_cnn_output_buffer, user_1_cnn_output_exit);
			compute_global_average_pool(user_1_cnn_output_buffer, user_1_cnn_output_exit, user_1_cnn_output_averaged_buffer);
			compute_dense(user_1_cnn_output_averaged_buffer, dense_weights, dense_bias, user_1_dense_output_buffer);
			memcpy(raw_output, user_1_dense_output_buffer, sizeof(float) * DENSE_OUTPUT_NODES);
		}

	} else if (function_select == 1) {
		// reset CNN output buffer, CNN output averaged buffer, and dense output buffer
		if (user_number == 0) {
			memset(user_0_input_buffer, 0, sizeof(CNN_DTYPE) * CNN_KERNEL_LENGTH * INPUT_DEPTH);
			memset(user_0_cnn_output_buffer, 0, sizeof(CNN_DTYPE) * CNN_OUTPUT_LENGTH * CNN_OUTPUT_DEPTH);
			memset(user_0_cnn_output_averaged_buffer, 0, sizeof(CNN_DTYPE) * CNN_OUTPUT_DEPTH);
		} else {
			memset(user_1_input_buffer, 0, sizeof(CNN_DTYPE) * CNN_KERNEL_LENGTH * INPUT_DEPTH);
			memset(user_1_cnn_output_buffer, 0, sizeof(CNN_DTYPE) * CNN_OUTPUT_LENGTH * CNN_OUTPUT_DEPTH);
			memset(user_1_cnn_output_averaged_buffer, 0, sizeof(CNN_DTYPE) * CNN_OUTPUT_DEPTH);
		}
		memset(raw_output, 0, sizeof(CNN_DTYPE) * DENSE_OUTPUT_NODES);

	} else if (function_select == 2) {
		// set CNN weights
		memcpy(CNN_weights, weights_and_bias, sizeof(CNN_DTYPE) * CNN_KERNEL_LENGTH*CNN_KERNEL_DEPTH*CNN_KERNEL_COUNT);
	} else if (function_select == 3) {
		// set CNN bias
		memcpy(CNN_bias, weights_and_bias, sizeof(CNN_DTYPE) * CNN_KERNEL_COUNT);
	} else if (function_select == 4) {
		// set dense weights
		memcpy(dense_weights, weights_and_bias, sizeof(DENSE_DTYPE) * DENSE_INPUT_NODES*DENSE_OUTPUT_NODES);
	} else if (function_select == 5) {
		// set dense bias
		memcpy(dense_bias, weights_and_bias, sizeof(DENSE_DTYPE) * DENSE_OUTPUT_NODES);
	} else {
		// do nothing
	}
}
