#include "cnn_model.h"

CNN_WEIGHTS_DTYPE CNN_weights[CNN_KERNEL_COUNT][CNN_KERNEL_LENGTH][CNN_KERNEL_DEPTH] = {
-0.0028426116, -0.0042822533, 0.066316694, -0.02496958, 0.010495311, -0.04512343, -0.020571869, -0.10261642, 0.037253488, -0.06465519,
-0.07016044, 0.001876286, -0.02342298, 0.064841904, -0.10251299, 0.030597825, 0.033835623, -0.06993854, 0.10023402, 0.028452957,
-0.0015291736, -0.08574341, -0.027105939, 0.040597983, 0.072146654, 0.014062835, -0.09299416, 0.08656698, 0.07578229, 0.029366426,
0.0026239327, -0.080835864, 0.03263899, 0.101223715, 0.087243654, 0.07969695, 0.0028282804, -0.06119597, 0.042135775, -0.0042182896,
0.018059101, 0.06589362, -0.0033398631, -0.026983948, 0.09779717, 0.09549167, 0.06417899, -0.06852177, -0.07714562, -0.092479035,
0.006540405, 0.01801672, -0.09669593, -0.024393532, -0.019812828, -0.012019306, 0.045249946, -0.08541149, -0.0223684, -0.07179726,
-0.020235393, 0.091992185, 0.06380391, 0.04911127, -0.03406741, -0.01119483, -0.090026684, 0.032219682, -0.07281831, -0.0254707,
-0.009016349, -0.10373345, -0.08692901, -0.02077494, 0.09069529, 0.0207815, 0.030815158, 0.07542347, 0.06910557, 0.056211617,
-0.07680363, -0.101391464, 0.06603808, 0.05725438, -0.036241736, -0.09921373, 0.012864026, 0.07138639, 0.08068299, -0.09890114,
0.027702937, -0.037922837, -0.04950514, 0.01640481, 0.06297591, 0.028723586, -0.036704704, -0.08280009, 0.030064134, -0.05131403,
0.06476684, 0.04264135, -0.019209964, -0.05899379, -0.049006984, -0.05717326, 0.001846873, 0.021189118, -0.02828076, 0.027792837,
-0.05025899, 0.02982639, -0.0061202617, 0.007042191, 0.09537226, -0.057397716, -0.0797941, 0.016307462, 0.038884494, 0.09146642,
-0.08983304, 0.080753975, 0.0663765, -0.06980147, 0.012882234, -0.027938658, 0.07285527, -0.047075957, -0.031091923, 0.049118537,
-0.10433828, 0.015859853, 0.014724562, 0.08136518, -0.013081715, 0.04128043, -0.103441805, 0.03000032, 0.01847237, -0.022425912,
0.03595693, 0.07327746, 0.03329144, -0.03632598, 0.07336917, -0.03077013, 0.07707382, 0.0498285, -0.074654825, 0.095459886,
0.0120501015, 0.08463796, -0.10113268, 0.058009453, -0.09560853, -0.072484724, 0.0117436135, 0.018537244, -0.07676915, -0.027119782,
-0.07536232, -0.0070809545, -0.05765387, -0.041788377, 0.098106034, -0.07759904, -0.001629005, 0.036376353, -0.074667595, -0.107411444,
-0.018964918, -0.03993517, 0.012472447, 0.08046396, 0.023873992, -0.054504104, 0.043562148, -0.013803585, 0.02830447, 0.03632578,
-0.03609666, -0.02496843, -0.06680247, 0.028955773, -0.10058689, -0.07895269, -0.0566856, 0.015278437, 0.089743316, -0.049305182,
0.066988856, 0.0907649, -0.06745281, 0.07613331, 0.042032003, 0.101835035, -0.09541467, -0.020310763, -0.09084891, 0.040539216,
0.09463423, 0.090532176, -0.0030217762, 0.06509514, -0.00824275, -0.06911689, 0.08743878, -0.07684229, 0.08766103, 0.058704108,
0.051014125, 0.002613145, -0.06418813, -0.08268087, 0.072997175, -0.009205301, 0.04287668, -0.0005076846, -0.038035993, -0.0648426,
0.05880009, -0.009882823, 0.074729174, 0.0038228172, -0.089418925, -0.0037222817, 0.09608688, 0.050216284, 0.086947255, 0.015886828,
0.019186912, -0.095069714, -0.004103979, -0.08841088, 0.010589293, 0.00584536, -0.03622459, -0.04163682, 0.07617257, -0.03252394,
0.022310253, 0.09322659, -0.09701396, -0.027056543, -0.07112547, 0.0822028, 0.008358631, -0.07323219, -0.011593011, -0.022890858,
-0.007936078, 0.105151504, -0.015590813, -0.0717412, 0.007335993, 0.02805249, -0.04397311, 0.06561126, -0.010497311, -0.051965702,
0.03206402, -0.043236867, -0.036622968, -0.042874645, 0.09066985, 0.0958489, -0.09370157, 0.07828207, 0.0009090909, 0.04162796,
0.027635762, 0.061822075, 0.026868172, 0.09349892, 0.0635907, -0.010602057, -0.004255198, -0.031022836, 0.09208898, -0.092901535,
-0.050798565, 0.03423341, -0.03630328, 0.02763432, 0.05987584, 0.033447485, 0.078227386, 0.01151638, -0.0013820592, 0.021164276,
0.0007340632, 0.074961275, 0.024278453, 0.00792178, 0.0070453463, -0.04070072, -0.042873695, -0.027596425, -0.0207574, 0.062006693,
0.059439316, -0.03564501, 0.025234882, -0.023457967, -0.034869786, -0.09418564, 0.05188421, 0.076288566, 0.0383113, -0.04936979,
-0.020097425, 0.03738956, 0.0141757745, -0.04043964, -0.09207524, 0.07463772, 0.088252164, 0.07057904, 0.016414253, -0.0003537845,
0.06954524, -0.034383934, 0.046069983, -0.079158284, -0.105463386, 0.009577608, 0.03222751, -0.07541806, -0.08266416, -0.04743902,
-0.02214492, -0.06473241, 0.028381338, -0.08219579, -0.0055383416, 0.020832803, 0.07695963, 0.099713765, -0.04299064, 0.10554894,
-0.06970095, -0.07687322, -0.035208113, 0.029902723, 0.031377956, -0.06023605, 0.03321201, 0.061640613, 0.100389905, 0.04902918,
-0.045192283, 0.09100135, 0.04365649, 0.061791718, 0.015124106, -0.042962976, -0.021038683, -0.06639662, -0.0075183655, 0.0023667596,
-0.011145432, -0.07223138, -0.06803046, -0.008665406, 0.08905488, 0.027129149, -0.04409026, 0.08070528, -0.10598328, 0.08658211,
0.102604106, -0.054239545, -0.06833305, -0.032639388, 0.10491363, 0.051684774, -0.08357716, 0.021549504, -0.04276252, 0.038856797,
-0.051067002, -0.08506923, -0.09922168, 0.037074596, 0.06710373, -0.0335512, 0.08445523, -0.06672773, -0.08643157, 0.04762388,
-0.011596829, -0.09367558, -0.02976018, -0.088241756, 0.015319755, -0.095858596, -0.048812356, 0.084581286, 0.033777315, 0.09135497,
-0.021458477, -0.038870294, 0.084590286, 0.01813787, -0.041680906, 0.048850644, 0.06654066, -0.09262907, -0.077146515, 0.04916165,
0.079046294, 0.05301409, -0.07304305, 0.013660681, -0.033410735, 0.043891862, -0.08893399, -0.05918514, 0.025863616, -0.041859157,
0.078187324, -0.002848718, -0.07932377, 0.027328512, -0.043246362, -0.08109185, -0.01145518, 0.037745424, -0.1014716, -0.06492793,
-0.0964987, 0.10485364, -0.06451474, 0.10100414, -0.014712216, -0.074107096, 0.07477899, -0.07672552, 0.029683571, -0.040644817,
0.017238688, 0.02791073, 0.018717648, -0.08481842, 0.097324334, 0.07385273, -0.01708879, 0.08952063, 0.036279127, -0.022048336,
0.034358338, 0.07698459, -0.0004546865, 0.085765846, -0.07652695, -0.049495697, -0.05309255, -0.10250434, -0.06948574, -0.05563113,
-0.018422581, -0.0030018324, -0.028539088, -0.09209784, 0.0929665, -0.070761465, -0.03941748, -0.038179096, 0.047632873, -0.079747714,
0.08563676, -0.057561684, -0.05447591, -0.06654425, 0.014536265, 0.062402107, 0.021618355, -0.039928142, 0.011971009, -0.004594656,
-0.09081535, -0.028378384, 0.034782067, -0.06771378, 0.10477123, 0.08555735, 0.105205804, 0.02222102, 0.08768308, -0.059775416,
0.09847971, 0.086603686, 0.039805714, 0.08613777, 0.019387683, -0.05738571, 0.0044809314, 0.062490284, 0.016459977, -0.042927526,
-0.099659726, 0.05137093, -0.07268549, -0.006109147, 0.000393119, -0.05105068, 0.08623449, -0.03846077, -0.053680446, -0.07160212,
-0.02718262, 0.056639746, -0.06320642, 0.056422137, -0.0437312, -0.07870286, -0.01646387, 0.09419352, 0.034013942, -0.0869543,
0.0031971189, 0.0038946704, -0.026339525, -0.028967276, -0.039901443, 0.0009114645, 0.039834164, -0.015264622, 0.011051761, 0.058907643,
0.07600574, -0.09142833, -0.010238403, -0.033931598, -0.036333315, 0.050354525, 0.039418936, -0.00906687, 0.07781157, 0.08384445,
0.05940657, 0.104691096, 0.081128635, -0.014028935, 0.09786632, -0.02801778, 0.029142892, 0.059807878, -0.07815735, -0.09773861,
0.073367305, -0.016655162, -0.026707912, 0.07398788, -0.091693066, 0.06392475, -0.105142795, -0.0026978452, -0.013615882, 0.025055273,
-0.0519883, -0.07106691, 0.093081854, -0.035939857, -0.047170017, -0.059533224, -0.055933554, -0.022466542, -0.021191472, 0.0067630447,
-0.011535513, 0.0002553658, -0.063316695, -0.056603756, -0.06288619, -0.023599485, 0.021044979, -0.033393126, 0.073597476, -0.047880445,
0.065731145, 0.010975276, -0.0014719316, 0.012363545, 0.09533004, -0.082028314, 0.018556228, 0.029941844, -0.028546369, 0.06945383,
-0.00809878, 0.013886818, -0.011056896, -0.024201812, -0.064954616, -0.06938173, -0.031036723, -0.06772679, 0.069267765, -0.09011807,
0.013456973, 0.09362397, 0.030459732, -0.090652436, 0.03243043, -0.05310628, -0.050632395, -0.06897914, -0.06884374, 0.06703466,
0.07180174, 0.088920906, -0.0014843803, -0.08056361, -0.10545502, -0.049332377, 0.08545284, -0.064411335, -0.046998505, -0.006757468,
-0.08465191, -0.030416977, -0.05849168, -0.044638865, -0.004049006, -0.087887965, -0.0893489, 0.07894408, -0.06095182, -0.0051272823,
-0.091756955, -0.01747546, -0.10797408, -0.0017181023, 0.090440825, -0.06370063, 0.073588826, 0.03201323, 0.09894898, 0.103069365,
0.010582868, -0.024547452, -0.015139157, -0.034620658, -0.0684582, 0.06072811, -0.025051454, -0.08258627, 0.028992679, -0.0625451,
0.060823705, -0.031321764, 0.096177325, 0.030620378, -0.0902781, -0.020127004, 0.07529885, -0.032220393, -0.0725354, 0.009626836,
-0.025409114, 0.099786855, 0.107136995, 0.0706284, 0.018675808, 0.1039586, -0.09680595, -0.0075588953, 0.047108218, 0.057924908,
-0.04577135, 0.035350587, 0.01879263, 0.07286509, 0.022471167, -0.011251595, -0.04201358, 0.010328489, 0.035773497, 0.08874131,
0.02535531, 0.093569934, 0.035712764, 0.094561525, 0.011811553, 0.089937285, -0.022455063, -0.0033619336, -0.0452451, 0.03278055,
0.09513658, 0.06494748, -0.04973277, -0.01831549, -0.014070436, -0.060745016, -0.042809416, 0.02477774, -0.026072849, 0.01825851,
-0.0951349, -0.0005590926, 0.046913743, -0.06873962, 0.082752764, 0.06760168, 0.0772518, 0.07564954, 0.08831441, -0.08785892,
0.065076984, 0.013745046, 0.0007767812, 0.02505128, -0.021198457, 0.10021731, -0.051007397, -0.020476276, 0.0549771, 0.005158484,
0.015418933, -0.03488314, 0.0035803707, -0.027457401, -0.10088589, -0.06628602, -0.07839658, 0.024765737, -0.08398147, -0.06837328,
-0.02006258, 0.07941405, 0.045063265, 0.049932398, -0.0026485545, 0.07280789, -0.054778803, 0.0060892366, -0.094226, -0.0805556,
-0.027384914, 0.069751635, -0.035455614, 0.07576202, -0.0030994813, -0.07527203, 0.042899072, -0.04556898, 0.09066136, 0.01924024,
0.04821177, 0.094016716, 0.09325974, -0.04799388, -0.016788676, -0.039493077, -0.09152409, 0.07175583, 0.05122413, -0.012050239,
0.07699906, -0.07652867, 0.06619452, -0.044216666, -0.008896153, 0.0649786, -0.042789944, 0.0907888, -0.026810257, -0.026772,
0.051616292, -0.006797355, -0.07875853, -0.015598824, -0.065201424, -0.064116195, -0.0071544102, -0.0030468674, -0.09052927, -0.01544651,
-0.06544344, -0.09116022, -0.0735515, -0.0943823, 0.09357583, -0.09351883, -0.087989524, 0.026256986, -0.07980193, 0.08233176,
-0.061031736, 0.023530226, 0.06726311, 0.066818684, -0.024567656, -0.021289293, 0.037184324, 0.005915345, 0.051067602, 0.06296609,
0.008019552, 0.061624978, 0.030052006, 0.0004724973, -0.097339556, 0.047674384, -0.012554649, -0.030239295, 0.044876356, 0.030813804,
-0.08868484, 0.09385788, 0.07844506, 0.06975799, -0.06590812, 0.062051795, -0.0990442, 0.060769, 0.008369801, 0.073245816,
0.08803744, 0.007761359, -0.067425095, -0.018371465, -0.035985924, -0.08413697, -0.022213358, -0.060048014, -0.07572962, -0.0390479,
-0.0006855466, -0.0025933217, 0.078963555, 0.023569718, -0.051341098, -0.0058397874, -0.035119742, 0.010175285, -0.06345541, -0.07640953,
-0.08887769, 0.022315567, -0.02421107, 0.08266116, 0.02890303, 0.047980227, -0.003280914, -0.080904596, -0.03732336, 0.06148816,
0.0406557, 0.085278824, 0.016686853, 0.05777519, -0.05285947, -0.020297177, 0.038783878, -0.0046083354, 0.021297514, -0.06752401,
-0.038307637, -0.0820624, 0.04349072, 0.024271257, 0.048903055, -0.03371317, 0.040900495, -0.08010382, -0.091782, 0.080475196,
0.10621678, 0.07775036, 0.056482546, -0.028423764, 0.09496731, -0.044713266, -0.045727126, -0.022779778, -0.008033837, 0.028583862,
-0.0283009, 0.072459795, -0.053006124, -0.10167361, 0.09005065, 0.047125425, 0.07807263, -0.03782023, 0.04133716, 0.057943467,
0.10212198, -0.03125765, 0.04722628, -0.04349788, -0.029436525, 0.09834014, -0.085439846, -0.025917053, -0.014860006, 0.07089989,
-0.04761873, 0.020021273, 0.02353017, -0.033779494, 0.023393271, 0.051239476, 0.10555812, -0.058189817, -0.080153905, -0.08778702,
0.06841195, 0.0875201, 0.077319935, -0.08183904, 0.025068957, 0.09077865, -0.07323042, -0.017967783, 0.06895705, -0.050037593,
-0.043723606, 0.07042686, -0.030735027, 0.06682658, 0.06670458, -0.0577299, -0.03809447, 0.036183495, 0.041355062, 0.061167672,
-0.08026415, -0.0147472145, 0.09657146, 0.05380143, -0.018244207, -0.065320015, 0.022775859, 0.058211986, 0.029545756, 0.055662926,
-0.002222295, 0.040778235, 0.015137426, 0.09127127, -0.084564954, -0.09187607, -0.008653235, 0.068844974, -0.0769341, 0.07194527,
-0.061737537, 0.090181194, 0.013111288, 0.097307034, -0.008794177, -0.06752582, 0.02424328, 0.08366056, -0.011421274, 0.018654222,
0.042915966, -0.095856875, 0.039615657, 0.049150087, 0.010645965, 0.0026483333, 0.06967762, -0.02334783, -0.016431326, 0.062577695,
0.0054978007, -0.08921556, 0.00805695, -0.03249754, 0.081138596, 0.020407239, -0.049037293, -0.066181906, -0.05349026, -0.030052489,
-0.004643727, 0.021618767, 0.013880016, 0.08365082, -0.07003175, -0.09799872, -0.09374276, -0.0045502745, 0.061651405, 0.01631707,
-0.04810324, 0.09978527, -0.028931914, 0.043167487, 0.044301298, -0.10337563, -0.08710078, -0.06926021, -0.06639741, -0.0782998,
0.024515389, 0.021511944, -0.09482018, 0.05484778, -0.091848075, -0.02261514, 0.040333055, 0.023509005, 0.06746661, 0.033226475,
-0.020443654, -0.06677565, -0.078099996, -0.0064297128, -0.09954199, 0.046937022, -0.051359333, -0.052284453, -0.019246599, -0.017380066,
-0.009272561, 0.087445594, 0.061411783, -0.08445345, -0.008200925, -0.087967426, -0.06720051, -0.08415518, 0.06757795, 0.0022542018,
0.09125796, -0.06980976, -0.013224836, 0.062415905, 0.07485896, -0.062965035, -0.07627347, -0.08693973, 0.09266067, 0.019494645,
0.09057008, 0.07722112, 0.02089227, 0.031986047, 0.08076782, 0.0075416705, 0.08639897, -0.08673697, 0.0067352946, -0.047086958,
0.09589407, 0.023576776, -0.013294712, -0.035565265, 0.062093426, 0.0596181, 0.008674774, 0.08419392, -0.0325872, 0.027074298,
0.104701824, 0.06956889, -0.018745732, 0.07471642, -0.073650405, -0.020382233, 0.016992344, 0.03995187, -0.028304204, 0.0635544,
0.027657485, 0.040705044, -0.024203598, -0.059927102, -0.017434968, -0.09893218, 0.09145317, 0.084866285, 0.04322204, -0.029524071,
0.0014476354, -0.080545515, 0.049442407, -0.015343816, -0.04776384, 0.00416114, -0.0036545596, 0.10514916, -0.061898872, 0.07255797,
0.094248556, -0.05790839, 0.07140663, 0.014491968, -0.0055396403, -0.09670526, 0.098968685, 0.014052894, 0.07592215, -0.052228376,
0.038721293, 0.022019602, -0.013718987, 0.05715206, 0.08063135, 0.058836948, 0.06909861, 0.026796283, 0.075332925, 0.025797399,
0.09422861, -0.04285643, 0.050985623, 0.059079226, 0.0019145973, 0.09785699, 0.10273029, -0.029404256, -0.011956377, 0.06947405,
-0.09449809, 0.03962319, -0.043442927, 0.08202655, 0.084269024, 0.019252608, -0.08454232, 0.012576425, 0.07468634, -0.020929636,
-0.022793664, 0.08768703, 0.07119746, -0.04738337, -0.09652121, 0.049570702, 0.05017624, -0.030629428, 0.040894214, 0.10430615,
-0.04216415, 0.05455029, 0.07873238, 0.069366306, 0.020290324, 0.070925675, 0.007756779, -0.075149186, 0.07676913, 0.06559451,
0.016991746, -0.0042544063, 0.049726818, -0.022767495, 0.012114212, 0.08970734, -0.06594797, -0.03057764, 0.040881302, -0.03089768,
-0.0797694, -0.013680022, -0.012831149, 0.072794914, 0.05985934, 0.07441149, 0.05654391, 0.060719375, 0.098502435, 0.08310892,
0.07752577, 0.10593116, 0.05864295, -0.026324682, -0.00603054, 0.056310937, -0.009604234, -0.012644136, -0.07397633, -0.08700305,
-0.0003622702, -0.07490815, -0.014261741, -0.09333492, -0.08142798, -0.08306667, 0.036874723, 0.0008398499, 0.08461642, -0.06289759,
-0.061203346, 0.10509966, 0.10079952, 0.06757555, -0.057448346, 0.039061565, 0.058373395, -0.03496939, -0.04031614, 0.006527736,
0.07624172, 0.06685029, 0.04444848, 0.053856485, -0.049196813, 0.041010294, -0.09246907, 0.08038175, 0.10043955, -0.08407061,
0.03754292, 0.079535656, 0.07887122, -0.058923732, -0.040992275, 0.005926337, 0.07680458, -0.092398606, 0.06672144, -0.03453191,
-0.0091934865, -0.014698661, -0.016393663, -0.08204445, 0.09161007, 0.049586598, -0.09799863, -0.083134755, 0.100203924, -0.008329777,
0.080292284, 0.047616996, -0.04825775, -0.09716285, 0.07515079, -0.034947496, 0.080669284, 0.0057368157, -0.046032876, -0.06295204,
0.054023713, -0.06463698, -0.0005688102, -0.015983168, -0.04582562, 0.05630154, 0.020695766, -0.10086701, 0.025886394, -0.021314321,
-0.059880115, -0.0021808073, 0.07293887, -0.08015145, 0.011961678, 0.00681061, 0.08423233, -0.023311723, -0.023512317, -0.088410884,
0.09385212, -0.05091756, -0.009136178, 0.09506452, 0.03475879, -0.020534888, -0.09609117, 0.09920709, -0.008240625, -0.04771392,
-0.019200496, -0.039398853, -0.05673102, 0.046873, 0.085174225, 0.10290511, 0.0428905, -0.04006901, 0.01640367, -0.08535162,
0.07619279, 0.05935849, 0.089006715, 0.06892246, 0.014303824, 0.08384489, 0.07715616, -0.011950384, -0.036652863, 0.03823256,
0.0067509934, -0.07134698, -0.08061696, -0.0137270205, -0.088131264, 0.08676209, 0.057139207, -0.042196956, 0.023887899, -0.034453902,
0.05664688, 0.0200508, 0.061645076, -0.08417412, 0.09941659, -0.096575096, -0.016709778, -0.053227793, 0.0741983, 0.032355636,
-0.025414785, 0.0494427, -0.09769652, 0.027166653, -0.031744797, -0.04775699, 0.03557106, -0.046198685, -0.021116408, 0.07705615,
-0.06698179, -0.084381044, -0.0995565, -0.028254006, -0.005520247, 0.04489057, 0.013234278, -0.03809726, -0.09523957, -0.06933088,
-0.0026436716, 0.043969195, -0.0105735725, -0.0010733673, -0.036112785, -0.041882947, -0.07805973, 0.018854333, -0.040669374, -0.027000716,
0.08513653, -0.090466976, 0.023664039, 0.096276544, 0.036296867, -0.04569383, 0.07439823, 0.008493962, -0.04982988, -0.0082706455,
0.018093798, -0.07053416, -0.035865195, -0.077041574, 0.08120417, 0.053042535, 0.103713185, -0.09173309, -0.055729415, -0.08976202,
0.018698256, -0.02764106, -0.029303286, -0.09092328, -0.020073356, -0.08922846, 0.012859058, 0.0061472757, -0.05082452, 0.0026316198,
0.09184941, -0.023418456, -0.024280546, -0.04955109, -0.033833325, 0.08065473, -0.055550482, -0.099602, -0.014571503, 0.067294054,
-0.04805283, -0.07242601, 0.08469825, 0.1050768, -0.09363427, -0.024442531, -0.013775785, 0.00991386, -0.026236722, -0.09793994,
0.074814774, -0.0057946523, 0.052612968, 0.07908589, -0.005057, -0.059848588, 0.023229783, -0.03369878, -0.052677244, 0.038817108,
0.035085827, -0.026632821, 0.072863325, -0.027419005, -0.08922826, -0.062499832, -0.05467641, 0.061693326, -0.002514514, 0.06953935,
-0.042727247, -0.0974921, -0.01392865, -0.05677079, 0.040521536, -0.048749857, -0.09912014, -0.08989755, 0.040439427, 0.09849421,
0.068466514, 0.038644083, -0.06652418, 0.0079598315, -0.09267465, 0.017949685, 0.02107126, -0.09004214, 0.019717548, 0.046074722,
-0.03187312, -0.07804355, 0.075059555, -0.079410344, -0.027873425, 0.012009905, -0.0040723123, 0.029851994, 0.08272414, 0.04860587,
-0.05684098, -0.018770922, -0.06730409, 0.0006228864, 0.06843293, -0.03255058, -0.034223944, 0.053816546, -0.02968822, 0.047759037,
-0.0016555756, 0.098733075, -0.056264184, 0.046671957, -0.064018175, 0.101561435, 0.10198286, -0.10259089, -0.07582603, -0.012499823,
0.09883351, 0.07124612, -0.05835033, 0.060574815, -0.081324816, -0.038829904, 0.07561174, 0.020188231, 0.08785201, 0.06679004,
0.016299618, -0.052764133, -0.024071673, 0.030728033, 0.05840032, -0.09571567, 0.021770196, 0.02659955, 0.090800956, 0.02519554,
0.004795731, -0.082508914, -0.08680837, 0.04464581, 0.0901771, 0.009819321, 0.010809594, 0.099144034, 0.035117235, 0.0069796983,
0.06699626, -0.039307788, -0.06958601, -0.068047725, -0.10276508, -0.077231705, 0.021895284, -0.058427442, -0.089989334, 0.094208755,
-0.04039389, -0.016409114, 0.020005468, -0.0386045, 0.08685351, -0.033053834, -0.022121066, 0.03145534, 0.07867228, 0.05361885,
0.10379251, -0.07697579, 0.01986967, -0.08425845, -0.022140848, -0.1036431, 0.098145515, 0.019872062, -0.052603666, -0.059702203,
0.04213072, -0.03335143, -0.071324855, -0.046704117, 0.06591559, 0.010623421, -0.0024926276, -0.037491564, -0.09825228, 0.01971276,
0.071155846, -0.06528464, -0.046375256, -0.08865735, -0.06713848, 0.03806412, 0.027039932, 0.035593763, -0.004016831, 0.09568459,
-0.0328807, -0.03844198, -0.051653627, -0.09621032, -0.023397796, 0.023401752, -0.08138686, 0.03136182, -0.022203105, 0.04345239,
-0.08171598, -0.074237786, 0.09494432, 0.079066746, 0.02008071, 0.0010520217, 0.06251148, -0.010007733, 0.031709466, 0.0942333,
-0.015023011, 0.079254106, 0.09704621, 0.086292274, -0.05700354, -0.030311635, -0.013112857, 0.09506859, 0.004982899, 0.050015714,
0.086557135, -0.09510815, -0.08426782, 0.03518381, -0.04208346, 0.054165658, -0.019818362, 0.0013826431, 0.033607863, -0.06839531,
0.10332391, 0.08769267, -0.0009830955, 0.08735456, 0.071509406, -0.084839314, 0.02801906, 0.080531806, -0.08466872, 0.021524549,
-0.08268053, 0.037371457, -0.03608857, -0.041875042, 0.081888385, 0.02038197, 0.09966305, -0.027429678, 0.005749429, -0.053570457,
-0.08565486, -0.010039757, -0.06625427, -0.023523789, 0.05813934, -0.088967465, -0.051127926, 0.100199565, -0.019136427, 0.06410417,
0.08755835, -0.09263917, 0.071469486, -0.05141345, -0.06407968, -0.069644004, -0.06677734, 0.08408695, 0.05132764, -0.040161766,
-0.0714329, -0.022660896, 0.054067247, 0.06856186, 0.022900725, 0.07309033, -0.10051202, -0.0649684, 0.0624624, 0.014238134,
-0.04793197, -0.0013787766, -0.052704014, 0.041420557, 0.05671942, -0.06135052, 0.06190016, 0.06809303, -0.04719541, -0.08584647,
-0.087661535, 0.084915265, -0.023366679, 0.080715686, 0.00718184, -0.024176596, 0.040775586, 0.10262255, 0.10022662, 0.033070784,
-0.0425138, 0.05090807, -0.038520087, -0.07677081, -0.005886865, 0.0006197568, 0.023896078, 0.035552308, -0.066859156, 0.02866442,
-0.09038509, 0.09221308, -0.08964979, 0.058083534, -2.32756e-05, -0.05736355, 0.032080326, 0.038395617, -0.078284256, 0.013358695,
0.089407116, 0.073843844, -0.07476268, -0.022045098, 0.021407658, -0.091164574, 0.10399656, -0.04177196, 0.06499502, -0.06570469,
-0.101140454, 0.012112744, 0.08308627, -0.026453312, 0.09185788, -0.064395905, -0.032698248, -0.103383675, -0.03189961, -0.049720872,
0.016870368, 0.042755365, 0.037615586, -0.028475733, -0.009244989, 0.07815848, 0.021417174, 0.0022141542, 0.02726386, 0.035941478,
-0.09210135, -0.0003945812, -0.008928112, -0.09132586, 0.00214786, 0.014332319, 0.10395538, 0.092943296, -0.030646674, 0.080251954,
0.015795745, -0.061509714, 0.02993938, 0.061820626, 0.008787529, 0.051730484, -0.10026596, -0.08266417, -0.02823628, 0.056133177,
0.026963018, 0.067622155, 0.068803266, 0.0269831, 0.001751432, 0.04386665, 0.07449911, -0.089147426, -0.0068426738, -0.03379682,
-0.02635773, 0.0117782755, 0.09971927, -0.03229229, 0.08878718, 0.02080011, -0.053307675, 0.105077535, 0.08417004, 0.021331241,
-0.035835482, -0.03062262, -0.06901856, -0.00522322, -0.0012522091, 0.09281996, 0.05558667, -0.08134105, -0.049751718, 0.066979736,
-0.067351036, 0.0005631103, -0.032729875, -0.030673245, -0.09404574, 0.07342838, 0.018634133, -0.01734192, -0.108138666, 0.06824574,
0.029174829, 0.073501125, -0.09782963, -0.018687699, 0.08728856, 0.01262637, 0.04916886, -0.06547131, 0.0745299, 0.02518096,
-0.07844525, -0.08298925, 0.089697406, 0.026083231, -0.0003255925, 0.0577047, 0.019611733, 0.02849902, 0.031524055, -0.0023554964,
0.07099313, 0.0030159876, -0.029557567, 0.054301523, 0.10556335, -0.061080456, -0.07830511, 0.08651223, 0.10764344, -0.09942017,
-0.10241214, 0.0069655143, 0.019627322, 0.013970532, -0.022379728, 0.07612601, 0.07829309, 0.037547693, -0.0070421, 0.043815374,
-0.03686544, -0.09002459, 0.011976995, -0.0042979214, -0.020690283, 0.054846235, 0.09643833, 0.060985126, 0.094077624, -0.035595942,
-0.077342294, 0.011232505, 0.013498267, -0.07382796, 0.09595621, 0.08978838, 0.0043036654, -0.08262142, 0.030633613, -0.033811614,
-0.06555414, 0.0019494604, -0.09536888, 0.02821792, -0.053598493, 0.061560065, 0.070181176, -0.0534245, 0.035800405, 0.09001576,
-0.0071882345, -0.029797908, -0.03165386, -0.054774284, -0.009183692, 0.097003706, 0.04264584, -0.041670147, -0.09277563, -0.007028233,
-0.074597605, -0.088543266, -0.06851616, 0.08024284, -0.023869187, -0.021868858, 0.0073473095, 0.046303112, 0.03914466, -0.095732,
-0.07537011, 0.011087317, -0.059208024, 0.008798779, -0.066169865, 0.08288485, 0.04195293, 0.06992828, -0.0072391634, 0.019639421,
-0.0066619567, -0.059604596, -0.057507224, 0.019822989, -0.06657227, 0.04967301, 0.012135366, 0.044911847, 0.04778552, -0.007233048,
-0.076778695, 0.08033035, 0.013957392, -0.100119576, 0.072935455, -0.036967583, -0.035297494, 0.06421665, -0.00625698, 0.05615966,
-0.048698395, 0.07805913, -0.0033627243, -0.098190226, 0.032393444, -0.06797147, 0.05282657, 0.041141864, 0.054576084, 0.05979868,
-0.07399553, 0.10622326, -0.061249293, -0.028339293, -0.05482194, 0.021400241, -0.047853183, 0.0943699, -0.07942906, -0.046666466,
0.081221074, 0.06300502, 0.013398689, -0.0056196963, 0.014765976, 0.056129817, -0.009013509, 0.08104868, 0.09330496, -0.074431926,
-0.09573567, -0.058222104, -0.03802704, -0.068906784, -0.09035595, 0.018467212, 0.025499145, -0.050683603, -0.093043834, 0.10266202,
0.014164401, -0.034691323, 0.09459434, 0.01324937, -0.06784056, -0.0894035, -0.099507056, -0.03202864, 0.05348189, -0.035344023,
-0.03015644, 0.060784396, -0.0003041115, -0.022450468, 0.080719605, 0.035678938, 0.0014376319, 0.0863878, -0.016517807, -0.08666752,
-0.04895214, -0.0065616127, 0.033884935, 0.06919599, 0.015404901, 0.056137837, 0.077949435, 0.1034609, -0.064060695, -0.09224425,
-0.045627486, -0.07934705, 0.04821688, 0.030704252, 0.100109465, -0.04869087, -0.016184121, -0.088083334, -0.096095234, -0.088618055,
-0.018589364, 0.032262944, -0.06286036, -0.010598875, -0.003123432, 0.058678318, -0.06392708, 0.06665729, -0.03851968, -0.09282661,
-0.10104173, -0.05447699, 0.082712784, -0.015100346, 0.0030880088, 0.08531442, -0.09737242, 0.013176146, -0.028667396, -0.009018264,
0.0540647, 0.05663555, -0.0074010706, 0.051531088, 0.10660376, 0.08119118, 0.045841802, 0.02978528, 0.08692272, -0.10643077,
-0.09149235, 0.06341872, 0.054491527, -0.014833897, -0.0805513, -0.0021579426, -0.08739206, -0.049757756, 0.018271398, 0.10282706,
-0.008680929, 0.08267847, -0.053921074, 0.047372106, 0.02398477, -0.07211679, 0.020701328, -0.083504505, 0.09569787, -0.009519925,
-0.019879388, -0.024583481, -0.050814174, 0.06901149, 0.008265245, 0.054011304, 0.005434744, -0.03662295, 0.03269753, -0.06516756,
0.104009, -0.07023622, 0.096735165, -0.01192079, 0.060823668, -0.06629399, 0.074968256, 0.09758483, -0.060739245, 0.052060887,
0.08259449, 0.086091466, 0.030795475, 0.080717355, 0.057364006, -0.016608596, -0.092234865, -0.05602499, -0.056418683, 0.06903656,
-0.06335248, 0.05848304, -0.09373131, 0.049197435, 0.02510163, -0.029390723, -0.0043736133, -0.08348456, -0.045564882, -0.06969856,
-0.09579519, 0.06790579, -0.07519536, 0.058337096, 0.0872914, -0.08975125, 0.0142602045, 0.076518714, -0.05349001, 0.101247825,
0.021081282, -0.08981087, -0.05941902, -0.056756865, 0.057324264, 0.089691356, 0.08631372, 0.029565133, 0.050792567, 0.019075692,
0.028458746, -0.0950971, 0.0829027, 0.034737874, 0.075038165, -0.051882382, -0.08669813, 0.027965143, -0.048393115, 0.0043058684,
0.08558794, -0.042909183, -0.0060471017, 0.0100589525, -0.01848978, -0.0057174754, 0.050258204, 0.10030389, 0.0020953228, 0.07791884,
0.084053874, -0.03369877, -0.032856718, -0.09393298, 0.0045453026, -0.029005863, -0.06940269, -0.05096333, -0.038923398, 0.029550657,
0.07796286, -0.02174457, -0.057816148, -0.04483612, 0.0019400856, -0.053837836, -0.06716405, 0.07099292, -0.037029967, -0.033759814,
-0.052024174, -0.022157785, -0.020475699, -0.04008982, -0.028508086, 0.034082104, 0.070758246, -0.07183286, 0.09610121, 0.064425685,
0.014443385, 0.08218269, -0.018955, 0.085746385, -0.060651045, -0.06053719, -0.086458094, -0.02310205, 0.06666623, -0.04063145,
-0.068171464, 0.0812793, 0.0109483795, -0.049788725, -0.03183266, 0.071767956, 0.03384603, 0.049596284, -0.068220004, 0.022499012,
-0.08118348, -0.032090664, 0.051312808, 0.021330018, -0.016367108, 0.010085539, -0.008606449, -0.044201072, -0.09842697, 0.023719734,
0.091966964, 0.10228038, -0.074303515, 0.035842128, -0.015927454, -0.0011823288, -0.094857596, -0.03833329, -0.021835292, 0.088084854,
0.09570715, -0.08178954, 0.01376594, 0.016375093, -0.09353879, 0.034812104, -0.036854785, 0.05345126, -0.06391236, 0.0209396,
-0.05158993, 0.0800408, -0.07064335, -0.009261923, 0.021911947, -0.087308176, 0.08025124, -0.0037275848, 0.0009732306, 0.008105617,
0.052614827, -0.08692755, 0.08437098, 0.06175205, 0.10018335, -0.020444121, 0.10245841, 0.0025696503, -0.08716137, -0.03949,
0.08485449, -0.036269672, -0.062840916, -0.05727649, 0.037533756, 0.105033755, -0.07597673, 0.09813534, -0.05446901, 0.034579325,
-0.03272977, 0.05287348, 0.0092702955, -0.013772737, -0.07431996, 0.10128042, -0.02683342, -0.003293062, -0.04470754, 0.035821658,
0.066529505, -0.027083244, -0.053845946, 0.038615737, 0.07909109, -0.08053359, 0.070051484, -0.009112646, 0.006683588, 0.051643007,
-0.025817024, 0.049890403, 0.017604467, -0.04374236, -0.05274767, -0.07118843, -0.056099195, 0.103655264, 0.03818313, 0.06380761,
-0.086344875, 0.005072187, 0.096501626, -0.0927066, 0.100173324, -0.05320813, -0.075494185, -0.025067953, 0.020403657, 0.039986636,
-0.003616068, -0.045157026, 0.09020155, -0.040652543, -0.055426683, -0.050929766, -0.07728993, -0.030362934, -0.009648157, -0.032549877,
-0.094726786, 0.047482185, 0.0023217504, -0.010392436, 0.016155334, 0.047369633, -0.07469041, 0.024949018, 0.078842394, -0.06123005,
-0.03375144, -0.07224655, 0.060165163, -0.041656077, -0.06745098, 0.018740382, -0.056234747, -0.05349364, -0.08782855, -0.008024112,
0.031498894, 0.03961019, -0.07618868, 0.038932085, 0.01681349, 0.043187737, 0.07991157, -0.06265329, 0.023168253, -0.0008827703,
0.005613436, 0.05879018, -0.06841101, 0.06244681, 0.042913143, -0.070330545, 0.01562932, 0.009357707, -0.10011057, 0.07222168,
-0.08484336, 0.08317266, -0.0730432, 0.06421561, 0.020520566, 0.05234527, -0.0061059864, 0.04254689, -0.09056087, -0.020698376,
-0.082655445, 0.08695843, -0.03824963, -0.02714024, 0.022821162, -0.008356114, 0.052585542, -0.0558811, 0.06849023, 0.07790798,
0.0028118948, 0.06603645, 0.068485625, 0.024640987, 0.035407763, 0.07719154, 0.029893123, -0.05688495, 0.004644911, 0.027974535,
0.015455047, 0.10321311, 0.06098158, -0.09125376, 0.09155402, 0.07514348, 0.09809965, 0.051251985, -0.05504629, -0.09402165,
0.031040896, -0.09394399, -0.04570599, 0.038812336, 0.0119575765, 0.09918484, -0.049745537, 0.09569364, -0.097775124, -0.034517344,
0.081992775, -0.07324044, -0.0683571, 0.079660594, 0.09898227, 0.086185, 0.09432557, 0.03124142, 0.10187707, 0.056792114,
0.0009932873, 0.010775328, 0.06616814, -0.06866703, -0.06365645, -0.015917944, -0.09107367, -0.097225316, -0.016299145, 0.093230456,
-0.10145739, 0.06162486, -0.067030326, -0.0007531329, -0.089138635, 0.055265177, 0.04424832, 0.0010749128, 0.04317699, -0.048111733,
-0.055270318, -0.03058921, 0.036022678, -0.012708838, -0.09268202, -0.048617903, 0.050485738, 0.06260481, 0.028767241, -0.052594956,
-0.100359894, -0.062498286, -0.05779737, 0.06704913, 0.093329646, -0.04066885, 0.019880695, -0.036272775, -0.037140552, 0.038084917,
0.021177357, -0.056574766, -0.094365805, -0.030440954, 0.026970416, -0.10355254, 0.065057285, -0.096793465, -0.08203108, -0.1012409,
};
CNN_BIAS_DTYPE CNN_bias[CNN_KERNEL_COUNT] = {
-0.003926249, 0.0017952648, -0.0022383027, 0.0024645224, 0.0038663964, 0.003440017, -0.0005753428, -0.0019158844, 0.0003651452, -0.0031999194,
-0.0023294324, -0.0010340608, -0.0003322541, -0.0037514183, 0.0013504997, -0.0034870345,
};
DENSE_WEIGHTS_DTYPE dense_weights[DENSE_OUTPUT_NODES][DENSE_INPUT_NODES] = {
0.08930012, 0.07592157, 0.07893861, 0.11015633, -0.12739465, 0.10354244, 0.14569773, 0.107745744, -0.10570508, 0.044800147,
0.1041059, 0.17030178, 0.019946244, -0.08730058, -0.09252553, 0.09314754, -0.14559837, -0.14555834, 0.14732751, -0.06981207,
0.122267306, 0.049888685, 0.085497394, 0.17681089, 0.15615444, -0.07450237, 0.120538495, -0.11276595, 0.08929578, 0.03647276,
0.07582223, 0.16964407, 0.095384695, -0.15193565, 0.051139135, -0.12605354, -0.14177977, -0.1838972, -0.10118539, -0.08562198,
-0.08916011, 0.13006023, 0.083119914, -0.09719382, -0.10608914, 0.1636427, 0.17559992, 0.09052304, -0.07221712, 0.07728757,
0.17814276, 0.08347879, -0.17436773, 0.012755262, 0.02831775, -0.13937883, 0.024283893, 0.09847956, 0.15058284, -0.009815812,
-0.14549784, -0.050758123, -0.15262508, 0.1769327, -0.18141553, -0.13186741, -0.08723836, -0.041017585, -0.029312765, -0.0945457,
-0.12850498, 0.05908963, 0.1350488, 0.019611465, -0.09619352, 0.0027789257, -0.1297972, 0.011170921, 0.084036835, -0.11371639,
-0.15175495, 0.16261254, -0.11663588, 0.115599155, 0.06313219, -0.18077172, 0.02260709, -0.05321524, 0.029375996, 0.11708648,
-0.022180308, 0.042570874, 0.06678897, -0.093672775, 0.082117215, 0.12065744, 0.0673278, -0.04333266, 0.09494185, -0.0520831,
0.07803593, -0.080151156, 0.035842948, 0.091414474, -0.13767025, 0.081102915, 0.014892877, -0.06376619, -0.15957119, -0.011702349,
0.11945751, 0.036178343, 0.17436768, 0.015821794, 0.12165697, 0.16874233, -0.16559698, 0.098200776, -0.03680554, 0.03867662,
0.0037670943, -0.168373, -0.15790263, 0.06136686, -0.18104847, 0.019893788, 0.0819341, -0.10609973, -0.13550146, -0.15032226,
0.12614101, 0.0678874, -0.04022577, 0.07781043, -0.11578604, -0.09590672, -0.0052801557, -0.07524682, 0.14581007, 0.09997037,
-0.059438348, -0.12588142, 0.12621176, -0.028599644, 0.03114819, -0.06029781, 0.035236, 0.13584611, -0.06880915, -0.051362284,
-0.13586736, 0.10409224, 0.010596131, -0.104461946, 0.13802816, -0.12969059, -0.01190613, -0.022926176, 0.12200764, -0.10578041,
0.11605124, -0.09573792, 0.017890394, 0.007023364, 0.061618194, 0.10966729, 0.05824877, -0.068220645, -0.019597422, 0.09037126,
-0.17562202, -0.14810246, 0.14410405, 0.05432489, -0.1051634, 0.0005031867, 0.14091194, 0.15470344, 0.17098106, -0.1174975,
0.105739124, 0.0016987103, 0.15664807, -0.14023094, -0.109015845, 0.08327495, -0.025312137, 0.17743912, 0.07871987, -0.05254242,
0.17643906, -0.16677313, -0.020428278, -0.04388275, 0.14208528, 0.17378488, 0.14667593, 0.13947572, 0.11100011, -0.14802422,
0.018671043, 0.15016718, 0.099291354, 0.17164703, 0.070848085, -0.026940396, -0.067171164, 0.06719501, -0.054087304, -0.110537305,
-0.023650061, -0.14475067, 0.07083559, -0.009325643, 0.1423603, 0.04824845, -0.059643, -0.13202292, 0.15565267, -0.08582148,
-0.11181257, 0.16363384, 0.04850559, -0.082260914, 0.025047237, -0.07126433, 0.055095874, 0.15203947, -0.12178618, 0.13143876,
0.14379919, -0.10110914, 0.03016657, 0.09824681, 0.06681024, 0.117411084, -0.14515671, -0.0958031, -0.122643754, 0.0239844,
0.08052246, 0.16796573, 0.17337175, -0.017522493, 0.051540352, 0.08079579, -0.15972938, -0.17838383, 0.15907934, -0.010592754,
-0.10615935, 0.005910903, 0.13633011, 0.16081165, -0.024940835, 0.098838456, 0.029206807, -0.066568896, -0.103219025, -0.07062398,
0.026832106, -0.006858067, -0.16647893, 0.15918198, -0.08380751, -0.14532737, 0.013106583, -0.03473112, 0.008158431, 0.109953865,
0.06944274, 0.15831612, 0.17445184, -0.095695004, -0.030230956, 0.11067716, -0.1645335, 0.15620148, -0.08813785, 0.12085724,
0.043016873, -0.060205325, 0.068805784, 0.12403647, -0.06128239, 0.08865224, -0.0015544931, 0.04054699, 0.018658377, 0.104088925,
0.17908548, 0.16942142, 0.08817704, 0.066324115, -0.060134143, 0.094073795, 0.06720893, 0.003477536, -0.13834482, 0.11116282,
-0.0670485, -0.07134972, -0.0045195622, 0.111691095, -0.13053468, -0.13287888, 0.0039617456, 0.052741773, 0.04791983, -0.07613727,
-0.0127379615, -0.04913141, -0.08423302, 0.032263026, -0.1816979, 0.03169889, 0.034603816, 0.17145129, 0.1582549, -0.13652611,
0.04714782, 0.1128503, 0.12744853, 0.044050753, -0.08371003, -0.115212634, 0.08654864, 0.06599729, -0.15716955, 0.0002383992,
-0.1206528, 0.096606486, -0.07642759, 0.08640116, 0.02710832, -0.13791692, -0.17367363, 0.0026023777, 0.10320665, 0.10891406,
0.04769014, 0.12974174, 0.075307935, 0.18068136, -0.09616491, -0.08974029, 0.026618864, 0.16966324, -0.06672641, 0.1624726,
0.013912929, 0.13660914,
};
DENSE_BIAS_DTYPE dense_bias[DENSE_OUTPUT_NODES] = {
-0.0037161168, 0.0037161168,
};

CNN_IN_DTYPE input_buffer[CNN_KERNEL_LENGTH][INPUT_DEPTH];
CNN_OUT_DTYPE cnn_output_buffer[OUTPUT_LENGTH][OUTPUT_DEPTH];
DENSE_OUTPUT_DTYPE dense_output[DENSE_OUTPUT_NODES];

void top_function(
		FUNCTION_SELECT_BIT_WIDTH function_select,
		CNN_RAW_IN_DTYPE data_in[DENSE_OUTPUT_NODES],
		float result_out[DENSE_OUTPUT_NODES]) {
#pragma HLS interface s_axilite port=return bundle=control
#pragma HLS interface s_axilite port=function_select bundle=control
#pragma HLS interface axis port=data_in
#pragma HLS interface axis port=result_out


#pragma HLS ARRAY_PARTITION variable=CNN_weights type=cyclic dim=3 factor=2
#pragma HLS ARRAY_PARTITION variable=CNN_bias type=complete
#pragma HLS ARRAY_PARTITION variable=dense_weights type=cyclic dim=2 factor=2
#pragma HLS ARRAY_PARTITION variable=dense_bias type=complete
#pragma HLS ARRAY_PARTITION variable=input_buffer type=cyclic dim=2 factor=2
#pragma HLS ARRAY_PARTITION variable=cnn_output_buffer type=cyclic dim=2 factor=2
#pragma HLS ARRAY_PARTITION variable=dense_output type=complete

	if (function_select == 0) {
		// input more data
		read_input(data_in, input_buffer);
		compute_convolution(input_buffer, CNN_weights, CNN_bias, cnn_output_buffer);
		compute_dense(cnn_output_buffer, dense_weights, dense_bias, dense_output);
	} else if (function_select == 1) {
		// read result
		copy(dense_output, result_out, DENSE_OUTPUT_NODES);
	} else if (function_select == 2) {
		// reset CNN output buffer
		reset(cnn_output_buffer);
	}
}
